digraph Tree {
node [shape=box, style="filled", color="black", fontname="helvetica"] ;
edge [fontname="helvetica"] ;
0 [label="joining <= 2017.5\ngini = 0.5\nsamples = 3540\nvalue = [1770, 1770]\nclass = 0", fillcolor="#ffffff"] ;
1 [label="gender <= 0.5\ngini = 0.494\nsamples = 3179\nvalue = [1768, 1411]\nclass = 0", fillcolor="#fae6d7"] ;
0 -> 1 [labeldistance=2.5, labelangle=45, headlabel="True"] ;
2 [label="city <= 1.5\ngini = 0.472\nsamples = 1607\nvalue = [612, 995]\nclass = 1", fillcolor="#b3d9f5"] ;
1 -> 2 ;
3 [label="age <= 25.5\ngini = 0.481\nsamples = 906\nvalue = [541, 365]\nclass = 0", fillcolor="#f7d6bf"] ;
2 -> 3 ;
4 [label="education <= 1.5\ngini = 0.498\nsamples = 219\nvalue = [102, 117]\nclass = 1", fillcolor="#e6f2fc"] ;
3 -> 4 ;
5 [label="education <= 0.5\ngini = 0.494\nsamples = 211\nvalue = [94, 117]\nclass = 1", fillcolor="#d8ecfa"] ;
4 -> 5 ;
6 [label="joining <= 2013.5\ngini = 0.5\nsamples = 158\nvalue = [79, 79]\nclass = 0", fillcolor="#ffffff"] ;
5 -> 6 ;
7 [label="experience <= 0.5\ngini = 0.444\nsamples = 57\nvalue = [19, 38]\nclass = 1", fillcolor="#9ccef2"] ;
6 -> 7 ;
8 [label="joining <= 2012.5\ngini = 0.48\nsamples = 5\nvalue = [3, 2]\nclass = 0", fillcolor="#f6d5bd"] ;
7 -> 8 ;
9 [label="gini = 0.0\nsamples = 2\nvalue = [2, 0]\nclass = 0", fillcolor="#e58139"] ;
8 -> 9 ;
10 [label="city <= 0.5\ngini = 0.444\nsamples = 3\nvalue = [1, 2]\nclass = 1", fillcolor="#9ccef2"] ;
8 -> 10 ;
11 [label="gini = 0.5\nsamples = 2\nvalue = [1, 1]\nclass = 0", fillcolor="#ffffff"] ;
10 -> 11 ;
12 [label="gini = 0.0\nsamples = 1\nvalue = [0, 1]\nclass = 1", fillcolor="#399de5"] ;
10 -> 12 ;
13 [label="age <= 24.5\ngini = 0.426\nsamples = 52\nvalue = [16, 36]\nclass = 1", fillcolor="#91c9f1"] ;
7 -> 13 ;
14 [label="city <= 0.5\ngini = 0.375\nsamples = 28\nvalue = [7, 21]\nclass = 1", fillcolor="#7bbeee"] ;
13 -> 14 ;
15 [label="age <= 23.5\ngini = 0.444\nsamples = 15\nvalue = [5, 10]\nclass = 1", fillcolor="#9ccef2"] ;
14 -> 15 ;
16 [label="joining <= 2012.5\ngini = 0.32\nsamples = 5\nvalue = [1, 4]\nclass = 1", fillcolor="#6ab6ec"] ;
15 -> 16 ;
17 [label="gini = 0.0\nsamples = 4\nvalue = [0, 4]\nclass = 1", fillcolor="#399de5"] ;
16 -> 17 ;
18 [label="gini = 0.0\nsamples = 1\nvalue = [1, 0]\nclass = 0", fillcolor="#e58139"] ;
16 -> 18 ;
19 [label="joining <= 2012.5\ngini = 0.48\nsamples = 10\nvalue = [4, 6]\nclass = 1", fillcolor="#bddef6"] ;
15 -> 19 ;
20 [label="gini = 0.0\nsamples = 1\nvalue = [1, 0]\nclass = 0", fillcolor="#e58139"] ;
19 -> 20 ;
21 [label="gini = 0.444\nsamples = 9\nvalue = [3, 6]\nclass = 1", fillcolor="#9ccef2"] ;
19 -> 21 ;
22 [label="age <= 23.5\ngini = 0.26\nsamples = 13\nvalue = [2, 11]\nclass = 1", fillcolor="#5dafea"] ;
14 -> 22 ;
23 [label="gini = 0.0\nsamples = 1\nvalue = [1, 0]\nclass = 0", fillcolor="#e58139"] ;
22 -> 23 ;
24 [label="joining <= 2012.5\ngini = 0.153\nsamples = 12\nvalue = [1, 11]\nclass = 1", fillcolor="#4ba6e7"] ;
22 -> 24 ;
25 [label="gini = 0.0\nsamples = 2\nvalue = [0, 2]\nclass = 1", fillcolor="#399de5"] ;
24 -> 25 ;
26 [label="gini = 0.18\nsamples = 10\nvalue = [1, 9]\nclass = 1", fillcolor="#4fa8e8"] ;
24 -> 26 ;
27 [label="city <= 0.5\ngini = 0.469\nsamples = 24\nvalue = [9, 15]\nclass = 1", fillcolor="#b0d8f5"] ;
13 -> 27 ;
28 [label="joining <= 2012.5\ngini = 0.375\nsamples = 12\nvalue = [3, 9]\nclass = 1", fillcolor="#7bbeee"] ;
27 -> 28 ;
29 [label="gini = 0.0\nsamples = 5\nvalue = [0, 5]\nclass = 1", fillcolor="#399de5"] ;
28 -> 29 ;
30 [label="gini = 0.49\nsamples = 7\nvalue = [3, 4]\nclass = 1", fillcolor="#cee6f8"] ;
28 -> 30 ;
31 [label="joining <= 2012.5\ngini = 0.5\nsamples = 12\nvalue = [6, 6]\nclass = 0", fillcolor="#ffffff"] ;
27 -> 31 ;
32 [label="gini = 0.0\nsamples = 2\nvalue = [2, 0]\nclass = 0", fillcolor="#e58139"] ;
31 -> 32 ;
33 [label="gini = 0.48\nsamples = 10\nvalue = [4, 6]\nclass = 1", fillcolor="#bddef6"] ;
31 -> 33 ;
34 [label="joining <= 2015.5\ngini = 0.482\nsamples = 101\nvalue = [60, 41]\nclass = 0", fillcolor="#f7d7c0"] ;
6 -> 34 ;
35 [label="experience <= 2.5\ngini = 0.493\nsamples = 52\nvalue = [29, 23]\nclass = 0", fillcolor="#fae5d6"] ;
34 -> 35 ;
36 [label="joining <= 2014.5\ngini = 0.453\nsamples = 26\nvalue = [17, 9]\nclass = 0", fillcolor="#f3c4a2"] ;
35 -> 36 ;
37 [label="experience <= 1.5\ngini = 0.337\nsamples = 14\nvalue = [11, 3]\nclass = 0", fillcolor="#eca36f"] ;
36 -> 37 ;
38 [label="city <= 0.5\ngini = 0.444\nsamples = 6\nvalue = [4, 2]\nclass = 0", fillcolor="#f2c09c"] ;
37 -> 38 ;
39 [label="age <= 22.5\ngini = 0.32\nsamples = 5\nvalue = [4, 1]\nclass = 0", fillcolor="#eca06a"] ;
38 -> 39 ;
40 [label="gini = 0.444\nsamples = 3\nvalue = [2, 1]\nclass = 0", fillcolor="#f2c09c"] ;
39 -> 40 ;
41 [label="gini = 0.0\nsamples = 2\nvalue = [2, 0]\nclass = 0", fillcolor="#e58139"] ;
39 -> 41 ;
42 [label="gini = 0.0\nsamples = 1\nvalue = [0, 1]\nclass = 1", fillcolor="#399de5"] ;
38 -> 42 ;
43 [label="city <= 0.5\ngini = 0.219\nsamples = 8\nvalue = [7, 1]\nclass = 0", fillcolor="#e99355"] ;
37 -> 43 ;
44 [label="gini = 0.0\nsamples = 3\nvalue = [3, 0]\nclass = 0", fillcolor="#e58139"] ;
43 -> 44 ;
45 [label="gini = 0.32\nsamples = 5\nvalue = [4, 1]\nclass = 0", fillcolor="#eca06a"] ;
43 -> 45 ;
46 [label="city <= 0.5\ngini = 0.5\nsamples = 12\nvalue = [6, 6]\nclass = 0", fillcolor="#ffffff"] ;
36 -> 46 ;
47 [label="gini = 0.444\nsamples = 6\nvalue = [2, 4]\nclass = 1", fillcolor="#9ccef2"] ;
46 -> 47 ;
48 [label="experience <= 1.5\ngini = 0.444\nsamples = 6\nvalue = [4, 2]\nclass = 0", fillcolor="#f2c09c"] ;
46 -> 48 ;
49 [label="gini = 0.0\nsamples = 1\nvalue = [1, 0]\nclass = 0", fillcolor="#e58139"] ;
48 -> 49 ;
50 [label="gini = 0.48\nsamples = 5\nvalue = [3, 2]\nclass = 0", fillcolor="#f6d5bd"] ;
48 -> 50 ;
51 [label="joining <= 2014.5\ngini = 0.497\nsamples = 26\nvalue = [12, 14]\nclass = 1", fillcolor="#e3f1fb"] ;
35 -> 51 ;
52 [label="city <= 0.5\ngini = 0.444\nsamples = 15\nvalue = [5, 10]\nclass = 1", fillcolor="#9ccef2"] ;
51 -> 52 ;
53 [label="gini = 0.397\nsamples = 11\nvalue = [3, 8]\nclass = 1", fillcolor="#83c2ef"] ;
52 -> 53 ;
54 [label="gini = 0.5\nsamples = 4\nvalue = [2, 2]\nclass = 0", fillcolor="#ffffff"] ;
52 -> 54 ;
55 [label="city <= 0.5\ngini = 0.463\nsamples = 11\nvalue = [7, 4]\nclass = 0", fillcolor="#f4c9aa"] ;
51 -> 55 ;
56 [label="gini = 0.32\nsamples = 5\nvalue = [4, 1]\nclass = 0", fillcolor="#eca06a"] ;
55 -> 56 ;
57 [label="gini = 0.5\nsamples = 6\nvalue = [3, 3]\nclass = 0", fillcolor="#ffffff"] ;
55 -> 57 ;
58 [label="joining <= 2016.5\ngini = 0.465\nsamples = 49\nvalue = [31, 18]\nclass = 0", fillcolor="#f4caac"] ;
34 -> 58 ;
59 [label="age <= 23.0\ngini = 0.278\nsamples = 12\nvalue = [10, 2]\nclass = 0", fillcolor="#ea9a61"] ;
58 -> 59 ;
60 [label="city <= 0.5\ngini = 0.5\nsamples = 2\nvalue = [1, 1]\nclass = 0", fillcolor="#ffffff"] ;
59 -> 60 ;
61 [label="gini = 0.0\nsamples = 1\nvalue = [1, 0]\nclass = 0", fillcolor="#e58139"] ;
60 -> 61 ;
62 [label="gini = 0.0\nsamples = 1\nvalue = [0, 1]\nclass = 1", fillcolor="#399de5"] ;
60 -> 62 ;
63 [label="experience <= 2.5\ngini = 0.18\nsamples = 10\nvalue = [9, 1]\nclass = 0", fillcolor="#e88f4f"] ;
59 -> 63 ;
64 [label="city <= 0.5\ngini = 0.32\nsamples = 5\nvalue = [4, 1]\nclass = 0", fillcolor="#eca06a"] ;
63 -> 64 ;
65 [label="gini = 0.375\nsamples = 4\nvalue = [3, 1]\nclass = 0", fillcolor="#eeab7b"] ;
64 -> 65 ;
66 [label="gini = 0.0\nsamples = 1\nvalue = [1, 0]\nclass = 0", fillcolor="#e58139"] ;
64 -> 66 ;
67 [label="gini = 0.0\nsamples = 5\nvalue = [5, 0]\nclass = 0", fillcolor="#e58139"] ;
63 -> 67 ;
68 [label="experience <= 0.5\ngini = 0.491\nsamples = 37\nvalue = [21, 16]\nclass = 0", fillcolor="#f9e1d0"] ;
58 -> 68 ;
69 [label="gini = 0.0\nsamples = 1\nvalue = [1, 0]\nclass = 0", fillcolor="#e58139"] ;
68 -> 69 ;
70 [label="age <= 24.5\ngini = 0.494\nsamples = 36\nvalue = [20, 16]\nclass = 0", fillcolor="#fae6d7"] ;
68 -> 70 ;
71 [label="city <= 0.5\ngini = 0.498\nsamples = 17\nvalue = [8, 9]\nclass = 1", fillcolor="#e9f4fc"] ;
70 -> 71 ;
72 [label="experience <= 1.5\ngini = 0.408\nsamples = 7\nvalue = [5, 2]\nclass = 0", fillcolor="#efb388"] ;
71 -> 72 ;
73 [label="gini = 0.0\nsamples = 1\nvalue = [1, 0]\nclass = 0", fillcolor="#e58139"] ;
72 -> 73 ;
74 [label="gini = 0.444\nsamples = 6\nvalue = [4, 2]\nclass = 0", fillcolor="#f2c09c"] ;
72 -> 74 ;
75 [label="experience <= 1.5\ngini = 0.42\nsamples = 10\nvalue = [3, 7]\nclass = 1", fillcolor="#8ec7f0"] ;
71 -> 75 ;
76 [label="gini = 0.0\nsamples = 1\nvalue = [0, 1]\nclass = 1", fillcolor="#399de5"] ;
75 -> 76 ;
77 [label="gini = 0.444\nsamples = 9\nvalue = [3, 6]\nclass = 1", fillcolor="#9ccef2"] ;
75 -> 77 ;
78 [label="city <= 0.5\ngini = 0.465\nsamples = 19\nvalue = [12, 7]\nclass = 0", fillcolor="#f4caac"] ;
70 -> 78 ;
79 [label="gini = 0.48\nsamples = 5\nvalue = [2, 3]\nclass = 1", fillcolor="#bddef6"] ;
78 -> 79 ;
80 [label="gini = 0.408\nsamples = 14\nvalue = [10, 4]\nclass = 0", fillcolor="#efb388"] ;
78 -> 80 ;
81 [label="experience <= 1.5\ngini = 0.406\nsamples = 53\nvalue = [15, 38]\nclass = 1", fillcolor="#87c4ef"] ;
5 -> 81 ;
82 [label="gini = 0.0\nsamples = 5\nvalue = [0, 5]\nclass = 1", fillcolor="#399de5"] ;
81 -> 82 ;
83 [label="city <= 0.5\ngini = 0.43\nsamples = 48\nvalue = [15, 33]\nclass = 1", fillcolor="#93caf1"] ;
81 -> 83 ;
84 [label="gini = 0.0\nsamples = 4\nvalue = [0, 4]\nclass = 1", fillcolor="#399de5"] ;
83 -> 84 ;
85 [label="joining <= 2012.5\ngini = 0.449\nsamples = 44\nvalue = [15, 29]\nclass = 1", fillcolor="#9fd0f2"] ;
83 -> 85 ;
86 [label="gini = 0.0\nsamples = 1\nvalue = [0, 1]\nclass = 1", fillcolor="#399de5"] ;
85 -> 86 ;
87 [label="joining <= 2014.5\ngini = 0.454\nsamples = 43\nvalue = [15, 28]\nclass = 1", fillcolor="#a3d2f3"] ;
85 -> 87 ;
88 [label="experience <= 2.5\ngini = 0.48\nsamples = 10\nvalue = [4, 6]\nclass = 1", fillcolor="#bddef6"] ;
87 -> 88 ;
89 [label="gini = 0.32\nsamples = 5\nvalue = [1, 4]\nclass = 1", fillcolor="#6ab6ec"] ;
88 -> 89 ;
90 [label="joining <= 2013.5\ngini = 0.48\nsamples = 5\nvalue = [3, 2]\nclass = 0", fillcolor="#f6d5bd"] ;
88 -> 90 ;
91 [label="gini = 0.5\nsamples = 2\nvalue = [1, 1]\nclass = 0", fillcolor="#ffffff"] ;
90 -> 91 ;
92 [label="gini = 0.444\nsamples = 3\nvalue = [2, 1]\nclass = 0", fillcolor="#f2c09c"] ;
90 -> 92 ;
93 [label="joining <= 2015.5\ngini = 0.444\nsamples = 33\nvalue = [11, 22]\nclass = 1", fillcolor="#9ccef2"] ;
87 -> 93 ;
94 [label="gini = 0.0\nsamples = 2\nvalue = [0, 2]\nclass = 1", fillcolor="#399de5"] ;
93 -> 94 ;
95 [label="age <= 24.5\ngini = 0.458\nsamples = 31\nvalue = [11, 20]\nclass = 1", fillcolor="#a6d3f3"] ;
93 -> 95 ;
96 [label="gini = 0.496\nsamples = 11\nvalue = [5, 6]\nclass = 1", fillcolor="#deeffb"] ;
95 -> 96 ;
97 [label="joining <= 2016.5\ngini = 0.42\nsamples = 20\nvalue = [6, 14]\nclass = 1", fillcolor="#8ec7f0"] ;
95 -> 97 ;
98 [label="gini = 0.5\nsamples = 2\nvalue = [1, 1]\nclass = 0", fillcolor="#ffffff"] ;
97 -> 98 ;
99 [label="gini = 0.401\nsamples = 18\nvalue = [5, 13]\nclass = 1", fillcolor="#85c3ef"] ;
97 -> 99 ;
100 [label="gini = 0.0\nsamples = 8\nvalue = [8, 0]\nclass = 0", fillcolor="#e58139"] ;
4 -> 100 ;
101 [label="age <= 30.5\ngini = 0.461\nsamples = 687\nvalue = [439, 248]\nclass = 0", fillcolor="#f4c8a9"] ;
3 -> 101 ;
102 [label="education <= 0.5\ngini = 0.415\nsamples = 412\nvalue = [291, 121]\nclass = 0", fillcolor="#f0b58b"] ;
101 -> 102 ;
103 [label="joining <= 2016.5\ngini = 0.358\nsamples = 283\nvalue = [217, 66]\nclass = 0", fillcolor="#eda775"] ;
102 -> 103 ;
104 [label="experience <= 4.5\ngini = 0.403\nsamples = 225\nvalue = [162, 63]\nclass = 0", fillcolor="#efb286"] ;
103 -> 104 ;
105 [label="city <= 0.5\ngini = 0.367\nsamples = 153\nvalue = [116, 37]\nclass = 0", fillcolor="#eda978"] ;
104 -> 105 ;
106 [label="age <= 26.5\ngini = 0.458\nsamples = 79\nvalue = [51, 28]\nclass = 0", fillcolor="#f3c6a6"] ;
105 -> 106 ;
107 [label="joining <= 2013.5\ngini = 0.355\nsamples = 26\nvalue = [20, 6]\nclass = 0", fillcolor="#eda774"] ;
106 -> 107 ;
108 [label="joining <= 2012.5\ngini = 0.231\nsamples = 15\nvalue = [13, 2]\nclass = 0", fillcolor="#e99457"] ;
107 -> 108 ;
109 [label="gini = 0.0\nsamples = 4\nvalue = [4, 0]\nclass = 0", fillcolor="#e58139"] ;
108 -> 109 ;
110 [label="gini = 0.298\nsamples = 11\nvalue = [9, 2]\nclass = 0", fillcolor="#eb9d65"] ;
108 -> 110 ;
111 [label="joining <= 2015.5\ngini = 0.463\nsamples = 11\nvalue = [7, 4]\nclass = 0", fillcolor="#f4c9aa"] ;
107 -> 111 ;
112 [label="joining <= 2014.5\ngini = 0.49\nsamples = 7\nvalue = [4, 3]\nclass = 0", fillcolor="#f8e0ce"] ;
111 -> 112 ;
113 [label="gini = 0.5\nsamples = 2\nvalue = [1, 1]\nclass = 0", fillcolor="#ffffff"] ;
112 -> 113 ;
114 [label="gini = 0.48\nsamples = 5\nvalue = [3, 2]\nclass = 0", fillcolor="#f6d5bd"] ;
112 -> 114 ;
115 [label="gini = 0.375\nsamples = 4\nvalue = [3, 1]\nclass = 0", fillcolor="#eeab7b"] ;
111 -> 115 ;
116 [label="experience <= 3.5\ngini = 0.486\nsamples = 53\nvalue = [31, 22]\nclass = 0", fillcolor="#f7dac6"] ;
106 -> 116 ;
117 [label="joining <= 2014.5\ngini = 0.473\nsamples = 47\nvalue = [29, 18]\nclass = 0", fillcolor="#f5cfb4"] ;
116 -> 117 ;
118 [label="age <= 28.5\ngini = 0.498\nsamples = 32\nvalue = [17, 15]\nclass = 0", fillcolor="#fcf0e8"] ;
117 -> 118 ;
119 [label="experience <= 0.5\ngini = 0.483\nsamples = 22\nvalue = [9, 13]\nclass = 1", fillcolor="#c2e1f7"] ;
118 -> 119 ;
120 [label="gini = 0.0\nsamples = 1\nvalue = [1, 0]\nclass = 0", fillcolor="#e58139"] ;
119 -> 120 ;
121 [label="joining <= 2012.5\ngini = 0.472\nsamples = 21\nvalue = [8, 13]\nclass = 1", fillcolor="#b3d9f5"] ;
119 -> 121 ;
122 [label="experience <= 1.5\ngini = 0.5\nsamples = 6\nvalue = [3, 3]\nclass = 0", fillcolor="#ffffff"] ;
121 -> 122 ;
123 [label="gini = 0.444\nsamples = 3\nvalue = [2, 1]\nclass = 0", fillcolor="#f2c09c"] ;
122 -> 123 ;
124 [label="gini = 0.444\nsamples = 3\nvalue = [1, 2]\nclass = 1", fillcolor="#9ccef2"] ;
122 -> 124 ;
125 [label="experience <= 1.5\ngini = 0.444\nsamples = 15\nvalue = [5, 10]\nclass = 1", fillcolor="#9ccef2"] ;
121 -> 125 ;
126 [label="joining <= 2013.5\ngini = 0.346\nsamples = 9\nvalue = [2, 7]\nclass = 1", fillcolor="#72b9ec"] ;
125 -> 126 ;
127 [label="gini = 0.32\nsamples = 5\nvalue = [1, 4]\nclass = 1", fillcolor="#6ab6ec"] ;
126 -> 127 ;
128 [label="gini = 0.375\nsamples = 4\nvalue = [1, 3]\nclass = 1", fillcolor="#7bbeee"] ;
126 -> 128 ;
129 [label="experience <= 2.5\ngini = 0.5\nsamples = 6\nvalue = [3, 3]\nclass = 0", fillcolor="#ffffff"] ;
125 -> 129 ;
130 [label="gini = 0.0\nsamples = 1\nvalue = [1, 0]\nclass = 0", fillcolor="#e58139"] ;
129 -> 130 ;
131 [label="gini = 0.48\nsamples = 5\nvalue = [2, 3]\nclass = 1", fillcolor="#bddef6"] ;
129 -> 131 ;
132 [label="experience <= 1.5\ngini = 0.32\nsamples = 10\nvalue = [8, 2]\nclass = 0", fillcolor="#eca06a"] ;
118 -> 132 ;
133 [label="joining <= 2012.5\ngini = 0.48\nsamples = 5\nvalue = [3, 2]\nclass = 0", fillcolor="#f6d5bd"] ;
132 -> 133 ;
134 [label="gini = 0.0\nsamples = 1\nvalue = [1, 0]\nclass = 0", fillcolor="#e58139"] ;
133 -> 134 ;
135 [label="experience <= 0.5\ngini = 0.5\nsamples = 4\nvalue = [2, 2]\nclass = 0", fillcolor="#ffffff"] ;
133 -> 135 ;
136 [label="gini = 0.0\nsamples = 1\nvalue = [0, 1]\nclass = 1", fillcolor="#399de5"] ;
135 -> 136 ;
137 [label="age <= 29.5\ngini = 0.444\nsamples = 3\nvalue = [2, 1]\nclass = 0", fillcolor="#f2c09c"] ;
135 -> 137 ;
138 [label="joining <= 2013.5\ngini = 0.5\nsamples = 2\nvalue = [1, 1]\nclass = 0", fillcolor="#ffffff"] ;
137 -> 138 ;
139 [label="gini = 0.0\nsamples = 1\nvalue = [0, 1]\nclass = 1", fillcolor="#399de5"] ;
138 -> 139 ;
140 [label="gini = 0.0\nsamples = 1\nvalue = [1, 0]\nclass = 0", fillcolor="#e58139"] ;
138 -> 140 ;
141 [label="gini = 0.0\nsamples = 1\nvalue = [1, 0]\nclass = 0", fillcolor="#e58139"] ;
137 -> 141 ;
142 [label="gini = 0.0\nsamples = 5\nvalue = [5, 0]\nclass = 0", fillcolor="#e58139"] ;
132 -> 142 ;
143 [label="experience <= 1.5\ngini = 0.32\nsamples = 15\nvalue = [12, 3]\nclass = 0", fillcolor="#eca06a"] ;
117 -> 143 ;
144 [label="experience <= 0.5\ngini = 0.165\nsamples = 11\nvalue = [10, 1]\nclass = 0", fillcolor="#e88e4d"] ;
143 -> 144 ;
145 [label="joining <= 2015.5\ngini = 0.5\nsamples = 2\nvalue = [1, 1]\nclass = 0", fillcolor="#ffffff"] ;
144 -> 145 ;
146 [label="gini = 0.0\nsamples = 1\nvalue = [1, 0]\nclass = 0", fillcolor="#e58139"] ;
145 -> 146 ;
147 [label="gini = 0.0\nsamples = 1\nvalue = [0, 1]\nclass = 1", fillcolor="#399de5"] ;
145 -> 147 ;
148 [label="gini = 0.0\nsamples = 9\nvalue = [9, 0]\nclass = 0", fillcolor="#e58139"] ;
144 -> 148 ;
149 [label="experience <= 2.5\ngini = 0.5\nsamples = 4\nvalue = [2, 2]\nclass = 0", fillcolor="#ffffff"] ;
143 -> 149 ;
150 [label="gini = 0.0\nsamples = 1\nvalue = [0, 1]\nclass = 1", fillcolor="#399de5"] ;
149 -> 150 ;
151 [label="joining <= 2015.5\ngini = 0.444\nsamples = 3\nvalue = [2, 1]\nclass = 0", fillcolor="#f2c09c"] ;
149 -> 151 ;
152 [label="gini = 0.5\nsamples = 2\nvalue = [1, 1]\nclass = 0", fillcolor="#ffffff"] ;
151 -> 152 ;
153 [label="gini = 0.0\nsamples = 1\nvalue = [1, 0]\nclass = 0", fillcolor="#e58139"] ;
151 -> 153 ;
154 [label="joining <= 2012.5\ngini = 0.444\nsamples = 6\nvalue = [2, 4]\nclass = 1", fillcolor="#9ccef2"] ;
116 -> 154 ;
155 [label="gini = 0.0\nsamples = 1\nvalue = [1, 0]\nclass = 0", fillcolor="#e58139"] ;
154 -> 155 ;
156 [label="age <= 29.0\ngini = 0.32\nsamples = 5\nvalue = [1, 4]\nclass = 1", fillcolor="#6ab6ec"] ;
154 -> 156 ;
157 [label="gini = 0.0\nsamples = 2\nvalue = [0, 2]\nclass = 1", fillcolor="#399de5"] ;
156 -> 157 ;
158 [label="joining <= 2014.5\ngini = 0.444\nsamples = 3\nvalue = [1, 2]\nclass = 1", fillcolor="#9ccef2"] ;
156 -> 158 ;
159 [label="gini = 0.0\nsamples = 1\nvalue = [1, 0]\nclass = 0", fillcolor="#e58139"] ;
158 -> 159 ;
160 [label="gini = 0.0\nsamples = 2\nvalue = [0, 2]\nclass = 1", fillcolor="#399de5"] ;
158 -> 160 ;
161 [label="joining <= 2014.5\ngini = 0.214\nsamples = 74\nvalue = [65, 9]\nclass = 0", fillcolor="#e99254"] ;
105 -> 161 ;
162 [label="age <= 28.5\ngini = 0.105\nsamples = 36\nvalue = [34, 2]\nclass = 0", fillcolor="#e78845"] ;
161 -> 162 ;
163 [label="gini = 0.0\nsamples = 26\nvalue = [26, 0]\nclass = 0", fillcolor="#e58139"] ;
162 -> 163 ;
164 [label="experience <= 1.5\ngini = 0.32\nsamples = 10\nvalue = [8, 2]\nclass = 0", fillcolor="#eca06a"] ;
162 -> 164 ;
165 [label="gini = 0.0\nsamples = 4\nvalue = [4, 0]\nclass = 0", fillcolor="#e58139"] ;
164 -> 165 ;
166 [label="joining <= 2013.0\ngini = 0.444\nsamples = 6\nvalue = [4, 2]\nclass = 0", fillcolor="#f2c09c"] ;
164 -> 166 ;
167 [label="experience <= 2.5\ngini = 0.5\nsamples = 2\nvalue = [1, 1]\nclass = 0", fillcolor="#ffffff"] ;
166 -> 167 ;
168 [label="gini = 0.0\nsamples = 1\nvalue = [0, 1]\nclass = 1", fillcolor="#399de5"] ;
167 -> 168 ;
169 [label="gini = 0.0\nsamples = 1\nvalue = [1, 0]\nclass = 0", fillcolor="#e58139"] ;
167 -> 169 ;
170 [label="experience <= 2.5\ngini = 0.375\nsamples = 4\nvalue = [3, 1]\nclass = 0", fillcolor="#eeab7b"] ;
166 -> 170 ;
171 [label="gini = 0.0\nsamples = 2\nvalue = [2, 0]\nclass = 0", fillcolor="#e58139"] ;
170 -> 171 ;
172 [label="age <= 29.5\ngini = 0.5\nsamples = 2\nvalue = [1, 1]\nclass = 0", fillcolor="#ffffff"] ;
170 -> 172 ;
173 [label="gini = 0.0\nsamples = 1\nvalue = [0, 1]\nclass = 1", fillcolor="#399de5"] ;
172 -> 173 ;
174 [label="gini = 0.0\nsamples = 1\nvalue = [1, 0]\nclass = 0", fillcolor="#e58139"] ;
172 -> 174 ;
175 [label="experience <= 1.5\ngini = 0.301\nsamples = 38\nvalue = [31, 7]\nclass = 0", fillcolor="#eb9d66"] ;
161 -> 175 ;
176 [label="joining <= 2015.5\ngini = 0.408\nsamples = 7\nvalue = [5, 2]\nclass = 0", fillcolor="#efb388"] ;
175 -> 176 ;
177 [label="age <= 29.5\ngini = 0.5\nsamples = 4\nvalue = [2, 2]\nclass = 0", fillcolor="#ffffff"] ;
176 -> 177 ;
178 [label="age <= 28.5\ngini = 0.444\nsamples = 3\nvalue = [1, 2]\nclass = 1", fillcolor="#9ccef2"] ;
177 -> 178 ;
179 [label="gini = 0.5\nsamples = 2\nvalue = [1, 1]\nclass = 0", fillcolor="#ffffff"] ;
178 -> 179 ;
180 [label="gini = 0.0\nsamples = 1\nvalue = [0, 1]\nclass = 1", fillcolor="#399de5"] ;
178 -> 180 ;
181 [label="gini = 0.0\nsamples = 1\nvalue = [1, 0]\nclass = 0", fillcolor="#e58139"] ;
177 -> 181 ;
182 [label="gini = 0.0\nsamples = 3\nvalue = [3, 0]\nclass = 0", fillcolor="#e58139"] ;
176 -> 182 ;
183 [label="age <= 27.0\ngini = 0.271\nsamples = 31\nvalue = [26, 5]\nclass = 0", fillcolor="#ea995f"] ;
175 -> 183 ;
184 [label="joining <= 2015.5\ngini = 0.337\nsamples = 14\nvalue = [11, 3]\nclass = 0", fillcolor="#eca36f"] ;
183 -> 184 ;
185 [label="gini = 0.0\nsamples = 6\nvalue = [6, 0]\nclass = 0", fillcolor="#e58139"] ;
184 -> 185 ;
186 [label="gini = 0.469\nsamples = 8\nvalue = [5, 3]\nclass = 0", fillcolor="#f5cdb0"] ;
184 -> 186 ;
187 [label="joining <= 2015.5\ngini = 0.208\nsamples = 17\nvalue = [15, 2]\nclass = 0", fillcolor="#e89253"] ;
183 -> 187 ;
188 [label="experience <= 2.5\ngini = 0.32\nsamples = 10\nvalue = [8, 2]\nclass = 0", fillcolor="#eca06a"] ;
187 -> 188 ;
189 [label="age <= 29.0\ngini = 0.444\nsamples = 6\nvalue = [4, 2]\nclass = 0", fillcolor="#f2c09c"] ;
188 -> 189 ;
190 [label="gini = 0.48\nsamples = 5\nvalue = [3, 2]\nclass = 0", fillcolor="#f6d5bd"] ;
189 -> 190 ;
191 [label="gini = 0.0\nsamples = 1\nvalue = [1, 0]\nclass = 0", fillcolor="#e58139"] ;
189 -> 191 ;
192 [label="gini = 0.0\nsamples = 4\nvalue = [4, 0]\nclass = 0", fillcolor="#e58139"] ;
188 -> 192 ;
193 [label="gini = 0.0\nsamples = 7\nvalue = [7, 0]\nclass = 0", fillcolor="#e58139"] ;
187 -> 193 ;
194 [label="city <= 0.5\ngini = 0.461\nsamples = 72\nvalue = [46, 26]\nclass = 0", fillcolor="#f4c8a9"] ;
104 -> 194 ;
195 [label="joining <= 2014.5\ngini = 0.159\nsamples = 23\nvalue = [21, 2]\nclass = 0", fillcolor="#e78d4c"] ;
194 -> 195 ;
196 [label="gini = 0.0\nsamples = 10\nvalue = [10, 0]\nclass = 0", fillcolor="#e58139"] ;
195 -> 196 ;
197 [label="joining <= 2015.5\ngini = 0.26\nsamples = 13\nvalue = [11, 2]\nclass = 0", fillcolor="#ea985d"] ;
195 -> 197 ;
198 [label="age <= 27.5\ngini = 0.444\nsamples = 6\nvalue = [4, 2]\nclass = 0", fillcolor="#f2c09c"] ;
197 -> 198 ;
199 [label="gini = 0.48\nsamples = 5\nvalue = [3, 2]\nclass = 0", fillcolor="#f6d5bd"] ;
198 -> 199 ;
200 [label="gini = 0.0\nsamples = 1\nvalue = [1, 0]\nclass = 0", fillcolor="#e58139"] ;
198 -> 200 ;
201 [label="gini = 0.0\nsamples = 7\nvalue = [7, 0]\nclass = 0", fillcolor="#e58139"] ;
197 -> 201 ;
202 [label="joining <= 2015.5\ngini = 0.5\nsamples = 49\nvalue = [25, 24]\nclass = 0", fillcolor="#fefaf7"] ;
194 -> 202 ;
203 [label="joining <= 2014.5\ngini = 0.499\nsamples = 42\nvalue = [20, 22]\nclass = 1", fillcolor="#edf6fd"] ;
202 -> 203 ;
204 [label="joining <= 2012.5\ngini = 0.498\nsamples = 36\nvalue = [19, 17]\nclass = 0", fillcolor="#fcf2ea"] ;
203 -> 204 ;
205 [label="age <= 28.0\ngini = 0.492\nsamples = 16\nvalue = [7, 9]\nclass = 1", fillcolor="#d3e9f9"] ;
204 -> 205 ;
206 [label="gini = 0.48\nsamples = 15\nvalue = [6, 9]\nclass = 1", fillcolor="#bddef6"] ;
205 -> 206 ;
207 [label="gini = 0.0\nsamples = 1\nvalue = [1, 0]\nclass = 0", fillcolor="#e58139"] ;
205 -> 207 ;
208 [label="joining <= 2013.5\ngini = 0.48\nsamples = 20\nvalue = [12, 8]\nclass = 0", fillcolor="#f6d5bd"] ;
204 -> 208 ;
209 [label="age <= 27.5\ngini = 0.397\nsamples = 11\nvalue = [8, 3]\nclass = 0", fillcolor="#efb083"] ;
208 -> 209 ;
210 [label="gini = 0.32\nsamples = 10\nvalue = [8, 2]\nclass = 0", fillcolor="#eca06a"] ;
209 -> 210 ;
211 [label="gini = 0.0\nsamples = 1\nvalue = [0, 1]\nclass = 1", fillcolor="#399de5"] ;
209 -> 211 ;
212 [label="gini = 0.494\nsamples = 9\nvalue = [4, 5]\nclass = 1", fillcolor="#d7ebfa"] ;
208 -> 212 ;
213 [label="gini = 0.278\nsamples = 6\nvalue = [1, 5]\nclass = 1", fillcolor="#61b1ea"] ;
203 -> 213 ;
214 [label="age <= 27.5\ngini = 0.408\nsamples = 7\nvalue = [5, 2]\nclass = 0", fillcolor="#efb388"] ;
202 -> 214 ;
215 [label="gini = 0.444\nsamples = 6\nvalue = [4, 2]\nclass = 0", fillcolor="#f2c09c"] ;
214 -> 215 ;
216 [label="gini = 0.0\nsamples = 1\nvalue = [1, 0]\nclass = 0", fillcolor="#e58139"] ;
214 -> 216 ;
217 [label="age <= 29.5\ngini = 0.098\nsamples = 58\nvalue = [55, 3]\nclass = 0", fillcolor="#e68844"] ;
103 -> 217 ;
218 [label="age <= 26.5\ngini = 0.07\nsamples = 55\nvalue = [53, 2]\nclass = 0", fillcolor="#e68640"] ;
217 -> 218 ;
219 [label="city <= 0.5\ngini = 0.18\nsamples = 20\nvalue = [18, 2]\nclass = 0", fillcolor="#e88f4f"] ;
218 -> 219 ;
220 [label="gini = 0.0\nsamples = 5\nvalue = [5, 0]\nclass = 0", fillcolor="#e58139"] ;
219 -> 220 ;
221 [label="gini = 0.231\nsamples = 15\nvalue = [13, 2]\nclass = 0", fillcolor="#e99457"] ;
219 -> 221 ;
222 [label="gini = 0.0\nsamples = 35\nvalue = [35, 0]\nclass = 0", fillcolor="#e58139"] ;
218 -> 222 ;
223 [label="experience <= 3.5\ngini = 0.444\nsamples = 3\nvalue = [2, 1]\nclass = 0", fillcolor="#f2c09c"] ;
217 -> 223 ;
224 [label="gini = 0.0\nsamples = 2\nvalue = [2, 0]\nclass = 0", fillcolor="#e58139"] ;
223 -> 224 ;
225 [label="gini = 0.0\nsamples = 1\nvalue = [0, 1]\nclass = 1", fillcolor="#399de5"] ;
223 -> 225 ;
226 [label="education <= 1.5\ngini = 0.489\nsamples = 129\nvalue = [74, 55]\nclass = 0", fillcolor="#f8dfcc"] ;
102 -> 226 ;
227 [label="joining <= 2013.5\ngini = 0.5\nsamples = 110\nvalue = [55, 55]\nclass = 0", fillcolor="#ffffff"] ;
226 -> 227 ;
228 [label="experience <= 1.5\ngini = 0.346\nsamples = 27\nvalue = [6, 21]\nclass = 1", fillcolor="#72b9ec"] ;
227 -> 228 ;
229 [label="city <= 0.5\ngini = 0.5\nsamples = 2\nvalue = [1, 1]\nclass = 0", fillcolor="#ffffff"] ;
228 -> 229 ;
230 [label="gini = 0.0\nsamples = 1\nvalue = [0, 1]\nclass = 1", fillcolor="#399de5"] ;
229 -> 230 ;
231 [label="gini = 0.0\nsamples = 1\nvalue = [1, 0]\nclass = 0", fillcolor="#e58139"] ;
229 -> 231 ;
232 [label="age <= 29.5\ngini = 0.32\nsamples = 25\nvalue = [5, 20]\nclass = 1", fillcolor="#6ab6ec"] ;
228 -> 232 ;
233 [label="age <= 28.5\ngini = 0.287\nsamples = 23\nvalue = [4, 19]\nclass = 1", fillcolor="#63b2ea"] ;
232 -> 233 ;
234 [label="experience <= 4.5\ngini = 0.332\nsamples = 19\nvalue = [4, 15]\nclass = 1", fillcolor="#6eb7ec"] ;
233 -> 234 ;
235 [label="joining <= 2012.5\ngini = 0.42\nsamples = 10\nvalue = [3, 7]\nclass = 1", fillcolor="#8ec7f0"] ;
234 -> 235 ;
236 [label="gini = 0.32\nsamples = 5\nvalue = [1, 4]\nclass = 1", fillcolor="#6ab6ec"] ;
235 -> 236 ;
237 [label="city <= 0.5\ngini = 0.48\nsamples = 5\nvalue = [2, 3]\nclass = 1", fillcolor="#bddef6"] ;
235 -> 237 ;
238 [label="gini = 0.0\nsamples = 1\nvalue = [0, 1]\nclass = 1", fillcolor="#399de5"] ;
237 -> 238 ;
239 [label="age <= 27.0\ngini = 0.5\nsamples = 4\nvalue = [2, 2]\nclass = 0", fillcolor="#ffffff"] ;
237 -> 239 ;
240 [label="gini = 0.5\nsamples = 2\nvalue = [1, 1]\nclass = 0", fillcolor="#ffffff"] ;
239 -> 240 ;
241 [label="gini = 0.5\nsamples = 2\nvalue = [1, 1]\nclass = 0", fillcolor="#ffffff"] ;
239 -> 241 ;
242 [label="joining <= 2012.5\ngini = 0.198\nsamples = 9\nvalue = [1, 8]\nclass = 1", fillcolor="#52a9e8"] ;
234 -> 242 ;
243 [label="gini = 0.375\nsamples = 4\nvalue = [1, 3]\nclass = 1", fillcolor="#7bbeee"] ;
242 -> 243 ;
244 [label="gini = 0.0\nsamples = 5\nvalue = [0, 5]\nclass = 1", fillcolor="#399de5"] ;
242 -> 244 ;
245 [label="gini = 0.0\nsamples = 4\nvalue = [0, 4]\nclass = 1", fillcolor="#399de5"] ;
233 -> 245 ;
246 [label="experience <= 2.5\ngini = 0.5\nsamples = 2\nvalue = [1, 1]\nclass = 0", fillcolor="#ffffff"] ;
232 -> 246 ;
247 [label="gini = 0.0\nsamples = 1\nvalue = [0, 1]\nclass = 1", fillcolor="#399de5"] ;
246 -> 247 ;
248 [label="gini = 0.0\nsamples = 1\nvalue = [1, 0]\nclass = 0", fillcolor="#e58139"] ;
246 -> 248 ;
249 [label="experience <= 2.5\ngini = 0.484\nsamples = 83\nvalue = [49, 34]\nclass = 0", fillcolor="#f7d8c2"] ;
227 -> 249 ;
250 [label="age <= 29.5\ngini = 0.346\nsamples = 36\nvalue = [28, 8]\nclass = 0", fillcolor="#eca572"] ;
249 -> 250 ;
251 [label="joining <= 2016.5\ngini = 0.391\nsamples = 30\nvalue = [22, 8]\nclass = 0", fillcolor="#eeaf81"] ;
250 -> 251 ;
252 [label="gini = 0.0\nsamples = 6\nvalue = [6, 0]\nclass = 0", fillcolor="#e58139"] ;
251 -> 252 ;
253 [label="experience <= 1.5\ngini = 0.444\nsamples = 24\nvalue = [16, 8]\nclass = 0", fillcolor="#f2c09c"] ;
251 -> 253 ;
254 [label="gini = 0.444\nsamples = 3\nvalue = [1, 2]\nclass = 1", fillcolor="#9ccef2"] ;
253 -> 254 ;
255 [label="age <= 28.5\ngini = 0.408\nsamples = 21\nvalue = [15, 6]\nclass = 0", fillcolor="#efb388"] ;
253 -> 255 ;
256 [label="gini = 0.355\nsamples = 13\nvalue = [10, 3]\nclass = 0", fillcolor="#eda774"] ;
255 -> 256 ;
257 [label="gini = 0.469\nsamples = 8\nvalue = [5, 3]\nclass = 0", fillcolor="#f5cdb0"] ;
255 -> 257 ;
258 [label="gini = 0.0\nsamples = 6\nvalue = [6, 0]\nclass = 0", fillcolor="#e58139"] ;
250 -> 258 ;
259 [label="age <= 29.0\ngini = 0.494\nsamples = 47\nvalue = [21, 26]\nclass = 1", fillcolor="#d9ecfa"] ;
249 -> 259 ;
260 [label="age <= 27.5\ngini = 0.498\nsamples = 45\nvalue = [21, 24]\nclass = 1", fillcolor="#e6f3fc"] ;
259 -> 260 ;
261 [label="joining <= 2015.5\ngini = 0.493\nsamples = 41\nvalue = [18, 23]\nclass = 1", fillcolor="#d4eaf9"] ;
260 -> 261 ;
262 [label="experience <= 4.5\ngini = 0.278\nsamples = 6\nvalue = [1, 5]\nclass = 1", fillcolor="#61b1ea"] ;
261 -> 262 ;
263 [label="gini = 0.0\nsamples = 4\nvalue = [0, 4]\nclass = 1", fillcolor="#399de5"] ;
262 -> 263 ;
264 [label="gini = 0.5\nsamples = 2\nvalue = [1, 1]\nclass = 0", fillcolor="#ffffff"] ;
262 -> 264 ;
265 [label="city <= 0.5\ngini = 0.5\nsamples = 35\nvalue = [17, 18]\nclass = 1", fillcolor="#f4fafe"] ;
261 -> 265 ;
266 [label="joining <= 2016.5\ngini = 0.375\nsamples = 4\nvalue = [3, 1]\nclass = 0", fillcolor="#eeab7b"] ;
265 -> 266 ;
267 [label="gini = 0.0\nsamples = 1\nvalue = [0, 1]\nclass = 1", fillcolor="#399de5"] ;
266 -> 267 ;
268 [label="gini = 0.0\nsamples = 3\nvalue = [3, 0]\nclass = 0", fillcolor="#e58139"] ;
266 -> 268 ;
269 [label="joining <= 2016.5\ngini = 0.495\nsamples = 31\nvalue = [14, 17]\nclass = 1", fillcolor="#dceefa"] ;
265 -> 269 ;
270 [label="gini = 0.0\nsamples = 1\nvalue = [1, 0]\nclass = 0", fillcolor="#e58139"] ;
269 -> 270 ;
271 [label="age <= 26.5\ngini = 0.491\nsamples = 30\nvalue = [13, 17]\nclass = 1", fillcolor="#d0e8f9"] ;
269 -> 271 ;
272 [label="gini = 0.498\nsamples = 17\nvalue = [8, 9]\nclass = 1", fillcolor="#e9f4fc"] ;
271 -> 272 ;
273 [label="gini = 0.473\nsamples = 13\nvalue = [5, 8]\nclass = 1", fillcolor="#b5daf5"] ;
271 -> 273 ;
274 [label="city <= 0.5\ngini = 0.375\nsamples = 4\nvalue = [3, 1]\nclass = 0", fillcolor="#eeab7b"] ;
260 -> 274 ;
275 [label="gini = 0.0\nsamples = 1\nvalue = [0, 1]\nclass = 1", fillcolor="#399de5"] ;
274 -> 275 ;
276 [label="gini = 0.0\nsamples = 3\nvalue = [3, 0]\nclass = 0", fillcolor="#e58139"] ;
274 -> 276 ;
277 [label="gini = 0.0\nsamples = 2\nvalue = [0, 2]\nclass = 1", fillcolor="#399de5"] ;
259 -> 277 ;
278 [label="gini = 0.0\nsamples = 19\nvalue = [19, 0]\nclass = 0", fillcolor="#e58139"] ;
226 -> 278 ;
279 [label="experience <= 3.5\ngini = 0.497\nsamples = 275\nvalue = [148, 127]\nclass = 0", fillcolor="#fbede3"] ;
101 -> 279 ;
280 [label="joining <= 2013.5\ngini = 0.496\nsamples = 189\nvalue = [86, 103]\nclass = 1", fillcolor="#deeffb"] ;
279 -> 280 ;
281 [label="joining <= 2012.5\ngini = 0.44\nsamples = 55\nvalue = [18, 37]\nclass = 1", fillcolor="#99cdf2"] ;
280 -> 281 ;
282 [label="experience <= 1.5\ngini = 0.483\nsamples = 27\nvalue = [11, 16]\nclass = 1", fillcolor="#c1e0f7"] ;
281 -> 282 ;
283 [label="age <= 31.5\ngini = 0.375\nsamples = 16\nvalue = [4, 12]\nclass = 1", fillcolor="#7bbeee"] ;
282 -> 283 ;
284 [label="gini = 0.0\nsamples = 4\nvalue = [0, 4]\nclass = 1", fillcolor="#399de5"] ;
283 -> 284 ;
285 [label="city <= 0.5\ngini = 0.444\nsamples = 12\nvalue = [4, 8]\nclass = 1", fillcolor="#9ccef2"] ;
283 -> 285 ;
286 [label="age <= 34.0\ngini = 0.5\nsamples = 4\nvalue = [2, 2]\nclass = 0", fillcolor="#ffffff"] ;
285 -> 286 ;
287 [label="gini = 0.0\nsamples = 1\nvalue = [0, 1]\nclass = 1", fillcolor="#399de5"] ;
286 -> 287 ;
288 [label="age <= 37.0\ngini = 0.444\nsamples = 3\nvalue = [2, 1]\nclass = 0", fillcolor="#f2c09c"] ;
286 -> 288 ;
289 [label="gini = 0.0\nsamples = 1\nvalue = [1, 0]\nclass = 0", fillcolor="#e58139"] ;
288 -> 289 ;
290 [label="experience <= 0.5\ngini = 0.5\nsamples = 2\nvalue = [1, 1]\nclass = 0", fillcolor="#ffffff"] ;
288 -> 290 ;
291 [label="gini = 0.0\nsamples = 1\nvalue = [1, 0]\nclass = 0", fillcolor="#e58139"] ;
290 -> 291 ;
292 [label="gini = 0.0\nsamples = 1\nvalue = [0, 1]\nclass = 1", fillcolor="#399de5"] ;
290 -> 292 ;
293 [label="age <= 32.5\ngini = 0.375\nsamples = 8\nvalue = [2, 6]\nclass = 1", fillcolor="#7bbeee"] ;
285 -> 293 ;
294 [label="gini = 0.5\nsamples = 2\nvalue = [1, 1]\nclass = 0", fillcolor="#ffffff"] ;
293 -> 294 ;
295 [label="experience <= 0.5\ngini = 0.278\nsamples = 6\nvalue = [1, 5]\nclass = 1", fillcolor="#61b1ea"] ;
293 -> 295 ;
296 [label="gini = 0.0\nsamples = 4\nvalue = [0, 4]\nclass = 1", fillcolor="#399de5"] ;
295 -> 296 ;
297 [label="gini = 0.5\nsamples = 2\nvalue = [1, 1]\nclass = 0", fillcolor="#ffffff"] ;
295 -> 297 ;
298 [label="age <= 36.5\ngini = 0.463\nsamples = 11\nvalue = [7, 4]\nclass = 0", fillcolor="#f4c9aa"] ;
282 -> 298 ;
299 [label="city <= 0.5\ngini = 0.245\nsamples = 7\nvalue = [6, 1]\nclass = 0", fillcolor="#e9965a"] ;
298 -> 299 ;
300 [label="education <= 0.5\ngini = 0.444\nsamples = 3\nvalue = [2, 1]\nclass = 0", fillcolor="#f2c09c"] ;
299 -> 300 ;
301 [label="gini = 0.0\nsamples = 2\nvalue = [2, 0]\nclass = 0", fillcolor="#e58139"] ;
300 -> 301 ;
302 [label="gini = 0.0\nsamples = 1\nvalue = [0, 1]\nclass = 1", fillcolor="#399de5"] ;
300 -> 302 ;
303 [label="gini = 0.0\nsamples = 4\nvalue = [4, 0]\nclass = 0", fillcolor="#e58139"] ;
299 -> 303 ;
304 [label="age <= 38.5\ngini = 0.375\nsamples = 4\nvalue = [1, 3]\nclass = 1", fillcolor="#7bbeee"] ;
298 -> 304 ;
305 [label="gini = 0.0\nsamples = 2\nvalue = [0, 2]\nclass = 1", fillcolor="#399de5"] ;
304 -> 305 ;
306 [label="education <= 0.5\ngini = 0.5\nsamples = 2\nvalue = [1, 1]\nclass = 0", fillcolor="#ffffff"] ;
304 -> 306 ;
307 [label="gini = 0.0\nsamples = 1\nvalue = [1, 0]\nclass = 0", fillcolor="#e58139"] ;
306 -> 307 ;
308 [label="gini = 0.0\nsamples = 1\nvalue = [0, 1]\nclass = 1", fillcolor="#399de5"] ;
306 -> 308 ;
309 [label="education <= 0.5\ngini = 0.375\nsamples = 28\nvalue = [7, 21]\nclass = 1", fillcolor="#7bbeee"] ;
281 -> 309 ;
310 [label="age <= 40.5\ngini = 0.423\nsamples = 23\nvalue = [7, 16]\nclass = 1", fillcolor="#90c8f0"] ;
309 -> 310 ;
311 [label="age <= 37.5\ngini = 0.397\nsamples = 22\nvalue = [6, 16]\nclass = 1", fillcolor="#83c2ef"] ;
310 -> 311 ;
312 [label="age <= 36.5\ngini = 0.444\nsamples = 18\nvalue = [6, 12]\nclass = 1", fillcolor="#9ccef2"] ;
311 -> 312 ;
313 [label="experience <= 1.5\ngini = 0.375\nsamples = 16\nvalue = [4, 12]\nclass = 1", fillcolor="#7bbeee"] ;
312 -> 313 ;
314 [label="age <= 31.5\ngini = 0.278\nsamples = 12\nvalue = [2, 10]\nclass = 1", fillcolor="#61b1ea"] ;
313 -> 314 ;
315 [label="experience <= 0.5\ngini = 0.5\nsamples = 2\nvalue = [1, 1]\nclass = 0", fillcolor="#ffffff"] ;
314 -> 315 ;
316 [label="gini = 0.0\nsamples = 1\nvalue = [0, 1]\nclass = 1", fillcolor="#399de5"] ;
315 -> 316 ;
317 [label="gini = 0.0\nsamples = 1\nvalue = [1, 0]\nclass = 0", fillcolor="#e58139"] ;
315 -> 317 ;
318 [label="experience <= 0.5\ngini = 0.18\nsamples = 10\nvalue = [1, 9]\nclass = 1", fillcolor="#4fa8e8"] ;
314 -> 318 ;
319 [label="city <= 0.5\ngini = 0.32\nsamples = 5\nvalue = [1, 4]\nclass = 1", fillcolor="#6ab6ec"] ;
318 -> 319 ;
320 [label="gini = 0.0\nsamples = 3\nvalue = [0, 3]\nclass = 1", fillcolor="#399de5"] ;
319 -> 320 ;
321 [label="age <= 35.5\ngini = 0.5\nsamples = 2\nvalue = [1, 1]\nclass = 0", fillcolor="#ffffff"] ;
319 -> 321 ;
322 [label="gini = 0.0\nsamples = 1\nvalue = [1, 0]\nclass = 0", fillcolor="#e58139"] ;
321 -> 322 ;
323 [label="gini = 0.0\nsamples = 1\nvalue = [0, 1]\nclass = 1", fillcolor="#399de5"] ;
321 -> 323 ;
324 [label="gini = 0.0\nsamples = 5\nvalue = [0, 5]\nclass = 1", fillcolor="#399de5"] ;
318 -> 324 ;
325 [label="city <= 0.5\ngini = 0.5\nsamples = 4\nvalue = [2, 2]\nclass = 0", fillcolor="#ffffff"] ;
313 -> 325 ;
326 [label="gini = 0.0\nsamples = 2\nvalue = [2, 0]\nclass = 0", fillcolor="#e58139"] ;
325 -> 326 ;
327 [label="gini = 0.0\nsamples = 2\nvalue = [0, 2]\nclass = 1", fillcolor="#399de5"] ;
325 -> 327 ;
328 [label="gini = 0.0\nsamples = 2\nvalue = [2, 0]\nclass = 0", fillcolor="#e58139"] ;
312 -> 328 ;
329 [label="gini = 0.0\nsamples = 4\nvalue = [0, 4]\nclass = 1", fillcolor="#399de5"] ;
311 -> 329 ;
330 [label="gini = 0.0\nsamples = 1\nvalue = [1, 0]\nclass = 0", fillcolor="#e58139"] ;
310 -> 330 ;
331 [label="gini = 0.0\nsamples = 5\nvalue = [0, 5]\nclass = 1", fillcolor="#399de5"] ;
309 -> 331 ;
332 [label="experience <= 0.5\ngini = 0.5\nsamples = 134\nvalue = [68, 66]\nclass = 0", fillcolor="#fefbf9"] ;
280 -> 332 ;
333 [label="age <= 34.5\ngini = 0.426\nsamples = 26\nvalue = [18, 8]\nclass = 0", fillcolor="#f1b991"] ;
332 -> 333 ;
334 [label="age <= 31.5\ngini = 0.5\nsamples = 8\nvalue = [4, 4]\nclass = 0", fillcolor="#ffffff"] ;
333 -> 334 ;
335 [label="gini = 0.0\nsamples = 2\nvalue = [2, 0]\nclass = 0", fillcolor="#e58139"] ;
334 -> 335 ;
336 [label="joining <= 2016.0\ngini = 0.444\nsamples = 6\nvalue = [2, 4]\nclass = 1", fillcolor="#9ccef2"] ;
334 -> 336 ;
337 [label="education <= 1.0\ngini = 0.444\nsamples = 3\nvalue = [2, 1]\nclass = 0", fillcolor="#f2c09c"] ;
336 -> 337 ;
338 [label="city <= 0.5\ngini = 0.5\nsamples = 2\nvalue = [1, 1]\nclass = 0", fillcolor="#ffffff"] ;
337 -> 338 ;
339 [label="gini = 0.0\nsamples = 1\nvalue = [1, 0]\nclass = 0", fillcolor="#e58139"] ;
338 -> 339 ;
340 [label="gini = 0.0\nsamples = 1\nvalue = [0, 1]\nclass = 1", fillcolor="#399de5"] ;
338 -> 340 ;
341 [label="gini = 0.0\nsamples = 1\nvalue = [1, 0]\nclass = 0", fillcolor="#e58139"] ;
337 -> 341 ;
342 [label="gini = 0.0\nsamples = 3\nvalue = [0, 3]\nclass = 1", fillcolor="#399de5"] ;
336 -> 342 ;
343 [label="joining <= 2015.5\ngini = 0.346\nsamples = 18\nvalue = [14, 4]\nclass = 0", fillcolor="#eca572"] ;
333 -> 343 ;
344 [label="age <= 38.5\ngini = 0.444\nsamples = 9\nvalue = [6, 3]\nclass = 0", fillcolor="#f2c09c"] ;
343 -> 344 ;
345 [label="education <= 0.5\ngini = 0.278\nsamples = 6\nvalue = [5, 1]\nclass = 0", fillcolor="#ea9a61"] ;
344 -> 345 ;
346 [label="gini = 0.0\nsamples = 4\nvalue = [4, 0]\nclass = 0", fillcolor="#e58139"] ;
345 -> 346 ;
347 [label="age <= 37.5\ngini = 0.5\nsamples = 2\nvalue = [1, 1]\nclass = 0", fillcolor="#ffffff"] ;
345 -> 347 ;
348 [label="gini = 0.0\nsamples = 1\nvalue = [0, 1]\nclass = 1", fillcolor="#399de5"] ;
347 -> 348 ;
349 [label="gini = 0.0\nsamples = 1\nvalue = [1, 0]\nclass = 0", fillcolor="#e58139"] ;
347 -> 349 ;
350 [label="gini = 0.444\nsamples = 3\nvalue = [1, 2]\nclass = 1", fillcolor="#9ccef2"] ;
344 -> 350 ;
351 [label="joining <= 2016.5\ngini = 0.198\nsamples = 9\nvalue = [8, 1]\nclass = 0", fillcolor="#e89152"] ;
343 -> 351 ;
352 [label="gini = 0.0\nsamples = 4\nvalue = [4, 0]\nclass = 0", fillcolor="#e58139"] ;
351 -> 352 ;
353 [label="age <= 39.0\ngini = 0.32\nsamples = 5\nvalue = [4, 1]\nclass = 0", fillcolor="#eca06a"] ;
351 -> 353 ;
354 [label="age <= 37.0\ngini = 0.5\nsamples = 2\nvalue = [1, 1]\nclass = 0", fillcolor="#ffffff"] ;
353 -> 354 ;
355 [label="gini = 0.0\nsamples = 1\nvalue = [1, 0]\nclass = 0", fillcolor="#e58139"] ;
354 -> 355 ;
356 [label="gini = 0.0\nsamples = 1\nvalue = [0, 1]\nclass = 1", fillcolor="#399de5"] ;
354 -> 356 ;
357 [label="gini = 0.0\nsamples = 3\nvalue = [3, 0]\nclass = 0", fillcolor="#e58139"] ;
353 -> 357 ;
358 [label="age <= 40.5\ngini = 0.497\nsamples = 108\nvalue = [50, 58]\nclass = 1", fillcolor="#e4f1fb"] ;
332 -> 358 ;
359 [label="age <= 39.5\ngini = 0.499\nsamples = 103\nvalue = [49, 54]\nclass = 1", fillcolor="#edf6fd"] ;
358 -> 359 ;
360 [label="experience <= 2.5\ngini = 0.494\nsamples = 92\nvalue = [41, 51]\nclass = 1", fillcolor="#d8ecfa"] ;
359 -> 360 ;
361 [label="joining <= 2015.5\ngini = 0.5\nsamples = 72\nvalue = [35, 37]\nclass = 1", fillcolor="#f4fafe"] ;
360 -> 361 ;
362 [label="age <= 33.5\ngini = 0.413\nsamples = 24\nvalue = [17, 7]\nclass = 0", fillcolor="#f0b58b"] ;
361 -> 362 ;
363 [label="gini = 0.0\nsamples = 4\nvalue = [4, 0]\nclass = 0", fillcolor="#e58139"] ;
362 -> 363 ;
364 [label="age <= 37.5\ngini = 0.455\nsamples = 20\nvalue = [13, 7]\nclass = 0", fillcolor="#f3c5a4"] ;
362 -> 364 ;
365 [label="education <= 0.5\ngini = 0.497\nsamples = 13\nvalue = [7, 6]\nclass = 0", fillcolor="#fbede3"] ;
364 -> 365 ;
366 [label="joining <= 2014.5\ngini = 0.463\nsamples = 11\nvalue = [7, 4]\nclass = 0", fillcolor="#f4c9aa"] ;
365 -> 366 ;
367 [label="age <= 36.5\ngini = 0.48\nsamples = 5\nvalue = [2, 3]\nclass = 1", fillcolor="#bddef6"] ;
366 -> 367 ;
368 [label="experience <= 1.5\ngini = 0.375\nsamples = 4\nvalue = [1, 3]\nclass = 1", fillcolor="#7bbeee"] ;
367 -> 368 ;
369 [label="gini = 0.444\nsamples = 3\nvalue = [1, 2]\nclass = 1", fillcolor="#9ccef2"] ;
368 -> 369 ;
370 [label="gini = 0.0\nsamples = 1\nvalue = [0, 1]\nclass = 1", fillcolor="#399de5"] ;
368 -> 370 ;
371 [label="gini = 0.0\nsamples = 1\nvalue = [1, 0]\nclass = 0", fillcolor="#e58139"] ;
367 -> 371 ;
372 [label="experience <= 1.5\ngini = 0.278\nsamples = 6\nvalue = [5, 1]\nclass = 0", fillcolor="#ea9a61"] ;
366 -> 372 ;
373 [label="gini = 0.0\nsamples = 1\nvalue = [0, 1]\nclass = 1", fillcolor="#399de5"] ;
372 -> 373 ;
374 [label="gini = 0.0\nsamples = 5\nvalue = [5, 0]\nclass = 0", fillcolor="#e58139"] ;
372 -> 374 ;
375 [label="gini = 0.0\nsamples = 2\nvalue = [0, 2]\nclass = 1", fillcolor="#399de5"] ;
365 -> 375 ;
376 [label="joining <= 2014.5\ngini = 0.245\nsamples = 7\nvalue = [6, 1]\nclass = 0", fillcolor="#e9965a"] ;
364 -> 376 ;
377 [label="gini = 0.0\nsamples = 4\nvalue = [4, 0]\nclass = 0", fillcolor="#e58139"] ;
376 -> 377 ;
378 [label="education <= 0.5\ngini = 0.444\nsamples = 3\nvalue = [2, 1]\nclass = 0", fillcolor="#f2c09c"] ;
376 -> 378 ;
379 [label="gini = 0.0\nsamples = 1\nvalue = [0, 1]\nclass = 1", fillcolor="#399de5"] ;
378 -> 379 ;
380 [label="gini = 0.0\nsamples = 2\nvalue = [2, 0]\nclass = 0", fillcolor="#e58139"] ;
378 -> 380 ;
381 [label="age <= 36.5\ngini = 0.469\nsamples = 48\nvalue = [18, 30]\nclass = 1", fillcolor="#b0d8f5"] ;
361 -> 381 ;
382 [label="age <= 35.5\ngini = 0.499\nsamples = 29\nvalue = [14, 15]\nclass = 1", fillcolor="#f2f8fd"] ;
381 -> 382 ;
383 [label="age <= 32.0\ngini = 0.469\nsamples = 24\nvalue = [9, 15]\nclass = 1", fillcolor="#b0d8f5"] ;
382 -> 383 ;
384 [label="gini = 0.444\nsamples = 3\nvalue = [2, 1]\nclass = 0", fillcolor="#f2c09c"] ;
383 -> 384 ;
385 [label="experience <= 1.5\ngini = 0.444\nsamples = 21\nvalue = [7, 14]\nclass = 1", fillcolor="#9ccef2"] ;
383 -> 385 ;
386 [label="age <= 34.5\ngini = 0.375\nsamples = 8\nvalue = [2, 6]\nclass = 1", fillcolor="#7bbeee"] ;
385 -> 386 ;
387 [label="education <= 0.5\ngini = 0.444\nsamples = 6\nvalue = [2, 4]\nclass = 1", fillcolor="#9ccef2"] ;
386 -> 387 ;
388 [label="age <= 33.5\ngini = 0.32\nsamples = 5\nvalue = [1, 4]\nclass = 1", fillcolor="#6ab6ec"] ;
387 -> 388 ;
389 [label="gini = 0.0\nsamples = 3\nvalue = [0, 3]\nclass = 1", fillcolor="#399de5"] ;
388 -> 389 ;
390 [label="city <= 0.5\ngini = 0.5\nsamples = 2\nvalue = [1, 1]\nclass = 0", fillcolor="#ffffff"] ;
388 -> 390 ;
391 [label="gini = 0.0\nsamples = 1\nvalue = [1, 0]\nclass = 0", fillcolor="#e58139"] ;
390 -> 391 ;
392 [label="gini = 0.0\nsamples = 1\nvalue = [0, 1]\nclass = 1", fillcolor="#399de5"] ;
390 -> 392 ;
393 [label="gini = 0.0\nsamples = 1\nvalue = [1, 0]\nclass = 0", fillcolor="#e58139"] ;
387 -> 393 ;
394 [label="gini = 0.0\nsamples = 2\nvalue = [0, 2]\nclass = 1", fillcolor="#399de5"] ;
386 -> 394 ;
395 [label="education <= 0.5\ngini = 0.473\nsamples = 13\nvalue = [5, 8]\nclass = 1", fillcolor="#b5daf5"] ;
385 -> 395 ;
396 [label="age <= 33.5\ngini = 0.444\nsamples = 3\nvalue = [2, 1]\nclass = 0", fillcolor="#f2c09c"] ;
395 -> 396 ;
397 [label="gini = 0.0\nsamples = 2\nvalue = [2, 0]\nclass = 0", fillcolor="#e58139"] ;
396 -> 397 ;
398 [label="gini = 0.0\nsamples = 1\nvalue = [0, 1]\nclass = 1", fillcolor="#399de5"] ;
396 -> 398 ;
399 [label="age <= 34.5\ngini = 0.42\nsamples = 10\nvalue = [3, 7]\nclass = 1", fillcolor="#8ec7f0"] ;
395 -> 399 ;
400 [label="age <= 33.5\ngini = 0.245\nsamples = 7\nvalue = [1, 6]\nclass = 1", fillcolor="#5aade9"] ;
399 -> 400 ;
401 [label="gini = 0.0\nsamples = 2\nvalue = [0, 2]\nclass = 1", fillcolor="#399de5"] ;
400 -> 401 ;
402 [label="gini = 0.32\nsamples = 5\nvalue = [1, 4]\nclass = 1", fillcolor="#6ab6ec"] ;
400 -> 402 ;
403 [label="gini = 0.444\nsamples = 3\nvalue = [2, 1]\nclass = 0", fillcolor="#f2c09c"] ;
399 -> 403 ;
404 [label="gini = 0.0\nsamples = 5\nvalue = [5, 0]\nclass = 0", fillcolor="#e58139"] ;
382 -> 404 ;
405 [label="age <= 38.5\ngini = 0.332\nsamples = 19\nvalue = [4, 15]\nclass = 1", fillcolor="#6eb7ec"] ;
381 -> 405 ;
406 [label="education <= 0.5\ngini = 0.245\nsamples = 14\nvalue = [2, 12]\nclass = 1", fillcolor="#5aade9"] ;
405 -> 406 ;
407 [label="gini = 0.0\nsamples = 7\nvalue = [0, 7]\nclass = 1", fillcolor="#399de5"] ;
406 -> 407 ;
408 [label="age <= 37.5\ngini = 0.408\nsamples = 7\nvalue = [2, 5]\nclass = 1", fillcolor="#88c4ef"] ;
406 -> 408 ;
409 [label="joining <= 2016.5\ngini = 0.5\nsamples = 2\nvalue = [1, 1]\nclass = 0", fillcolor="#ffffff"] ;
408 -> 409 ;
410 [label="gini = 0.0\nsamples = 1\nvalue = [0, 1]\nclass = 1", fillcolor="#399de5"] ;
409 -> 410 ;
411 [label="gini = 0.0\nsamples = 1\nvalue = [1, 0]\nclass = 0", fillcolor="#e58139"] ;
409 -> 411 ;
412 [label="city <= 0.5\ngini = 0.32\nsamples = 5\nvalue = [1, 4]\nclass = 1", fillcolor="#6ab6ec"] ;
408 -> 412 ;
413 [label="gini = 0.0\nsamples = 1\nvalue = [0, 1]\nclass = 1", fillcolor="#399de5"] ;
412 -> 413 ;
414 [label="gini = 0.375\nsamples = 4\nvalue = [1, 3]\nclass = 1", fillcolor="#7bbeee"] ;
412 -> 414 ;
415 [label="education <= 0.5\ngini = 0.48\nsamples = 5\nvalue = [2, 3]\nclass = 1", fillcolor="#bddef6"] ;
405 -> 415 ;
416 [label="gini = 0.0\nsamples = 2\nvalue = [2, 0]\nclass = 0", fillcolor="#e58139"] ;
415 -> 416 ;
417 [label="gini = 0.0\nsamples = 3\nvalue = [0, 3]\nclass = 1", fillcolor="#399de5"] ;
415 -> 417 ;
418 [label="joining <= 2016.5\ngini = 0.42\nsamples = 20\nvalue = [6, 14]\nclass = 1", fillcolor="#8ec7f0"] ;
360 -> 418 ;
419 [label="age <= 31.5\ngini = 0.124\nsamples = 15\nvalue = [1, 14]\nclass = 1", fillcolor="#47a4e7"] ;
418 -> 419 ;
420 [label="gini = 0.0\nsamples = 1\nvalue = [1, 0]\nclass = 0", fillcolor="#e58139"] ;
419 -> 420 ;
421 [label="gini = 0.0\nsamples = 14\nvalue = [0, 14]\nclass = 1", fillcolor="#399de5"] ;
419 -> 421 ;
422 [label="gini = 0.0\nsamples = 5\nvalue = [5, 0]\nclass = 0", fillcolor="#e58139"] ;
418 -> 422 ;
423 [label="city <= 0.5\ngini = 0.397\nsamples = 11\nvalue = [8, 3]\nclass = 0", fillcolor="#efb083"] ;
359 -> 423 ;
424 [label="gini = 0.0\nsamples = 2\nvalue = [2, 0]\nclass = 0", fillcolor="#e58139"] ;
423 -> 424 ;
425 [label="joining <= 2016.5\ngini = 0.444\nsamples = 9\nvalue = [6, 3]\nclass = 0", fillcolor="#f2c09c"] ;
423 -> 425 ;
426 [label="joining <= 2015.5\ngini = 0.5\nsamples = 4\nvalue = [2, 2]\nclass = 0", fillcolor="#ffffff"] ;
425 -> 426 ;
427 [label="joining <= 2014.5\ngini = 0.444\nsamples = 3\nvalue = [2, 1]\nclass = 0", fillcolor="#f2c09c"] ;
426 -> 427 ;
428 [label="gini = 0.5\nsamples = 2\nvalue = [1, 1]\nclass = 0", fillcolor="#ffffff"] ;
427 -> 428 ;
429 [label="gini = 0.0\nsamples = 1\nvalue = [1, 0]\nclass = 0", fillcolor="#e58139"] ;
427 -> 429 ;
430 [label="gini = 0.0\nsamples = 1\nvalue = [0, 1]\nclass = 1", fillcolor="#399de5"] ;
426 -> 430 ;
431 [label="education <= 0.5\ngini = 0.32\nsamples = 5\nvalue = [4, 1]\nclass = 0", fillcolor="#eca06a"] ;
425 -> 431 ;
432 [label="gini = 0.0\nsamples = 1\nvalue = [1, 0]\nclass = 0", fillcolor="#e58139"] ;
431 -> 432 ;
433 [label="experience <= 1.5\ngini = 0.375\nsamples = 4\nvalue = [3, 1]\nclass = 0", fillcolor="#eeab7b"] ;
431 -> 433 ;
434 [label="gini = 0.0\nsamples = 1\nvalue = [1, 0]\nclass = 0", fillcolor="#e58139"] ;
433 -> 434 ;
435 [label="gini = 0.444\nsamples = 3\nvalue = [2, 1]\nclass = 0", fillcolor="#f2c09c"] ;
433 -> 435 ;
436 [label="experience <= 2.5\ngini = 0.32\nsamples = 5\nvalue = [1, 4]\nclass = 1", fillcolor="#6ab6ec"] ;
358 -> 436 ;
437 [label="gini = 0.0\nsamples = 4\nvalue = [0, 4]\nclass = 1", fillcolor="#399de5"] ;
436 -> 437 ;
438 [label="gini = 0.0\nsamples = 1\nvalue = [1, 0]\nclass = 0", fillcolor="#e58139"] ;
436 -> 438 ;
439 [label="age <= 33.5\ngini = 0.402\nsamples = 86\nvalue = [62, 24]\nclass = 0", fillcolor="#efb286"] ;
279 -> 439 ;
440 [label="city <= 0.5\ngini = 0.499\nsamples = 21\nvalue = [10, 11]\nclass = 1", fillcolor="#edf6fd"] ;
439 -> 440 ;
441 [label="gini = 0.0\nsamples = 4\nvalue = [4, 0]\nclass = 0", fillcolor="#e58139"] ;
440 -> 441 ;
442 [label="joining <= 2014.5\ngini = 0.457\nsamples = 17\nvalue = [6, 11]\nclass = 1", fillcolor="#a5d2f3"] ;
440 -> 442 ;
443 [label="age <= 31.5\ngini = 0.375\nsamples = 4\nvalue = [3, 1]\nclass = 0", fillcolor="#eeab7b"] ;
442 -> 443 ;
444 [label="gini = 0.0\nsamples = 1\nvalue = [0, 1]\nclass = 1", fillcolor="#399de5"] ;
443 -> 444 ;
445 [label="gini = 0.0\nsamples = 3\nvalue = [3, 0]\nclass = 0", fillcolor="#e58139"] ;
443 -> 445 ;
446 [label="education <= 1.5\ngini = 0.355\nsamples = 13\nvalue = [3, 10]\nclass = 1", fillcolor="#74baed"] ;
442 -> 446 ;
447 [label="age <= 31.5\ngini = 0.278\nsamples = 12\nvalue = [2, 10]\nclass = 1", fillcolor="#61b1ea"] ;
446 -> 447 ;
448 [label="experience <= 4.5\ngini = 0.408\nsamples = 7\nvalue = [2, 5]\nclass = 1", fillcolor="#88c4ef"] ;
447 -> 448 ;
449 [label="joining <= 2016.5\ngini = 0.32\nsamples = 5\nvalue = [1, 4]\nclass = 1", fillcolor="#6ab6ec"] ;
448 -> 449 ;
450 [label="gini = 0.5\nsamples = 2\nvalue = [1, 1]\nclass = 0", fillcolor="#ffffff"] ;
449 -> 450 ;
451 [label="gini = 0.0\nsamples = 3\nvalue = [0, 3]\nclass = 1", fillcolor="#399de5"] ;
449 -> 451 ;
452 [label="education <= 0.5\ngini = 0.5\nsamples = 2\nvalue = [1, 1]\nclass = 0", fillcolor="#ffffff"] ;
448 -> 452 ;
453 [label="gini = 0.0\nsamples = 1\nvalue = [1, 0]\nclass = 0", fillcolor="#e58139"] ;
452 -> 453 ;
454 [label="gini = 0.0\nsamples = 1\nvalue = [0, 1]\nclass = 1", fillcolor="#399de5"] ;
452 -> 454 ;
455 [label="gini = 0.0\nsamples = 5\nvalue = [0, 5]\nclass = 1", fillcolor="#399de5"] ;
447 -> 455 ;
456 [label="gini = 0.0\nsamples = 1\nvalue = [1, 0]\nclass = 0", fillcolor="#e58139"] ;
446 -> 456 ;
457 [label="experience <= 5.5\ngini = 0.32\nsamples = 65\nvalue = [52, 13]\nclass = 0", fillcolor="#eca06a"] ;
439 -> 457 ;
458 [label="age <= 37.5\ngini = 0.271\nsamples = 62\nvalue = [52, 10]\nclass = 0", fillcolor="#ea995f"] ;
457 -> 458 ;
459 [label="joining <= 2012.5\ngini = 0.064\nsamples = 30\nvalue = [29, 1]\nclass = 0", fillcolor="#e68540"] ;
458 -> 459 ;
460 [label="age <= 35.5\ngini = 0.278\nsamples = 6\nvalue = [5, 1]\nclass = 0", fillcolor="#ea9a61"] ;
459 -> 460 ;
461 [label="education <= 0.5\ngini = 0.5\nsamples = 2\nvalue = [1, 1]\nclass = 0", fillcolor="#ffffff"] ;
460 -> 461 ;
462 [label="gini = 0.0\nsamples = 1\nvalue = [1, 0]\nclass = 0", fillcolor="#e58139"] ;
461 -> 462 ;
463 [label="gini = 0.0\nsamples = 1\nvalue = [0, 1]\nclass = 1", fillcolor="#399de5"] ;
461 -> 463 ;
464 [label="gini = 0.0\nsamples = 4\nvalue = [4, 0]\nclass = 0", fillcolor="#e58139"] ;
460 -> 464 ;
465 [label="gini = 0.0\nsamples = 24\nvalue = [24, 0]\nclass = 0", fillcolor="#e58139"] ;
459 -> 465 ;
466 [label="age <= 39.5\ngini = 0.404\nsamples = 32\nvalue = [23, 9]\nclass = 0", fillcolor="#efb286"] ;
458 -> 466 ;
467 [label="joining <= 2016.5\ngini = 0.463\nsamples = 22\nvalue = [14, 8]\nclass = 0", fillcolor="#f4c9aa"] ;
466 -> 467 ;
468 [label="joining <= 2013.5\ngini = 0.408\nsamples = 14\nvalue = [10, 4]\nclass = 0", fillcolor="#efb388"] ;
467 -> 468 ;
469 [label="age <= 38.5\ngini = 0.5\nsamples = 6\nvalue = [3, 3]\nclass = 0", fillcolor="#ffffff"] ;
468 -> 469 ;
470 [label="experience <= 4.5\ngini = 0.48\nsamples = 5\nvalue = [3, 2]\nclass = 0", fillcolor="#f6d5bd"] ;
469 -> 470 ;
471 [label="city <= 0.5\ngini = 0.444\nsamples = 3\nvalue = [1, 2]\nclass = 1", fillcolor="#9ccef2"] ;
470 -> 471 ;
472 [label="joining <= 2012.5\ngini = 0.5\nsamples = 2\nvalue = [1, 1]\nclass = 0", fillcolor="#ffffff"] ;
471 -> 472 ;
473 [label="gini = 0.0\nsamples = 1\nvalue = [0, 1]\nclass = 1", fillcolor="#399de5"] ;
472 -> 473 ;
474 [label="gini = 0.0\nsamples = 1\nvalue = [1, 0]\nclass = 0", fillcolor="#e58139"] ;
472 -> 474 ;
475 [label="gini = 0.0\nsamples = 1\nvalue = [0, 1]\nclass = 1", fillcolor="#399de5"] ;
471 -> 475 ;
476 [label="gini = 0.0\nsamples = 2\nvalue = [2, 0]\nclass = 0", fillcolor="#e58139"] ;
470 -> 476 ;
477 [label="gini = 0.0\nsamples = 1\nvalue = [0, 1]\nclass = 1", fillcolor="#399de5"] ;
469 -> 477 ;
478 [label="education <= 0.5\ngini = 0.219\nsamples = 8\nvalue = [7, 1]\nclass = 0", fillcolor="#e99355"] ;
468 -> 478 ;
479 [label="gini = 0.0\nsamples = 6\nvalue = [6, 0]\nclass = 0", fillcolor="#e58139"] ;
478 -> 479 ;
480 [label="experience <= 4.5\ngini = 0.5\nsamples = 2\nvalue = [1, 1]\nclass = 0", fillcolor="#ffffff"] ;
478 -> 480 ;
481 [label="gini = 0.0\nsamples = 1\nvalue = [0, 1]\nclass = 1", fillcolor="#399de5"] ;
480 -> 481 ;
482 [label="gini = 0.0\nsamples = 1\nvalue = [1, 0]\nclass = 0", fillcolor="#e58139"] ;
480 -> 482 ;
483 [label="city <= 0.5\ngini = 0.5\nsamples = 8\nvalue = [4, 4]\nclass = 0", fillcolor="#ffffff"] ;
467 -> 483 ;
484 [label="gini = 0.0\nsamples = 2\nvalue = [0, 2]\nclass = 1", fillcolor="#399de5"] ;
483 -> 484 ;
485 [label="age <= 38.5\ngini = 0.444\nsamples = 6\nvalue = [4, 2]\nclass = 0", fillcolor="#f2c09c"] ;
483 -> 485 ;
486 [label="gini = 0.0\nsamples = 2\nvalue = [2, 0]\nclass = 0", fillcolor="#e58139"] ;
485 -> 486 ;
487 [label="experience <= 4.5\ngini = 0.5\nsamples = 4\nvalue = [2, 2]\nclass = 0", fillcolor="#ffffff"] ;
485 -> 487 ;
488 [label="education <= 0.5\ngini = 0.444\nsamples = 3\nvalue = [2, 1]\nclass = 0", fillcolor="#f2c09c"] ;
487 -> 488 ;
489 [label="gini = 0.5\nsamples = 2\nvalue = [1, 1]\nclass = 0", fillcolor="#ffffff"] ;
488 -> 489 ;
490 [label="gini = 0.0\nsamples = 1\nvalue = [1, 0]\nclass = 0", fillcolor="#e58139"] ;
488 -> 490 ;
491 [label="gini = 0.0\nsamples = 1\nvalue = [0, 1]\nclass = 1", fillcolor="#399de5"] ;
487 -> 491 ;
492 [label="city <= 0.5\ngini = 0.18\nsamples = 10\nvalue = [9, 1]\nclass = 0", fillcolor="#e88f4f"] ;
466 -> 492 ;
493 [label="gini = 0.0\nsamples = 5\nvalue = [5, 0]\nclass = 0", fillcolor="#e58139"] ;
492 -> 493 ;
494 [label="age <= 40.5\ngini = 0.32\nsamples = 5\nvalue = [4, 1]\nclass = 0", fillcolor="#eca06a"] ;
492 -> 494 ;
495 [label="experience <= 4.5\ngini = 0.5\nsamples = 2\nvalue = [1, 1]\nclass = 0", fillcolor="#ffffff"] ;
494 -> 495 ;
496 [label="gini = 0.0\nsamples = 1\nvalue = [0, 1]\nclass = 1", fillcolor="#399de5"] ;
495 -> 496 ;
497 [label="gini = 0.0\nsamples = 1\nvalue = [1, 0]\nclass = 0", fillcolor="#e58139"] ;
495 -> 497 ;
498 [label="gini = 0.0\nsamples = 3\nvalue = [3, 0]\nclass = 0", fillcolor="#e58139"] ;
494 -> 498 ;
499 [label="gini = 0.0\nsamples = 3\nvalue = [0, 3]\nclass = 1", fillcolor="#399de5"] ;
457 -> 499 ;
500 [label="education <= 0.5\ngini = 0.182\nsamples = 701\nvalue = [71, 630]\nclass = 1", fillcolor="#4fa8e8"] ;
2 -> 500 ;
501 [label="experience <= 6.0\ngini = 0.066\nsamples = 615\nvalue = [21, 594]\nclass = 1", fillcolor="#40a0e6"] ;
500 -> 501 ;
502 [label="joining <= 2013.5\ngini = 0.06\nsamples = 613\nvalue = [19, 594]\nclass = 1", fillcolor="#3fa0e6"] ;
501 -> 502 ;
503 [label="experience <= 1.5\ngini = 0.155\nsamples = 118\nvalue = [10, 108]\nclass = 1", fillcolor="#4ba6e7"] ;
502 -> 503 ;
504 [label="gini = 0.0\nsamples = 34\nvalue = [0, 34]\nclass = 1", fillcolor="#399de5"] ;
503 -> 504 ;
505 [label="experience <= 2.5\ngini = 0.21\nsamples = 84\nvalue = [10, 74]\nclass = 1", fillcolor="#54aae9"] ;
503 -> 505 ;
506 [label="joining <= 2012.5\ngini = 0.363\nsamples = 21\nvalue = [5, 16]\nclass = 1", fillcolor="#77bced"] ;
505 -> 506 ;
507 [label="age <= 26.0\ngini = 0.142\nsamples = 13\nvalue = [1, 12]\nclass = 1", fillcolor="#49a5e7"] ;
506 -> 507 ;
508 [label="gini = 0.0\nsamples = 7\nvalue = [0, 7]\nclass = 1", fillcolor="#399de5"] ;
507 -> 508 ;
509 [label="age <= 28.5\ngini = 0.278\nsamples = 6\nvalue = [1, 5]\nclass = 1", fillcolor="#61b1ea"] ;
507 -> 509 ;
510 [label="gini = 0.0\nsamples = 1\nvalue = [1, 0]\nclass = 0", fillcolor="#e58139"] ;
509 -> 510 ;
511 [label="gini = 0.0\nsamples = 5\nvalue = [0, 5]\nclass = 1", fillcolor="#399de5"] ;
509 -> 511 ;
512 [label="age <= 35.0\ngini = 0.5\nsamples = 8\nvalue = [4, 4]\nclass = 0", fillcolor="#ffffff"] ;
506 -> 512 ;
513 [label="age <= 27.5\ngini = 0.49\nsamples = 7\nvalue = [3, 4]\nclass = 1", fillcolor="#cee6f8"] ;
512 -> 513 ;
514 [label="gini = 0.5\nsamples = 6\nvalue = [3, 3]\nclass = 0", fillcolor="#ffffff"] ;
513 -> 514 ;
515 [label="gini = 0.0\nsamples = 1\nvalue = [0, 1]\nclass = 1", fillcolor="#399de5"] ;
513 -> 515 ;
516 [label="gini = 0.0\nsamples = 1\nvalue = [1, 0]\nclass = 0", fillcolor="#e58139"] ;
512 -> 516 ;
517 [label="age <= 31.5\ngini = 0.146\nsamples = 63\nvalue = [5, 58]\nclass = 1", fillcolor="#4aa5e7"] ;
505 -> 517 ;
518 [label="age <= 30.5\ngini = 0.163\nsamples = 56\nvalue = [5, 51]\nclass = 1", fillcolor="#4ca7e8"] ;
517 -> 518 ;
519 [label="age <= 27.5\ngini = 0.14\nsamples = 53\nvalue = [4, 49]\nclass = 1", fillcolor="#49a5e7"] ;
518 -> 519 ;
520 [label="joining <= 2012.5\ngini = 0.165\nsamples = 44\nvalue = [4, 40]\nclass = 1", fillcolor="#4da7e8"] ;
519 -> 520 ;
521 [label="age <= 26.5\ngini = 0.105\nsamples = 18\nvalue = [1, 17]\nclass = 1", fillcolor="#45a3e7"] ;
520 -> 521 ;
522 [label="gini = 0.0\nsamples = 9\nvalue = [0, 9]\nclass = 1", fillcolor="#399de5"] ;
521 -> 522 ;
523 [label="gini = 0.198\nsamples = 9\nvalue = [1, 8]\nclass = 1", fillcolor="#52a9e8"] ;
521 -> 523 ;
524 [label="experience <= 4.5\ngini = 0.204\nsamples = 26\nvalue = [3, 23]\nclass = 1", fillcolor="#53aae8"] ;
520 -> 524 ;
525 [label="age <= 25.5\ngini = 0.231\nsamples = 15\nvalue = [2, 13]\nclass = 1", fillcolor="#57ace9"] ;
524 -> 525 ;
526 [label="gini = 0.198\nsamples = 9\nvalue = [1, 8]\nclass = 1", fillcolor="#52a9e8"] ;
525 -> 526 ;
527 [label="gini = 0.278\nsamples = 6\nvalue = [1, 5]\nclass = 1", fillcolor="#61b1ea"] ;
525 -> 527 ;
528 [label="gini = 0.165\nsamples = 11\nvalue = [1, 10]\nclass = 1", fillcolor="#4da7e8"] ;
524 -> 528 ;
529 [label="gini = 0.0\nsamples = 9\nvalue = [0, 9]\nclass = 1", fillcolor="#399de5"] ;
519 -> 529 ;
530 [label="experience <= 4.5\ngini = 0.444\nsamples = 3\nvalue = [1, 2]\nclass = 1", fillcolor="#9ccef2"] ;
518 -> 530 ;
531 [label="gini = 0.0\nsamples = 1\nvalue = [0, 1]\nclass = 1", fillcolor="#399de5"] ;
530 -> 531 ;
532 [label="gini = 0.5\nsamples = 2\nvalue = [1, 1]\nclass = 0", fillcolor="#ffffff"] ;
530 -> 532 ;
533 [label="gini = 0.0\nsamples = 7\nvalue = [0, 7]\nclass = 1", fillcolor="#399de5"] ;
517 -> 533 ;
534 [label="age <= 31.5\ngini = 0.036\nsamples = 495\nvalue = [9, 486]\nclass = 1", fillcolor="#3d9fe5"] ;
502 -> 534 ;
535 [label="joining <= 2015.5\ngini = 0.011\nsamples = 360\nvalue = [2, 358]\nclass = 1", fillcolor="#3a9ee5"] ;
534 -> 535 ;
536 [label="gini = 0.0\nsamples = 274\nvalue = [0, 274]\nclass = 1", fillcolor="#399de5"] ;
535 -> 536 ;
537 [label="experience <= 1.5\ngini = 0.045\nsamples = 86\nvalue = [2, 84]\nclass = 1", fillcolor="#3e9fe6"] ;
535 -> 537 ;
538 [label="age <= 28.5\ngini = 0.198\nsamples = 9\nvalue = [1, 8]\nclass = 1", fillcolor="#52a9e8"] ;
537 -> 538 ;
539 [label="age <= 25.5\ngini = 0.32\nsamples = 5\nvalue = [1, 4]\nclass = 1", fillcolor="#6ab6ec"] ;
538 -> 539 ;
540 [label="gini = 0.0\nsamples = 1\nvalue = [0, 1]\nclass = 1", fillcolor="#399de5"] ;
539 -> 540 ;
541 [label="gini = 0.375\nsamples = 4\nvalue = [1, 3]\nclass = 1", fillcolor="#7bbeee"] ;
539 -> 541 ;
542 [label="gini = 0.0\nsamples = 4\nvalue = [0, 4]\nclass = 1", fillcolor="#399de5"] ;
538 -> 542 ;
543 [label="experience <= 4.5\ngini = 0.026\nsamples = 77\nvalue = [1, 76]\nclass = 1", fillcolor="#3c9ee5"] ;
537 -> 543 ;
544 [label="gini = 0.0\nsamples = 56\nvalue = [0, 56]\nclass = 1", fillcolor="#399de5"] ;
543 -> 544 ;
545 [label="joining <= 2016.5\ngini = 0.091\nsamples = 21\nvalue = [1, 20]\nclass = 1", fillcolor="#43a2e6"] ;
543 -> 545 ;
546 [label="gini = 0.198\nsamples = 9\nvalue = [1, 8]\nclass = 1", fillcolor="#52a9e8"] ;
545 -> 546 ;
547 [label="gini = 0.0\nsamples = 12\nvalue = [0, 12]\nclass = 1", fillcolor="#399de5"] ;
545 -> 547 ;
548 [label="joining <= 2016.5\ngini = 0.098\nsamples = 135\nvalue = [7, 128]\nclass = 1", fillcolor="#44a2e6"] ;
534 -> 548 ;
549 [label="experience <= 3.5\ngini = 0.053\nsamples = 110\nvalue = [3, 107]\nclass = 1", fillcolor="#3fa0e6"] ;
548 -> 549 ;
550 [label="age <= 32.5\ngini = 0.022\nsamples = 90\nvalue = [1, 89]\nclass = 1", fillcolor="#3b9ee5"] ;
549 -> 550 ;
551 [label="experience <= 1.5\ngini = 0.083\nsamples = 23\nvalue = [1, 22]\nclass = 1", fillcolor="#42a1e6"] ;
550 -> 551 ;
552 [label="experience <= 0.5\ngini = 0.18\nsamples = 10\nvalue = [1, 9]\nclass = 1", fillcolor="#4fa8e8"] ;
551 -> 552 ;
553 [label="gini = 0.0\nsamples = 7\nvalue = [0, 7]\nclass = 1", fillcolor="#399de5"] ;
552 -> 553 ;
554 [label="gini = 0.444\nsamples = 3\nvalue = [1, 2]\nclass = 1", fillcolor="#9ccef2"] ;
552 -> 554 ;
555 [label="gini = 0.0\nsamples = 13\nvalue = [0, 13]\nclass = 1", fillcolor="#399de5"] ;
551 -> 555 ;
556 [label="gini = 0.0\nsamples = 67\nvalue = [0, 67]\nclass = 1", fillcolor="#399de5"] ;
550 -> 556 ;
557 [label="joining <= 2014.5\ngini = 0.18\nsamples = 20\nvalue = [2, 18]\nclass = 1", fillcolor="#4fa8e8"] ;
549 -> 557 ;
558 [label="age <= 36.5\ngini = 0.444\nsamples = 6\nvalue = [2, 4]\nclass = 1", fillcolor="#9ccef2"] ;
557 -> 558 ;
559 [label="age <= 34.0\ngini = 0.444\nsamples = 3\nvalue = [2, 1]\nclass = 0", fillcolor="#f2c09c"] ;
558 -> 559 ;
560 [label="gini = 0.0\nsamples = 1\nvalue = [1, 0]\nclass = 0", fillcolor="#e58139"] ;
559 -> 560 ;
561 [label="gini = 0.5\nsamples = 2\nvalue = [1, 1]\nclass = 0", fillcolor="#ffffff"] ;
559 -> 561 ;
562 [label="gini = 0.0\nsamples = 3\nvalue = [0, 3]\nclass = 1", fillcolor="#399de5"] ;
558 -> 562 ;
563 [label="gini = 0.0\nsamples = 14\nvalue = [0, 14]\nclass = 1", fillcolor="#399de5"] ;
557 -> 563 ;
564 [label="age <= 36.5\ngini = 0.269\nsamples = 25\nvalue = [4, 21]\nclass = 1", fillcolor="#5fb0ea"] ;
548 -> 564 ;
565 [label="experience <= 1.5\ngini = 0.142\nsamples = 13\nvalue = [1, 12]\nclass = 1", fillcolor="#49a5e7"] ;
564 -> 565 ;
566 [label="experience <= 0.5\ngini = 0.375\nsamples = 4\nvalue = [1, 3]\nclass = 1", fillcolor="#7bbeee"] ;
565 -> 566 ;
567 [label="gini = 0.0\nsamples = 2\nvalue = [0, 2]\nclass = 1", fillcolor="#399de5"] ;
566 -> 567 ;
568 [label="gini = 0.5\nsamples = 2\nvalue = [1, 1]\nclass = 0", fillcolor="#ffffff"] ;
566 -> 568 ;
569 [label="gini = 0.0\nsamples = 9\nvalue = [0, 9]\nclass = 1", fillcolor="#399de5"] ;
565 -> 569 ;
570 [label="experience <= 4.5\ngini = 0.375\nsamples = 12\nvalue = [3, 9]\nclass = 1", fillcolor="#7bbeee"] ;
564 -> 570 ;
571 [label="age <= 39.0\ngini = 0.298\nsamples = 11\nvalue = [2, 9]\nclass = 1", fillcolor="#65b3eb"] ;
570 -> 571 ;
572 [label="experience <= 3.0\ngini = 0.444\nsamples = 6\nvalue = [2, 4]\nclass = 1", fillcolor="#9ccef2"] ;
571 -> 572 ;
573 [label="experience <= 1.5\ngini = 0.48\nsamples = 5\nvalue = [2, 3]\nclass = 1", fillcolor="#bddef6"] ;
572 -> 573 ;
574 [label="age <= 37.5\ngini = 0.375\nsamples = 4\nvalue = [1, 3]\nclass = 1", fillcolor="#7bbeee"] ;
573 -> 574 ;
575 [label="gini = 0.0\nsamples = 2\nvalue = [0, 2]\nclass = 1", fillcolor="#399de5"] ;
574 -> 575 ;
576 [label="experience <= 0.5\ngini = 0.5\nsamples = 2\nvalue = [1, 1]\nclass = 0", fillcolor="#ffffff"] ;
574 -> 576 ;
577 [label="gini = 0.0\nsamples = 1\nvalue = [1, 0]\nclass = 0", fillcolor="#e58139"] ;
576 -> 577 ;
578 [label="gini = 0.0\nsamples = 1\nvalue = [0, 1]\nclass = 1", fillcolor="#399de5"] ;
576 -> 578 ;
579 [label="gini = 0.0\nsamples = 1\nvalue = [1, 0]\nclass = 0", fillcolor="#e58139"] ;
573 -> 579 ;
580 [label="gini = 0.0\nsamples = 1\nvalue = [0, 1]\nclass = 1", fillcolor="#399de5"] ;
572 -> 580 ;
581 [label="gini = 0.0\nsamples = 5\nvalue = [0, 5]\nclass = 1", fillcolor="#399de5"] ;
571 -> 581 ;
582 [label="gini = 0.0\nsamples = 1\nvalue = [1, 0]\nclass = 0", fillcolor="#e58139"] ;
570 -> 582 ;
583 [label="gini = 0.0\nsamples = 2\nvalue = [2, 0]\nclass = 0", fillcolor="#e58139"] ;
501 -> 583 ;
584 [label="age <= 27.5\ngini = 0.487\nsamples = 86\nvalue = [50, 36]\nclass = 0", fillcolor="#f8dcc8"] ;
500 -> 584 ;
585 [label="education <= 1.5\ngini = 0.476\nsamples = 46\nvalue = [18, 28]\nclass = 1", fillcolor="#b8dcf6"] ;
584 -> 585 ;
586 [label="age <= 23.5\ngini = 0.487\nsamples = 43\nvalue = [18, 25]\nclass = 1", fillcolor="#c8e4f8"] ;
585 -> 586 ;
587 [label="gini = 0.0\nsamples = 1\nvalue = [1, 0]\nclass = 0", fillcolor="#e58139"] ;
586 -> 587 ;
588 [label="experience <= 4.5\ngini = 0.482\nsamples = 42\nvalue = [17, 25]\nclass = 1", fillcolor="#c0e0f7"] ;
586 -> 588 ;
589 [label="joining <= 2013.5\ngini = 0.444\nsamples = 27\nvalue = [9, 18]\nclass = 1", fillcolor="#9ccef2"] ;
588 -> 589 ;
590 [label="gini = 0.0\nsamples = 1\nvalue = [1, 0]\nclass = 0", fillcolor="#e58139"] ;
589 -> 590 ;
591 [label="joining <= 2016.0\ngini = 0.426\nsamples = 26\nvalue = [8, 18]\nclass = 1", fillcolor="#91c9f1"] ;
589 -> 591 ;
592 [label="age <= 24.5\ngini = 0.469\nsamples = 8\nvalue = [3, 5]\nclass = 1", fillcolor="#b0d8f5"] ;
591 -> 592 ;
593 [label="gini = 0.0\nsamples = 1\nvalue = [1, 0]\nclass = 0", fillcolor="#e58139"] ;
592 -> 593 ;
594 [label="experience <= 3.5\ngini = 0.408\nsamples = 7\nvalue = [2, 5]\nclass = 1", fillcolor="#88c4ef"] ;
592 -> 594 ;
595 [label="gini = 0.375\nsamples = 4\nvalue = [1, 3]\nclass = 1", fillcolor="#7bbeee"] ;
594 -> 595 ;
596 [label="gini = 0.444\nsamples = 3\nvalue = [1, 2]\nclass = 1", fillcolor="#9ccef2"] ;
594 -> 596 ;
597 [label="age <= 24.5\ngini = 0.401\nsamples = 18\nvalue = [5, 13]\nclass = 1", fillcolor="#85c3ef"] ;
591 -> 597 ;
598 [label="gini = 0.346\nsamples = 9\nvalue = [2, 7]\nclass = 1", fillcolor="#72b9ec"] ;
597 -> 598 ;
599 [label="age <= 25.5\ngini = 0.444\nsamples = 9\nvalue = [3, 6]\nclass = 1", fillcolor="#9ccef2"] ;
597 -> 599 ;
600 [label="gini = 0.5\nsamples = 2\nvalue = [1, 1]\nclass = 0", fillcolor="#ffffff"] ;
599 -> 600 ;
601 [label="gini = 0.408\nsamples = 7\nvalue = [2, 5]\nclass = 1", fillcolor="#88c4ef"] ;
599 -> 601 ;
602 [label="joining <= 2015.5\ngini = 0.498\nsamples = 15\nvalue = [8, 7]\nclass = 0", fillcolor="#fcefe6"] ;
588 -> 602 ;
603 [label="joining <= 2013.5\ngini = 0.444\nsamples = 9\nvalue = [3, 6]\nclass = 1", fillcolor="#9ccef2"] ;
602 -> 603 ;
604 [label="gini = 0.0\nsamples = 2\nvalue = [0, 2]\nclass = 1", fillcolor="#399de5"] ;
603 -> 604 ;
605 [label="joining <= 2014.5\ngini = 0.49\nsamples = 7\nvalue = [3, 4]\nclass = 1", fillcolor="#cee6f8"] ;
603 -> 605 ;
606 [label="gini = 0.5\nsamples = 2\nvalue = [1, 1]\nclass = 0", fillcolor="#ffffff"] ;
605 -> 606 ;
607 [label="gini = 0.48\nsamples = 5\nvalue = [2, 3]\nclass = 1", fillcolor="#bddef6"] ;
605 -> 607 ;
608 [label="joining <= 2016.5\ngini = 0.278\nsamples = 6\nvalue = [5, 1]\nclass = 0", fillcolor="#ea9a61"] ;
602 -> 608 ;
609 [label="gini = 0.0\nsamples = 1\nvalue = [1, 0]\nclass = 0", fillcolor="#e58139"] ;
608 -> 609 ;
610 [label="gini = 0.32\nsamples = 5\nvalue = [4, 1]\nclass = 0", fillcolor="#eca06a"] ;
608 -> 610 ;
611 [label="gini = 0.0\nsamples = 3\nvalue = [0, 3]\nclass = 1", fillcolor="#399de5"] ;
585 -> 611 ;
612 [label="age <= 33.5\ngini = 0.32\nsamples = 40\nvalue = [32, 8]\nclass = 0", fillcolor="#eca06a"] ;
584 -> 612 ;
613 [label="age <= 28.5\ngini = 0.417\nsamples = 27\nvalue = [19, 8]\nclass = 0", fillcolor="#f0b68c"] ;
612 -> 613 ;
614 [label="experience <= 2.5\ngini = 0.165\nsamples = 11\nvalue = [10, 1]\nclass = 0", fillcolor="#e88e4d"] ;
613 -> 614 ;
615 [label="gini = 0.0\nsamples = 6\nvalue = [6, 0]\nclass = 0", fillcolor="#e58139"] ;
614 -> 615 ;
616 [label="experience <= 3.5\ngini = 0.32\nsamples = 5\nvalue = [4, 1]\nclass = 0", fillcolor="#eca06a"] ;
614 -> 616 ;
617 [label="gini = 0.375\nsamples = 4\nvalue = [3, 1]\nclass = 0", fillcolor="#eeab7b"] ;
616 -> 617 ;
618 [label="gini = 0.0\nsamples = 1\nvalue = [1, 0]\nclass = 0", fillcolor="#e58139"] ;
616 -> 618 ;
619 [label="experience <= 3.0\ngini = 0.492\nsamples = 16\nvalue = [9, 7]\nclass = 0", fillcolor="#f9e3d3"] ;
613 -> 619 ;
620 [label="joining <= 2013.5\ngini = 0.5\nsamples = 14\nvalue = [7, 7]\nclass = 0", fillcolor="#ffffff"] ;
619 -> 620 ;
621 [label="gini = 0.0\nsamples = 1\nvalue = [0, 1]\nclass = 1", fillcolor="#399de5"] ;
620 -> 621 ;
622 [label="experience <= 1.5\ngini = 0.497\nsamples = 13\nvalue = [7, 6]\nclass = 0", fillcolor="#fbede3"] ;
620 -> 622 ;
623 [label="gini = 0.0\nsamples = 2\nvalue = [2, 0]\nclass = 0", fillcolor="#e58139"] ;
622 -> 623 ;
624 [label="age <= 30.5\ngini = 0.496\nsamples = 11\nvalue = [5, 6]\nclass = 1", fillcolor="#deeffb"] ;
622 -> 624 ;
625 [label="joining <= 2016.0\ngini = 0.469\nsamples = 8\nvalue = [3, 5]\nclass = 1", fillcolor="#b0d8f5"] ;
624 -> 625 ;
626 [label="gini = 0.5\nsamples = 2\nvalue = [1, 1]\nclass = 0", fillcolor="#ffffff"] ;
625 -> 626 ;
627 [label="age <= 29.5\ngini = 0.444\nsamples = 6\nvalue = [2, 4]\nclass = 1", fillcolor="#9ccef2"] ;
625 -> 627 ;
628 [label="gini = 0.444\nsamples = 3\nvalue = [1, 2]\nclass = 1", fillcolor="#9ccef2"] ;
627 -> 628 ;
629 [label="gini = 0.444\nsamples = 3\nvalue = [1, 2]\nclass = 1", fillcolor="#9ccef2"] ;
627 -> 629 ;
630 [label="age <= 32.0\ngini = 0.444\nsamples = 3\nvalue = [2, 1]\nclass = 0", fillcolor="#f2c09c"] ;
624 -> 630 ;
631 [label="gini = 0.0\nsamples = 1\nvalue = [1, 0]\nclass = 0", fillcolor="#e58139"] ;
630 -> 631 ;
632 [label="joining <= 2016.0\ngini = 0.5\nsamples = 2\nvalue = [1, 1]\nclass = 0", fillcolor="#ffffff"] ;
630 -> 632 ;
633 [label="gini = 0.0\nsamples = 1\nvalue = [0, 1]\nclass = 1", fillcolor="#399de5"] ;
632 -> 633 ;
634 [label="gini = 0.0\nsamples = 1\nvalue = [1, 0]\nclass = 0", fillcolor="#e58139"] ;
632 -> 634 ;
635 [label="gini = 0.0\nsamples = 2\nvalue = [2, 0]\nclass = 0", fillcolor="#e58139"] ;
619 -> 635 ;
636 [label="gini = 0.0\nsamples = 13\nvalue = [13, 0]\nclass = 0", fillcolor="#e58139"] ;
612 -> 636 ;
637 [label="education <= 0.5\ngini = 0.389\nsamples = 1572\nvalue = [1156, 416]\nclass = 0", fillcolor="#eeae80"] ;
1 -> 637 ;
638 [label="city <= 0.5\ngini = 0.289\nsamples = 1108\nvalue = [914, 194]\nclass = 0", fillcolor="#eb9c63"] ;
637 -> 638 ;
639 [label="joining <= 2014.5\ngini = 0.372\nsamples = 595\nvalue = [448, 147]\nclass = 0", fillcolor="#eeaa7a"] ;
638 -> 639 ;
640 [label="age <= 26.5\ngini = 0.425\nsamples = 323\nvalue = [224, 99]\nclass = 0", fillcolor="#f0b991"] ;
639 -> 640 ;
641 [label="age <= 22.5\ngini = 0.278\nsamples = 108\nvalue = [90, 18]\nclass = 0", fillcolor="#ea9a61"] ;
640 -> 641 ;
642 [label="joining <= 2012.5\ngini = 0.48\nsamples = 5\nvalue = [3, 2]\nclass = 0", fillcolor="#f6d5bd"] ;
641 -> 642 ;
643 [label="gini = 0.0\nsamples = 1\nvalue = [1, 0]\nclass = 0", fillcolor="#e58139"] ;
642 -> 643 ;
644 [label="joining <= 2013.5\ngini = 0.5\nsamples = 4\nvalue = [2, 2]\nclass = 0", fillcolor="#ffffff"] ;
642 -> 644 ;
645 [label="gini = 0.0\nsamples = 1\nvalue = [0, 1]\nclass = 1", fillcolor="#399de5"] ;
644 -> 645 ;
646 [label="gini = 0.444\nsamples = 3\nvalue = [2, 1]\nclass = 0", fillcolor="#f2c09c"] ;
644 -> 646 ;
647 [label="joining <= 2012.5\ngini = 0.262\nsamples = 103\nvalue = [87, 16]\nclass = 0", fillcolor="#ea985d"] ;
641 -> 647 ;
648 [label="experience <= 1.5\ngini = 0.375\nsamples = 32\nvalue = [24, 8]\nclass = 0", fillcolor="#eeab7b"] ;
647 -> 648 ;
649 [label="gini = 0.0\nsamples = 2\nvalue = [2, 0]\nclass = 0", fillcolor="#e58139"] ;
648 -> 649 ;
650 [label="experience <= 3.5\ngini = 0.391\nsamples = 30\nvalue = [22, 8]\nclass = 0", fillcolor="#eeaf81"] ;
648 -> 650 ;
651 [label="experience <= 2.5\ngini = 0.401\nsamples = 18\nvalue = [13, 5]\nclass = 0", fillcolor="#efb185"] ;
650 -> 651 ;
652 [label="gini = 0.408\nsamples = 7\nvalue = [5, 2]\nclass = 0", fillcolor="#efb388"] ;
651 -> 652 ;
653 [label="gini = 0.397\nsamples = 11\nvalue = [8, 3]\nclass = 0", fillcolor="#efb083"] ;
651 -> 653 ;
654 [label="gini = 0.375\nsamples = 12\nvalue = [9, 3]\nclass = 0", fillcolor="#eeab7b"] ;
650 -> 654 ;
655 [label="joining <= 2013.5\ngini = 0.2\nsamples = 71\nvalue = [63, 8]\nclass = 0", fillcolor="#e89152"] ;
647 -> 655 ;
656 [label="age <= 25.5\ngini = 0.239\nsamples = 36\nvalue = [31, 5]\nclass = 0", fillcolor="#e99559"] ;
655 -> 656 ;
657 [label="experience <= 2.5\ngini = 0.346\nsamples = 18\nvalue = [14, 4]\nclass = 0", fillcolor="#eca572"] ;
656 -> 657 ;
658 [label="gini = 0.355\nsamples = 13\nvalue = [10, 3]\nclass = 0", fillcolor="#eda774"] ;
657 -> 658 ;
659 [label="gini = 0.32\nsamples = 5\nvalue = [4, 1]\nclass = 0", fillcolor="#eca06a"] ;
657 -> 659 ;
660 [label="gini = 0.105\nsamples = 18\nvalue = [17, 1]\nclass = 0", fillcolor="#e78845"] ;
656 -> 660 ;
661 [label="experience <= 3.5\ngini = 0.157\nsamples = 35\nvalue = [32, 3]\nclass = 0", fillcolor="#e78d4c"] ;
655 -> 661 ;
662 [label="gini = 0.0\nsamples = 23\nvalue = [23, 0]\nclass = 0", fillcolor="#e58139"] ;
661 -> 662 ;
663 [label="gini = 0.375\nsamples = 12\nvalue = [9, 3]\nclass = 0", fillcolor="#eeab7b"] ;
661 -> 663 ;
664 [label="experience <= 3.5\ngini = 0.47\nsamples = 215\nvalue = [134, 81]\nclass = 0", fillcolor="#f5cdb1"] ;
640 -> 664 ;
665 [label="age <= 32.5\ngini = 0.496\nsamples = 128\nvalue = [70, 58]\nclass = 0", fillcolor="#fbe9dd"] ;
664 -> 665 ;
666 [label="experience <= 1.5\ngini = 0.495\nsamples = 87\nvalue = [39, 48]\nclass = 1", fillcolor="#daedfa"] ;
665 -> 666 ;
667 [label="joining <= 2012.5\ngini = 0.469\nsamples = 40\nvalue = [25, 15]\nclass = 0", fillcolor="#f5cdb0"] ;
666 -> 667 ;
668 [label="age <= 28.5\ngini = 0.473\nsamples = 13\nvalue = [5, 8]\nclass = 1", fillcolor="#b5daf5"] ;
667 -> 668 ;
669 [label="experience <= 0.5\ngini = 0.5\nsamples = 8\nvalue = [4, 4]\nclass = 0", fillcolor="#ffffff"] ;
668 -> 669 ;
670 [label="gini = 0.5\nsamples = 2\nvalue = [1, 1]\nclass = 0", fillcolor="#ffffff"] ;
669 -> 670 ;
671 [label="gini = 0.5\nsamples = 6\nvalue = [3, 3]\nclass = 0", fillcolor="#ffffff"] ;
669 -> 671 ;
672 [label="age <= 30.5\ngini = 0.32\nsamples = 5\nvalue = [1, 4]\nclass = 1", fillcolor="#6ab6ec"] ;
668 -> 672 ;
673 [label="gini = 0.0\nsamples = 3\nvalue = [0, 3]\nclass = 1", fillcolor="#399de5"] ;
672 -> 673 ;
674 [label="gini = 0.5\nsamples = 2\nvalue = [1, 1]\nclass = 0", fillcolor="#ffffff"] ;
672 -> 674 ;
675 [label="age <= 30.5\ngini = 0.384\nsamples = 27\nvalue = [20, 7]\nclass = 0", fillcolor="#eead7e"] ;
667 -> 675 ;
676 [label="age <= 29.5\ngini = 0.434\nsamples = 22\nvalue = [15, 7]\nclass = 0", fillcolor="#f1bc95"] ;
675 -> 676 ;
677 [label="experience <= 0.5\ngini = 0.32\nsamples = 15\nvalue = [12, 3]\nclass = 0", fillcolor="#eca06a"] ;
676 -> 677 ;
678 [label="gini = 0.0\nsamples = 4\nvalue = [4, 0]\nclass = 0", fillcolor="#e58139"] ;
677 -> 678 ;
679 [label="age <= 28.5\ngini = 0.397\nsamples = 11\nvalue = [8, 3]\nclass = 0", fillcolor="#efb083"] ;
677 -> 679 ;
680 [label="joining <= 2013.5\ngini = 0.444\nsamples = 9\nvalue = [6, 3]\nclass = 0", fillcolor="#f2c09c"] ;
679 -> 680 ;
681 [label="gini = 0.469\nsamples = 8\nvalue = [5, 3]\nclass = 0", fillcolor="#f5cdb0"] ;
680 -> 681 ;
682 [label="gini = 0.0\nsamples = 1\nvalue = [1, 0]\nclass = 0", fillcolor="#e58139"] ;
680 -> 682 ;
683 [label="gini = 0.0\nsamples = 2\nvalue = [2, 0]\nclass = 0", fillcolor="#e58139"] ;
679 -> 683 ;
684 [label="joining <= 2013.5\ngini = 0.49\nsamples = 7\nvalue = [3, 4]\nclass = 1", fillcolor="#cee6f8"] ;
676 -> 684 ;
685 [label="experience <= 0.5\ngini = 0.375\nsamples = 4\nvalue = [1, 3]\nclass = 1", fillcolor="#7bbeee"] ;
684 -> 685 ;
686 [label="gini = 0.0\nsamples = 3\nvalue = [0, 3]\nclass = 1", fillcolor="#399de5"] ;
685 -> 686 ;
687 [label="gini = 0.0\nsamples = 1\nvalue = [1, 0]\nclass = 0", fillcolor="#e58139"] ;
685 -> 687 ;
688 [label="experience <= 0.5\ngini = 0.444\nsamples = 3\nvalue = [2, 1]\nclass = 0", fillcolor="#f2c09c"] ;
684 -> 688 ;
689 [label="gini = 0.0\nsamples = 2\nvalue = [2, 0]\nclass = 0", fillcolor="#e58139"] ;
688 -> 689 ;
690 [label="gini = 0.0\nsamples = 1\nvalue = [0, 1]\nclass = 1", fillcolor="#399de5"] ;
688 -> 690 ;
691 [label="gini = 0.0\nsamples = 5\nvalue = [5, 0]\nclass = 0", fillcolor="#e58139"] ;
675 -> 691 ;
692 [label="joining <= 2012.5\ngini = 0.418\nsamples = 47\nvalue = [14, 33]\nclass = 1", fillcolor="#8dc7f0"] ;
666 -> 692 ;
693 [label="age <= 29.5\ngini = 0.494\nsamples = 9\nvalue = [5, 4]\nclass = 0", fillcolor="#fae6d7"] ;
692 -> 693 ;
694 [label="age <= 28.5\ngini = 0.5\nsamples = 8\nvalue = [4, 4]\nclass = 0", fillcolor="#ffffff"] ;
693 -> 694 ;
695 [label="gini = 0.5\nsamples = 6\nvalue = [3, 3]\nclass = 0", fillcolor="#ffffff"] ;
694 -> 695 ;
696 [label="gini = 0.5\nsamples = 2\nvalue = [1, 1]\nclass = 0", fillcolor="#ffffff"] ;
694 -> 696 ;
697 [label="gini = 0.0\nsamples = 1\nvalue = [1, 0]\nclass = 0", fillcolor="#e58139"] ;
693 -> 697 ;
698 [label="experience <= 2.5\ngini = 0.361\nsamples = 38\nvalue = [9, 29]\nclass = 1", fillcolor="#76bbed"] ;
692 -> 698 ;
699 [label="age <= 29.5\ngini = 0.305\nsamples = 32\nvalue = [6, 26]\nclass = 1", fillcolor="#67b4eb"] ;
698 -> 699 ;
700 [label="age <= 28.5\ngini = 0.444\nsamples = 12\nvalue = [4, 8]\nclass = 1", fillcolor="#9ccef2"] ;
699 -> 700 ;
701 [label="joining <= 2013.5\ngini = 0.397\nsamples = 11\nvalue = [3, 8]\nclass = 1", fillcolor="#83c2ef"] ;
700 -> 701 ;
702 [label="gini = 0.0\nsamples = 3\nvalue = [0, 3]\nclass = 1", fillcolor="#399de5"] ;
701 -> 702 ;
703 [label="gini = 0.469\nsamples = 8\nvalue = [3, 5]\nclass = 1", fillcolor="#b0d8f5"] ;
701 -> 703 ;
704 [label="gini = 0.0\nsamples = 1\nvalue = [1, 0]\nclass = 0", fillcolor="#e58139"] ;
700 -> 704 ;
705 [label="age <= 31.5\ngini = 0.18\nsamples = 20\nvalue = [2, 18]\nclass = 1", fillcolor="#4fa8e8"] ;
699 -> 705 ;
706 [label="joining <= 2013.5\ngini = 0.124\nsamples = 15\nvalue = [1, 14]\nclass = 1", fillcolor="#47a4e7"] ;
705 -> 706 ;
707 [label="age <= 30.5\ngini = 0.375\nsamples = 4\nvalue = [1, 3]\nclass = 1", fillcolor="#7bbeee"] ;
706 -> 707 ;
708 [label="gini = 0.0\nsamples = 1\nvalue = [1, 0]\nclass = 0", fillcolor="#e58139"] ;
707 -> 708 ;
709 [label="gini = 0.0\nsamples = 3\nvalue = [0, 3]\nclass = 1", fillcolor="#399de5"] ;
707 -> 709 ;
710 [label="gini = 0.0\nsamples = 11\nvalue = [0, 11]\nclass = 1", fillcolor="#399de5"] ;
706 -> 710 ;
711 [label="joining <= 2013.5\ngini = 0.32\nsamples = 5\nvalue = [1, 4]\nclass = 1", fillcolor="#6ab6ec"] ;
705 -> 711 ;
712 [label="gini = 0.0\nsamples = 1\nvalue = [0, 1]\nclass = 1", fillcolor="#399de5"] ;
711 -> 712 ;
713 [label="gini = 0.375\nsamples = 4\nvalue = [1, 3]\nclass = 1", fillcolor="#7bbeee"] ;
711 -> 713 ;
714 [label="age <= 28.5\ngini = 0.5\nsamples = 6\nvalue = [3, 3]\nclass = 0", fillcolor="#ffffff"] ;
698 -> 714 ;
715 [label="gini = 0.0\nsamples = 2\nvalue = [2, 0]\nclass = 0", fillcolor="#e58139"] ;
714 -> 715 ;
716 [label="age <= 30.5\ngini = 0.375\nsamples = 4\nvalue = [1, 3]\nclass = 1", fillcolor="#7bbeee"] ;
714 -> 716 ;
717 [label="gini = 0.0\nsamples = 3\nvalue = [0, 3]\nclass = 1", fillcolor="#399de5"] ;
716 -> 717 ;
718 [label="gini = 0.0\nsamples = 1\nvalue = [1, 0]\nclass = 0", fillcolor="#e58139"] ;
716 -> 718 ;
719 [label="experience <= 0.5\ngini = 0.369\nsamples = 41\nvalue = [31, 10]\nclass = 0", fillcolor="#edaa79"] ;
665 -> 719 ;
720 [label="gini = 0.0\nsamples = 7\nvalue = [7, 0]\nclass = 0", fillcolor="#e58139"] ;
719 -> 720 ;
721 [label="age <= 38.5\ngini = 0.415\nsamples = 34\nvalue = [24, 10]\nclass = 0", fillcolor="#f0b58b"] ;
719 -> 721 ;
722 [label="age <= 36.5\ngini = 0.463\nsamples = 22\nvalue = [14, 8]\nclass = 0", fillcolor="#f4c9aa"] ;
721 -> 722 ;
723 [label="age <= 35.5\ngini = 0.375\nsamples = 12\nvalue = [9, 3]\nclass = 0", fillcolor="#eeab7b"] ;
722 -> 723 ;
724 [label="age <= 33.5\ngini = 0.444\nsamples = 9\nvalue = [6, 3]\nclass = 0", fillcolor="#f2c09c"] ;
723 -> 724 ;
725 [label="gini = 0.0\nsamples = 2\nvalue = [2, 0]\nclass = 0", fillcolor="#e58139"] ;
724 -> 725 ;
726 [label="experience <= 2.5\ngini = 0.49\nsamples = 7\nvalue = [4, 3]\nclass = 0", fillcolor="#f8e0ce"] ;
724 -> 726 ;
727 [label="age <= 34.5\ngini = 0.375\nsamples = 4\nvalue = [3, 1]\nclass = 0", fillcolor="#eeab7b"] ;
726 -> 727 ;
728 [label="gini = 0.0\nsamples = 2\nvalue = [2, 0]\nclass = 0", fillcolor="#e58139"] ;
727 -> 728 ;
729 [label="joining <= 2012.5\ngini = 0.5\nsamples = 2\nvalue = [1, 1]\nclass = 0", fillcolor="#ffffff"] ;
727 -> 729 ;
730 [label="gini = 0.0\nsamples = 1\nvalue = [0, 1]\nclass = 1", fillcolor="#399de5"] ;
729 -> 730 ;
731 [label="gini = 0.0\nsamples = 1\nvalue = [1, 0]\nclass = 0", fillcolor="#e58139"] ;
729 -> 731 ;
732 [label="joining <= 2013.5\ngini = 0.444\nsamples = 3\nvalue = [1, 2]\nclass = 1", fillcolor="#9ccef2"] ;
726 -> 732 ;
733 [label="gini = 0.0\nsamples = 1\nvalue = [0, 1]\nclass = 1", fillcolor="#399de5"] ;
732 -> 733 ;
734 [label="gini = 0.5\nsamples = 2\nvalue = [1, 1]\nclass = 0", fillcolor="#ffffff"] ;
732 -> 734 ;
735 [label="gini = 0.0\nsamples = 3\nvalue = [3, 0]\nclass = 0", fillcolor="#e58139"] ;
723 -> 735 ;
736 [label="joining <= 2012.5\ngini = 0.5\nsamples = 10\nvalue = [5, 5]\nclass = 0", fillcolor="#ffffff"] ;
722 -> 736 ;
737 [label="age <= 37.5\ngini = 0.444\nsamples = 6\nvalue = [2, 4]\nclass = 1", fillcolor="#9ccef2"] ;
736 -> 737 ;
738 [label="gini = 0.0\nsamples = 3\nvalue = [0, 3]\nclass = 1", fillcolor="#399de5"] ;
737 -> 738 ;
739 [label="experience <= 2.5\ngini = 0.444\nsamples = 3\nvalue = [2, 1]\nclass = 0", fillcolor="#f2c09c"] ;
737 -> 739 ;
740 [label="gini = 0.5\nsamples = 2\nvalue = [1, 1]\nclass = 0", fillcolor="#ffffff"] ;
739 -> 740 ;
741 [label="gini = 0.0\nsamples = 1\nvalue = [1, 0]\nclass = 0", fillcolor="#e58139"] ;
739 -> 741 ;
742 [label="experience <= 2.5\ngini = 0.375\nsamples = 4\nvalue = [3, 1]\nclass = 0", fillcolor="#eeab7b"] ;
736 -> 742 ;
743 [label="gini = 0.0\nsamples = 2\nvalue = [2, 0]\nclass = 0", fillcolor="#e58139"] ;
742 -> 743 ;
744 [label="gini = 0.5\nsamples = 2\nvalue = [1, 1]\nclass = 0", fillcolor="#ffffff"] ;
742 -> 744 ;
745 [label="joining <= 2012.5\ngini = 0.278\nsamples = 12\nvalue = [10, 2]\nclass = 0", fillcolor="#ea9a61"] ;
721 -> 745 ;
746 [label="gini = 0.0\nsamples = 7\nvalue = [7, 0]\nclass = 0", fillcolor="#e58139"] ;
745 -> 746 ;
747 [label="age <= 40.5\ngini = 0.48\nsamples = 5\nvalue = [3, 2]\nclass = 0", fillcolor="#f6d5bd"] ;
745 -> 747 ;
748 [label="experience <= 2.5\ngini = 0.375\nsamples = 4\nvalue = [3, 1]\nclass = 0", fillcolor="#eeab7b"] ;
747 -> 748 ;
749 [label="gini = 0.0\nsamples = 3\nvalue = [3, 0]\nclass = 0", fillcolor="#e58139"] ;
748 -> 749 ;
750 [label="gini = 0.0\nsamples = 1\nvalue = [0, 1]\nclass = 1", fillcolor="#399de5"] ;
748 -> 750 ;
751 [label="gini = 0.0\nsamples = 1\nvalue = [0, 1]\nclass = 1", fillcolor="#399de5"] ;
747 -> 751 ;
752 [label="age <= 37.5\ngini = 0.389\nsamples = 87\nvalue = [64, 23]\nclass = 0", fillcolor="#eeae80"] ;
664 -> 752 ;
753 [label="age <= 27.5\ngini = 0.358\nsamples = 77\nvalue = [59, 18]\nclass = 0", fillcolor="#eda775"] ;
752 -> 753 ;
754 [label="joining <= 2012.5\ngini = 0.449\nsamples = 44\nvalue = [29, 15]\nclass = 0", fillcolor="#f2c29f"] ;
753 -> 754 ;
755 [label="gini = 0.484\nsamples = 17\nvalue = [10, 7]\nclass = 0", fillcolor="#f7d9c4"] ;
754 -> 755 ;
756 [label="joining <= 2013.5\ngini = 0.417\nsamples = 27\nvalue = [19, 8]\nclass = 0", fillcolor="#f0b68c"] ;
754 -> 756 ;
757 [label="gini = 0.298\nsamples = 11\nvalue = [9, 2]\nclass = 0", fillcolor="#eb9d65"] ;
756 -> 757 ;
758 [label="gini = 0.469\nsamples = 16\nvalue = [10, 6]\nclass = 0", fillcolor="#f5cdb0"] ;
756 -> 758 ;
759 [label="experience <= 4.5\ngini = 0.165\nsamples = 33\nvalue = [30, 3]\nclass = 0", fillcolor="#e88e4d"] ;
753 -> 759 ;
760 [label="age <= 28.5\ngini = 0.266\nsamples = 19\nvalue = [16, 3]\nclass = 0", fillcolor="#ea995e"] ;
759 -> 760 ;
761 [label="gini = 0.0\nsamples = 6\nvalue = [6, 0]\nclass = 0", fillcolor="#e58139"] ;
760 -> 761 ;
762 [label="age <= 29.5\ngini = 0.355\nsamples = 13\nvalue = [10, 3]\nclass = 0", fillcolor="#eda774"] ;
760 -> 762 ;
763 [label="joining <= 2013.0\ngini = 0.5\nsamples = 2\nvalue = [1, 1]\nclass = 0", fillcolor="#ffffff"] ;
762 -> 763 ;
764 [label="gini = 0.0\nsamples = 1\nvalue = [1, 0]\nclass = 0", fillcolor="#e58139"] ;
763 -> 764 ;
765 [label="gini = 0.0\nsamples = 1\nvalue = [0, 1]\nclass = 1", fillcolor="#399de5"] ;
763 -> 765 ;
766 [label="joining <= 2013.5\ngini = 0.298\nsamples = 11\nvalue = [9, 2]\nclass = 0", fillcolor="#eb9d65"] ;
762 -> 766 ;
767 [label="age <= 32.5\ngini = 0.444\nsamples = 6\nvalue = [4, 2]\nclass = 0", fillcolor="#f2c09c"] ;
766 -> 767 ;
768 [label="gini = 0.0\nsamples = 2\nvalue = [2, 0]\nclass = 0", fillcolor="#e58139"] ;
767 -> 768 ;
769 [label="joining <= 2012.5\ngini = 0.5\nsamples = 4\nvalue = [2, 2]\nclass = 0", fillcolor="#ffffff"] ;
767 -> 769 ;
770 [label="age <= 35.5\ngini = 0.444\nsamples = 3\nvalue = [2, 1]\nclass = 0", fillcolor="#f2c09c"] ;
769 -> 770 ;
771 [label="gini = 0.0\nsamples = 1\nvalue = [1, 0]\nclass = 0", fillcolor="#e58139"] ;
770 -> 771 ;
772 [label="gini = 0.5\nsamples = 2\nvalue = [1, 1]\nclass = 0", fillcolor="#ffffff"] ;
770 -> 772 ;
773 [label="gini = 0.0\nsamples = 1\nvalue = [0, 1]\nclass = 1", fillcolor="#399de5"] ;
769 -> 773 ;
774 [label="gini = 0.0\nsamples = 5\nvalue = [5, 0]\nclass = 0", fillcolor="#e58139"] ;
766 -> 774 ;
775 [label="gini = 0.0\nsamples = 14\nvalue = [14, 0]\nclass = 0", fillcolor="#e58139"] ;
759 -> 775 ;
776 [label="joining <= 2012.5\ngini = 0.5\nsamples = 10\nvalue = [5, 5]\nclass = 0", fillcolor="#ffffff"] ;
752 -> 776 ;
777 [label="gini = 0.0\nsamples = 2\nvalue = [0, 2]\nclass = 1", fillcolor="#399de5"] ;
776 -> 777 ;
778 [label="age <= 38.5\ngini = 0.469\nsamples = 8\nvalue = [5, 3]\nclass = 0", fillcolor="#f5cdb0"] ;
776 -> 778 ;
779 [label="gini = 0.0\nsamples = 3\nvalue = [3, 0]\nclass = 0", fillcolor="#e58139"] ;
778 -> 779 ;
780 [label="joining <= 2013.5\ngini = 0.48\nsamples = 5\nvalue = [2, 3]\nclass = 1", fillcolor="#bddef6"] ;
778 -> 780 ;
781 [label="gini = 0.0\nsamples = 2\nvalue = [0, 2]\nclass = 1", fillcolor="#399de5"] ;
780 -> 781 ;
782 [label="experience <= 6.0\ngini = 0.444\nsamples = 3\nvalue = [2, 1]\nclass = 0", fillcolor="#f2c09c"] ;
780 -> 782 ;
783 [label="gini = 0.0\nsamples = 2\nvalue = [2, 0]\nclass = 0", fillcolor="#e58139"] ;
782 -> 783 ;
784 [label="gini = 0.0\nsamples = 1\nvalue = [0, 1]\nclass = 1", fillcolor="#399de5"] ;
782 -> 784 ;
785 [label="age <= 30.5\ngini = 0.291\nsamples = 272\nvalue = [224, 48]\nclass = 0", fillcolor="#eb9c63"] ;
639 -> 785 ;
786 [label="age <= 29.5\ngini = 0.333\nsamples = 194\nvalue = [153, 41]\nclass = 0", fillcolor="#eca36e"] ;
785 -> 786 ;
787 [label="joining <= 2016.5\ngini = 0.302\nsamples = 173\nvalue = [141, 32]\nclass = 0", fillcolor="#eb9e66"] ;
786 -> 787 ;
788 [label="experience <= 3.5\ngini = 0.349\nsamples = 111\nvalue = [86, 25]\nclass = 0", fillcolor="#eda673"] ;
787 -> 788 ;
789 [label="age <= 24.5\ngini = 0.441\nsamples = 64\nvalue = [43, 21]\nclass = 0", fillcolor="#f2bf9a"] ;
788 -> 789 ;
790 [label="joining <= 2015.5\ngini = 0.266\nsamples = 19\nvalue = [16, 3]\nclass = 0", fillcolor="#ea995e"] ;
789 -> 790 ;
791 [label="experience <= 1.5\ngini = 0.444\nsamples = 6\nvalue = [4, 2]\nclass = 0", fillcolor="#f2c09c"] ;
790 -> 791 ;
792 [label="gini = 0.0\nsamples = 2\nvalue = [2, 0]\nclass = 0", fillcolor="#e58139"] ;
791 -> 792 ;
793 [label="gini = 0.5\nsamples = 4\nvalue = [2, 2]\nclass = 0", fillcolor="#ffffff"] ;
791 -> 793 ;
794 [label="age <= 23.5\ngini = 0.142\nsamples = 13\nvalue = [12, 1]\nclass = 0", fillcolor="#e78c49"] ;
790 -> 794 ;
795 [label="gini = 0.0\nsamples = 3\nvalue = [3, 0]\nclass = 0", fillcolor="#e58139"] ;
794 -> 795 ;
796 [label="gini = 0.18\nsamples = 10\nvalue = [9, 1]\nclass = 0", fillcolor="#e88f4f"] ;
794 -> 796 ;
797 [label="age <= 28.5\ngini = 0.48\nsamples = 45\nvalue = [27, 18]\nclass = 0", fillcolor="#f6d5bd"] ;
789 -> 797 ;
798 [label="joining <= 2015.5\ngini = 0.491\nsamples = 37\nvalue = [21, 16]\nclass = 0", fillcolor="#f9e1d0"] ;
797 -> 798 ;
799 [label="experience <= 1.5\ngini = 0.457\nsamples = 17\nvalue = [11, 6]\nclass = 0", fillcolor="#f3c6a5"] ;
798 -> 799 ;
800 [label="experience <= 0.5\ngini = 0.49\nsamples = 7\nvalue = [3, 4]\nclass = 1", fillcolor="#cee6f8"] ;
799 -> 800 ;
801 [label="gini = 0.0\nsamples = 1\nvalue = [1, 0]\nclass = 0", fillcolor="#e58139"] ;
800 -> 801 ;
802 [label="gini = 0.444\nsamples = 6\nvalue = [2, 4]\nclass = 1", fillcolor="#9ccef2"] ;
800 -> 802 ;
803 [label="experience <= 2.5\ngini = 0.32\nsamples = 10\nvalue = [8, 2]\nclass = 0", fillcolor="#eca06a"] ;
799 -> 803 ;
804 [label="gini = 0.444\nsamples = 3\nvalue = [2, 1]\nclass = 0", fillcolor="#f2c09c"] ;
803 -> 804 ;
805 [label="age <= 26.5\ngini = 0.245\nsamples = 7\nvalue = [6, 1]\nclass = 0", fillcolor="#e9965a"] ;
803 -> 805 ;
806 [label="gini = 0.375\nsamples = 4\nvalue = [3, 1]\nclass = 0", fillcolor="#eeab7b"] ;
805 -> 806 ;
807 [label="gini = 0.0\nsamples = 3\nvalue = [3, 0]\nclass = 0", fillcolor="#e58139"] ;
805 -> 807 ;
808 [label="experience <= 1.5\ngini = 0.5\nsamples = 20\nvalue = [10, 10]\nclass = 0", fillcolor="#ffffff"] ;
798 -> 808 ;
809 [label="gini = 0.0\nsamples = 1\nvalue = [1, 0]\nclass = 0", fillcolor="#e58139"] ;
808 -> 809 ;
810 [label="age <= 26.5\ngini = 0.499\nsamples = 19\nvalue = [9, 10]\nclass = 1", fillcolor="#ebf5fc"] ;
808 -> 810 ;
811 [label="gini = 0.496\nsamples = 11\nvalue = [6, 5]\nclass = 0", fillcolor="#fbeade"] ;
810 -> 811 ;
812 [label="experience <= 2.5\ngini = 0.469\nsamples = 8\nvalue = [3, 5]\nclass = 1", fillcolor="#b0d8f5"] ;
810 -> 812 ;
813 [label="gini = 0.48\nsamples = 5\nvalue = [3, 2]\nclass = 0", fillcolor="#f6d5bd"] ;
812 -> 813 ;
814 [label="gini = 0.0\nsamples = 3\nvalue = [0, 3]\nclass = 1", fillcolor="#399de5"] ;
812 -> 814 ;
815 [label="experience <= 1.5\ngini = 0.375\nsamples = 8\nvalue = [6, 2]\nclass = 0", fillcolor="#eeab7b"] ;
797 -> 815 ;
816 [label="gini = 0.0\nsamples = 3\nvalue = [3, 0]\nclass = 0", fillcolor="#e58139"] ;
815 -> 816 ;
817 [label="joining <= 2015.5\ngini = 0.48\nsamples = 5\nvalue = [3, 2]\nclass = 0", fillcolor="#f6d5bd"] ;
815 -> 817 ;
818 [label="gini = 0.0\nsamples = 1\nvalue = [0, 1]\nclass = 1", fillcolor="#399de5"] ;
817 -> 818 ;
819 [label="gini = 0.375\nsamples = 4\nvalue = [3, 1]\nclass = 0", fillcolor="#eeab7b"] ;
817 -> 819 ;
820 [label="joining <= 2015.5\ngini = 0.156\nsamples = 47\nvalue = [43, 4]\nclass = 0", fillcolor="#e78d4b"] ;
788 -> 820 ;
821 [label="gini = 0.0\nsamples = 23\nvalue = [23, 0]\nclass = 0", fillcolor="#e58139"] ;
820 -> 821 ;
822 [label="experience <= 4.5\ngini = 0.278\nsamples = 24\nvalue = [20, 4]\nclass = 0", fillcolor="#ea9a61"] ;
820 -> 822 ;
823 [label="gini = 0.36\nsamples = 17\nvalue = [13, 4]\nclass = 0", fillcolor="#eda876"] ;
822 -> 823 ;
824 [label="gini = 0.0\nsamples = 7\nvalue = [7, 0]\nclass = 0", fillcolor="#e58139"] ;
822 -> 824 ;
825 [label="experience <= 4.5\ngini = 0.2\nsamples = 62\nvalue = [55, 7]\nclass = 0", fillcolor="#e89152"] ;
787 -> 825 ;
826 [label="experience <= 2.5\ngini = 0.093\nsamples = 41\nvalue = [39, 2]\nclass = 0", fillcolor="#e68743"] ;
825 -> 826 ;
827 [label="gini = 0.0\nsamples = 21\nvalue = [21, 0]\nclass = 0", fillcolor="#e58139"] ;
826 -> 827 ;
828 [label="age <= 27.0\ngini = 0.18\nsamples = 20\nvalue = [18, 2]\nclass = 0", fillcolor="#e88f4f"] ;
826 -> 828 ;
829 [label="age <= 25.5\ngini = 0.231\nsamples = 15\nvalue = [13, 2]\nclass = 0", fillcolor="#e99457"] ;
828 -> 829 ;
830 [label="gini = 0.219\nsamples = 8\nvalue = [7, 1]\nclass = 0", fillcolor="#e99355"] ;
829 -> 830 ;
831 [label="gini = 0.245\nsamples = 7\nvalue = [6, 1]\nclass = 0", fillcolor="#e9965a"] ;
829 -> 831 ;
832 [label="gini = 0.0\nsamples = 5\nvalue = [5, 0]\nclass = 0", fillcolor="#e58139"] ;
828 -> 832 ;
833 [label="age <= 27.5\ngini = 0.363\nsamples = 21\nvalue = [16, 5]\nclass = 0", fillcolor="#eda877"] ;
825 -> 833 ;
834 [label="gini = 0.375\nsamples = 20\nvalue = [15, 5]\nclass = 0", fillcolor="#eeab7b"] ;
833 -> 834 ;
835 [label="gini = 0.0\nsamples = 1\nvalue = [1, 0]\nclass = 0", fillcolor="#e58139"] ;
833 -> 835 ;
836 [label="joining <= 2015.5\ngini = 0.49\nsamples = 21\nvalue = [12, 9]\nclass = 0", fillcolor="#f8e0ce"] ;
786 -> 836 ;
837 [label="experience <= 1.5\ngini = 0.245\nsamples = 7\nvalue = [6, 1]\nclass = 0", fillcolor="#e9965a"] ;
836 -> 837 ;
838 [label="gini = 0.0\nsamples = 3\nvalue = [3, 0]\nclass = 0", fillcolor="#e58139"] ;
837 -> 838 ;
839 [label="experience <= 3.0\ngini = 0.375\nsamples = 4\nvalue = [3, 1]\nclass = 0", fillcolor="#eeab7b"] ;
837 -> 839 ;
840 [label="gini = 0.444\nsamples = 3\nvalue = [2, 1]\nclass = 0", fillcolor="#f2c09c"] ;
839 -> 840 ;
841 [label="gini = 0.0\nsamples = 1\nvalue = [1, 0]\nclass = 0", fillcolor="#e58139"] ;
839 -> 841 ;
842 [label="experience <= 3.5\ngini = 0.49\nsamples = 14\nvalue = [6, 8]\nclass = 1", fillcolor="#cee6f8"] ;
836 -> 842 ;
843 [label="experience <= 2.5\ngini = 0.497\nsamples = 13\nvalue = [6, 7]\nclass = 1", fillcolor="#e3f1fb"] ;
842 -> 843 ;
844 [label="joining <= 2016.5\ngini = 0.486\nsamples = 12\nvalue = [5, 7]\nclass = 1", fillcolor="#c6e3f8"] ;
843 -> 844 ;
845 [label="experience <= 0.5\ngini = 0.49\nsamples = 7\nvalue = [4, 3]\nclass = 0", fillcolor="#f8e0ce"] ;
844 -> 845 ;
846 [label="gini = 0.5\nsamples = 2\nvalue = [1, 1]\nclass = 0", fillcolor="#ffffff"] ;
845 -> 846 ;
847 [label="experience <= 1.5\ngini = 0.48\nsamples = 5\nvalue = [3, 2]\nclass = 0", fillcolor="#f6d5bd"] ;
845 -> 847 ;
848 [label="gini = 0.444\nsamples = 3\nvalue = [2, 1]\nclass = 0", fillcolor="#f2c09c"] ;
847 -> 848 ;
849 [label="gini = 0.5\nsamples = 2\nvalue = [1, 1]\nclass = 0", fillcolor="#ffffff"] ;
847 -> 849 ;
850 [label="experience <= 0.5\ngini = 0.32\nsamples = 5\nvalue = [1, 4]\nclass = 1", fillcolor="#6ab6ec"] ;
844 -> 850 ;
851 [label="gini = 0.0\nsamples = 2\nvalue = [0, 2]\nclass = 1", fillcolor="#399de5"] ;
850 -> 851 ;
852 [label="gini = 0.444\nsamples = 3\nvalue = [1, 2]\nclass = 1", fillcolor="#9ccef2"] ;
850 -> 852 ;
853 [label="gini = 0.0\nsamples = 1\nvalue = [1, 0]\nclass = 0", fillcolor="#e58139"] ;
843 -> 853 ;
854 [label="gini = 0.0\nsamples = 1\nvalue = [0, 1]\nclass = 1", fillcolor="#399de5"] ;
842 -> 854 ;
855 [label="joining <= 2015.5\ngini = 0.163\nsamples = 78\nvalue = [71, 7]\nclass = 0", fillcolor="#e88d4d"] ;
785 -> 855 ;
856 [label="age <= 33.5\ngini = 0.32\nsamples = 20\nvalue = [16, 4]\nclass = 0", fillcolor="#eca06a"] ;
855 -> 856 ;
857 [label="gini = 0.0\nsamples = 6\nvalue = [6, 0]\nclass = 0", fillcolor="#e58139"] ;
856 -> 857 ;
858 [label="age <= 34.5\ngini = 0.408\nsamples = 14\nvalue = [10, 4]\nclass = 0", fillcolor="#efb388"] ;
856 -> 858 ;
859 [label="gini = 0.0\nsamples = 1\nvalue = [0, 1]\nclass = 1", fillcolor="#399de5"] ;
858 -> 859 ;
860 [label="age <= 39.5\ngini = 0.355\nsamples = 13\nvalue = [10, 3]\nclass = 0", fillcolor="#eda774"] ;
858 -> 860 ;
861 [label="age <= 38.5\ngini = 0.444\nsamples = 9\nvalue = [6, 3]\nclass = 0", fillcolor="#f2c09c"] ;
860 -> 861 ;
862 [label="age <= 37.0\ngini = 0.245\nsamples = 7\nvalue = [6, 1]\nclass = 0", fillcolor="#e9965a"] ;
861 -> 862 ;
863 [label="gini = 0.0\nsamples = 3\nvalue = [3, 0]\nclass = 0", fillcolor="#e58139"] ;
862 -> 863 ;
864 [label="experience <= 2.0\ngini = 0.375\nsamples = 4\nvalue = [3, 1]\nclass = 0", fillcolor="#eeab7b"] ;
862 -> 864 ;
865 [label="gini = 0.0\nsamples = 1\nvalue = [1, 0]\nclass = 0", fillcolor="#e58139"] ;
864 -> 865 ;
866 [label="experience <= 4.0\ngini = 0.444\nsamples = 3\nvalue = [2, 1]\nclass = 0", fillcolor="#f2c09c"] ;
864 -> 866 ;
867 [label="gini = 0.5\nsamples = 2\nvalue = [1, 1]\nclass = 0", fillcolor="#ffffff"] ;
866 -> 867 ;
868 [label="gini = 0.0\nsamples = 1\nvalue = [1, 0]\nclass = 0", fillcolor="#e58139"] ;
866 -> 868 ;
869 [label="gini = 0.0\nsamples = 2\nvalue = [0, 2]\nclass = 1", fillcolor="#399de5"] ;
861 -> 869 ;
870 [label="gini = 0.0\nsamples = 4\nvalue = [4, 0]\nclass = 0", fillcolor="#e58139"] ;
860 -> 870 ;
871 [label="age <= 31.5\ngini = 0.098\nsamples = 58\nvalue = [55, 3]\nclass = 0", fillcolor="#e68844"] ;
855 -> 871 ;
872 [label="experience <= 1.5\ngini = 0.278\nsamples = 6\nvalue = [5, 1]\nclass = 0", fillcolor="#ea9a61"] ;
871 -> 872 ;
873 [label="experience <= 0.5\ngini = 0.444\nsamples = 3\nvalue = [2, 1]\nclass = 0", fillcolor="#f2c09c"] ;
872 -> 873 ;
874 [label="gini = 0.0\nsamples = 2\nvalue = [2, 0]\nclass = 0", fillcolor="#e58139"] ;
873 -> 874 ;
875 [label="gini = 0.0\nsamples = 1\nvalue = [0, 1]\nclass = 1", fillcolor="#399de5"] ;
873 -> 875 ;
876 [label="gini = 0.0\nsamples = 3\nvalue = [3, 0]\nclass = 0", fillcolor="#e58139"] ;
872 -> 876 ;
877 [label="age <= 36.5\ngini = 0.074\nsamples = 52\nvalue = [50, 2]\nclass = 0", fillcolor="#e68641"] ;
871 -> 877 ;
878 [label="gini = 0.0\nsamples = 28\nvalue = [28, 0]\nclass = 0", fillcolor="#e58139"] ;
877 -> 878 ;
879 [label="age <= 38.5\ngini = 0.153\nsamples = 24\nvalue = [22, 2]\nclass = 0", fillcolor="#e78c4b"] ;
877 -> 879 ;
880 [label="experience <= 3.5\ngini = 0.375\nsamples = 8\nvalue = [6, 2]\nclass = 0", fillcolor="#eeab7b"] ;
879 -> 880 ;
881 [label="experience <= 1.5\ngini = 0.444\nsamples = 6\nvalue = [4, 2]\nclass = 0", fillcolor="#f2c09c"] ;
880 -> 881 ;
882 [label="gini = 0.0\nsamples = 1\nvalue = [1, 0]\nclass = 0", fillcolor="#e58139"] ;
881 -> 882 ;
883 [label="age <= 37.5\ngini = 0.48\nsamples = 5\nvalue = [3, 2]\nclass = 0", fillcolor="#f6d5bd"] ;
881 -> 883 ;
884 [label="experience <= 2.5\ngini = 0.444\nsamples = 3\nvalue = [2, 1]\nclass = 0", fillcolor="#f2c09c"] ;
883 -> 884 ;
885 [label="gini = 0.0\nsamples = 1\nvalue = [1, 0]\nclass = 0", fillcolor="#e58139"] ;
884 -> 885 ;
886 [label="gini = 0.5\nsamples = 2\nvalue = [1, 1]\nclass = 0", fillcolor="#ffffff"] ;
884 -> 886 ;
887 [label="experience <= 2.5\ngini = 0.5\nsamples = 2\nvalue = [1, 1]\nclass = 0", fillcolor="#ffffff"] ;
883 -> 887 ;
888 [label="gini = 0.0\nsamples = 1\nvalue = [0, 1]\nclass = 1", fillcolor="#399de5"] ;
887 -> 888 ;
889 [label="gini = 0.0\nsamples = 1\nvalue = [1, 0]\nclass = 0", fillcolor="#e58139"] ;
887 -> 889 ;
890 [label="gini = 0.0\nsamples = 2\nvalue = [2, 0]\nclass = 0", fillcolor="#e58139"] ;
880 -> 890 ;
891 [label="gini = 0.0\nsamples = 16\nvalue = [16, 0]\nclass = 0", fillcolor="#e58139"] ;
879 -> 891 ;
892 [label="experience <= 3.5\ngini = 0.166\nsamples = 513\nvalue = [466, 47]\nclass = 0", fillcolor="#e88e4d"] ;
638 -> 892 ;
893 [label="age <= 26.5\ngini = 0.252\nsamples = 291\nvalue = [248, 43]\nclass = 0", fillcolor="#ea975b"] ;
892 -> 893 ;
894 [label="joining <= 2013.5\ngini = 0.338\nsamples = 93\nvalue = [73, 20]\nclass = 0", fillcolor="#eca46f"] ;
893 -> 894 ;
895 [label="joining <= 2012.5\ngini = 0.477\nsamples = 28\nvalue = [17, 11]\nclass = 0", fillcolor="#f6d3b9"] ;
894 -> 895 ;
896 [label="age <= 24.5\ngini = 0.219\nsamples = 8\nvalue = [7, 1]\nclass = 0", fillcolor="#e99355"] ;
895 -> 896 ;
897 [label="gini = 0.0\nsamples = 4\nvalue = [4, 0]\nclass = 0", fillcolor="#e58139"] ;
896 -> 897 ;
898 [label="gini = 0.375\nsamples = 4\nvalue = [3, 1]\nclass = 0", fillcolor="#eeab7b"] ;
896 -> 898 ;
899 [label="city <= 1.5\ngini = 0.5\nsamples = 20\nvalue = [10, 10]\nclass = 0", fillcolor="#ffffff"] ;
895 -> 899 ;
900 [label="gini = 0.0\nsamples = 1\nvalue = [1, 0]\nclass = 0", fillcolor="#e58139"] ;
899 -> 900 ;
