digraph Tree {
node [shape=box, style="filled", color="black", fontname="helvetica"] ;
edge [fontname="helvetica"] ;
0 [label="income <= -0.807\ngini = 0.5\nsamples = 16168\nvalue = [8084, 8084]\nclass = 1", fillcolor="#ffffff"] ;
1 [label="income <= -1.73\ngini = 0.499\nsamples = 4351\nvalue = [2090, 2261]\nclass = 0", fillcolor="#f0f8fd"] ;
0 -> 1 [labeldistance=2.5, labelangle=45, headlabel="True"] ;
2 [label="age <= 1.58\ngini = 0.308\nsamples = 21\nvalue = [17, 4]\nclass = 1", fillcolor="#eb9f68"] ;
1 -> 2 ;
3 [label="appearance_score <= -1.061\ngini = 0.255\nsamples = 20\nvalue = [17, 3]\nclass = 1", fillcolor="#ea975c"] ;
2 -> 3 ;
4 [label="appearance_score <= -1.337\ngini = 0.48\nsamples = 5\nvalue = [3, 2]\nclass = 1", fillcolor="#f6d5bd"] ;
3 -> 4 ;
5 [label="gini = 0.0\nsamples = 3\nvalue = [3, 0]\nclass = 1", fillcolor="#e58139"] ;
4 -> 5 ;
6 [label="gini = 0.0\nsamples = 2\nvalue = [0, 2]\nclass = 0", fillcolor="#399de5"] ;
4 -> 6 ;
7 [label="appearance_score <= 1.154\ngini = 0.124\nsamples = 15\nvalue = [14, 1]\nclass = 1", fillcolor="#e78a47"] ;
3 -> 7 ;
8 [label="gini = 0.0\nsamples = 12\nvalue = [12, 0]\nclass = 1", fillcolor="#e58139"] ;
7 -> 8 ;
9 [label="confidence_score <= -0.84\ngini = 0.444\nsamples = 3\nvalue = [2, 1]\nclass = 1", fillcolor="#f2c09c"] ;
7 -> 9 ;
10 [label="gini = 0.0\nsamples = 2\nvalue = [2, 0]\nclass = 1", fillcolor="#e58139"] ;
9 -> 10 ;
11 [label="gini = 0.0\nsamples = 1\nvalue = [0, 1]\nclass = 0", fillcolor="#399de5"] ;
9 -> 11 ;
12 [label="gini = 0.0\nsamples = 1\nvalue = [0, 1]\nclass = 0", fillcolor="#399de5"] ;
2 -> 12 ;
13 [label="income <= -1.725\ngini = 0.499\nsamples = 4330\nvalue = [2073, 2257]\nclass = 0", fillcolor="#eff7fd"] ;
1 -> 13 ;
14 [label="job_type <= 0.5\ngini = 0.198\nsamples = 18\nvalue = [2, 16]\nclass = 0", fillcolor="#52a9e8"] ;
13 -> 14 ;
15 [label="gini = 0.0\nsamples = 12\nvalue = [0, 12]\nclass = 0", fillcolor="#399de5"] ;
14 -> 15 ;
16 [label="interests_score <= -0.479\ngini = 0.444\nsamples = 6\nvalue = [2, 4]\nclass = 0", fillcolor="#9ccef2"] ;
14 -> 16 ;
17 [label="gini = 0.0\nsamples = 1\nvalue = [1, 0]\nclass = 1", fillcolor="#e58139"] ;
16 -> 17 ;
18 [label="appearance_score <= -0.428\ngini = 0.32\nsamples = 5\nvalue = [1, 4]\nclass = 0", fillcolor="#6ab6ec"] ;
16 -> 18 ;
19 [label="gini = 0.0\nsamples = 1\nvalue = [1, 0]\nclass = 1", fillcolor="#e58139"] ;
18 -> 19 ;
20 [label="gini = 0.0\nsamples = 4\nvalue = [0, 4]\nclass = 0", fillcolor="#399de5"] ;
18 -> 20 ;
21 [label="confidence_score <= 1.539\ngini = 0.499\nsamples = 4312\nvalue = [2071, 2241]\nclass = 0", fillcolor="#f0f8fd"] ;
13 -> 21 ;
22 [label="income <= -0.815\ngini = 0.499\nsamples = 4080\nvalue = [1939, 2141]\nclass = 0", fillcolor="#ecf6fd"] ;
21 -> 22 ;
23 [label="appearance_score <= -0.647\ngini = 0.499\nsamples = 4052\nvalue = [1933, 2119]\nclass = 0", fillcolor="#eef6fd"] ;
22 -> 23 ;
24 [label="appearance_score <= -1.211\ngini = 0.5\nsamples = 1214\nvalue = [617, 597]\nclass = 1", fillcolor="#fefbf9"] ;
23 -> 24 ;
25 [label="confidence_score <= 1.187\ngini = 0.498\nsamples = 569\nvalue = [266, 303]\nclass = 0", fillcolor="#e7f3fc"] ;
24 -> 25 ;
26 [label="age <= -0.987\ngini = 0.495\nsamples = 498\nvalue = [223, 275]\nclass = 0", fillcolor="#daecfa"] ;
25 -> 26 ;
27 [label="interests_score <= -1.21\ngini = 0.449\nsamples = 103\nvalue = [35, 68]\nclass = 0", fillcolor="#9fcff2"] ;
26 -> 27 ;
28 [label="income <= -1.313\ngini = 0.48\nsamples = 15\nvalue = [9, 6]\nclass = 1", fillcolor="#f6d5bd"] ;
27 -> 28 ;
29 [label="gini = 0.0\nsamples = 6\nvalue = [6, 0]\nclass = 1", fillcolor="#e58139"] ;
28 -> 29 ;
30 [label="job_type <= 0.5\ngini = 0.444\nsamples = 9\nvalue = [3, 6]\nclass = 0", fillcolor="#9ccef2"] ;
28 -> 30 ;
31 [label="gini = 0.0\nsamples = 2\nvalue = [2, 0]\nclass = 1", fillcolor="#e58139"] ;
30 -> 31 ;
32 [label="income <= -0.892\ngini = 0.245\nsamples = 7\nvalue = [1, 6]\nclass = 0", fillcolor="#5aade9"] ;
30 -> 32 ;
33 [label="gini = 0.0\nsamples = 6\nvalue = [0, 6]\nclass = 0", fillcolor="#399de5"] ;
32 -> 33 ;
34 [label="gini = 0.0\nsamples = 1\nvalue = [1, 0]\nclass = 1", fillcolor="#e58139"] ;
32 -> 34 ;
35 [label="appearance_score <= -1.38\ngini = 0.416\nsamples = 88\nvalue = [26, 62]\nclass = 0", fillcolor="#8cc6f0"] ;
27 -> 35 ;
36 [label="interests_score <= 1.371\ngini = 0.332\nsamples = 57\nvalue = [12, 45]\nclass = 0", fillcolor="#6eb7ec"] ;
35 -> 36 ;
37 [label="income <= -1.698\ngini = 0.241\nsamples = 50\nvalue = [7, 43]\nclass = 0", fillcolor="#59ade9"] ;
36 -> 37 ;
38 [label="appearance_score <= -1.554\ngini = 0.444\nsamples = 3\nvalue = [2, 1]\nclass = 1", fillcolor="#f2c09c"] ;
37 -> 38 ;
39 [label="gini = 0.0\nsamples = 2\nvalue = [2, 0]\nclass = 1", fillcolor="#e58139"] ;
38 -> 39 ;
40 [label="gini = 0.0\nsamples = 1\nvalue = [0, 1]\nclass = 0", fillcolor="#399de5"] ;
38 -> 40 ;
41 [label="appearance_score <= -1.724\ngini = 0.19\nsamples = 47\nvalue = [5, 42]\nclass = 0", fillcolor="#51a9e8"] ;
37 -> 41 ;
42 [label="gini = 0.0\nsamples = 1\nvalue = [1, 0]\nclass = 1", fillcolor="#e58139"] ;
41 -> 42 ;
43 [label="confidence_score <= -1.179\ngini = 0.159\nsamples = 46\nvalue = [4, 42]\nclass = 0", fillcolor="#4ca6e7"] ;
41 -> 43 ;
44 [label="income <= -1.167\ngini = 0.346\nsamples = 9\nvalue = [2, 7]\nclass = 0", fillcolor="#72b9ec"] ;
43 -> 44 ;
45 [label="gini = 0.0\nsamples = 6\nvalue = [0, 6]\nclass = 0", fillcolor="#399de5"] ;
44 -> 45 ;
46 [label="confidence_score <= -1.638\ngini = 0.444\nsamples = 3\nvalue = [2, 1]\nclass = 1", fillcolor="#f2c09c"] ;
44 -> 46 ;
47 [label="gini = 0.0\nsamples = 1\nvalue = [0, 1]\nclass = 0", fillcolor="#399de5"] ;
46 -> 47 ;
48 [label="gini = 0.0\nsamples = 2\nvalue = [2, 0]\nclass = 1", fillcolor="#e58139"] ;
46 -> 48 ;
49 [label="income <= -1.607\ngini = 0.102\nsamples = 37\nvalue = [2, 35]\nclass = 0", fillcolor="#44a3e6"] ;
43 -> 49 ;
50 [label="appearance_score <= -1.548\ngini = 0.444\nsamples = 3\nvalue = [1, 2]\nclass = 0", fillcolor="#9ccef2"] ;
49 -> 50 ;
51 [label="gini = 0.0\nsamples = 2\nvalue = [0, 2]\nclass = 0", fillcolor="#399de5"] ;
50 -> 51 ;
52 [label="gini = 0.0\nsamples = 1\nvalue = [1, 0]\nclass = 1", fillcolor="#e58139"] ;
50 -> 52 ;
53 [label="interests_score <= 0.977\ngini = 0.057\nsamples = 34\nvalue = [1, 33]\nclass = 0", fillcolor="#3fa0e6"] ;
49 -> 53 ;
54 [label="gini = 0.0\nsamples = 26\nvalue = [0, 26]\nclass = 0", fillcolor="#399de5"] ;
53 -> 54 ;
55 [label="interests_score <= 1.009\ngini = 0.219\nsamples = 8\nvalue = [1, 7]\nclass = 0", fillcolor="#55abe9"] ;
53 -> 55 ;
56 [label="gini = 0.0\nsamples = 1\nvalue = [1, 0]\nclass = 1", fillcolor="#e58139"] ;
55 -> 56 ;
57 [label="gini = 0.0\nsamples = 7\nvalue = [0, 7]\nclass = 0", fillcolor="#399de5"] ;
55 -> 57 ;
58 [label="income <= -1.507\ngini = 0.408\nsamples = 7\nvalue = [5, 2]\nclass = 1", fillcolor="#efb388"] ;
36 -> 58 ;
59 [label="gini = 0.0\nsamples = 2\nvalue = [0, 2]\nclass = 0", fillcolor="#399de5"] ;
58 -> 59 ;
60 [label="gini = 0.0\nsamples = 5\nvalue = [5, 0]\nclass = 1", fillcolor="#e58139"] ;
58 -> 60 ;
61 [label="income <= -1.452\ngini = 0.495\nsamples = 31\nvalue = [14, 17]\nclass = 0", fillcolor="#dceefa"] ;
35 -> 61 ;
62 [label="interests_score <= 1.217\ngini = 0.245\nsamples = 7\nvalue = [6, 1]\nclass = 1", fillcolor="#e9965a"] ;
61 -> 62 ;
63 [label="gini = 0.0\nsamples = 6\nvalue = [6, 0]\nclass = 1", fillcolor="#e58139"] ;
62 -> 63 ;
64 [label="gini = 0.0\nsamples = 1\nvalue = [0, 1]\nclass = 0", fillcolor="#399de5"] ;
62 -> 64 ;
65 [label="educational_status <= 1.5\ngini = 0.444\nsamples = 24\nvalue = [8, 16]\nclass = 0", fillcolor="#9ccef2"] ;
61 -> 65 ;
66 [label="interests_score <= -0.512\ngini = 0.165\nsamples = 11\nvalue = [1, 10]\nclass = 0", fillcolor="#4da7e8"] ;
65 -> 66 ;
67 [label="gini = 0.0\nsamples = 1\nvalue = [1, 0]\nclass = 1", fillcolor="#e58139"] ;
66 -> 67 ;
68 [label="gini = 0.0\nsamples = 10\nvalue = [0, 10]\nclass = 0", fillcolor="#399de5"] ;
66 -> 68 ;
69 [label="appearance_score <= -1.271\ngini = 0.497\nsamples = 13\nvalue = [7, 6]\nclass = 1", fillcolor="#fbede3"] ;
65 -> 69 ;
70 [label="appearance_score <= -1.308\ngini = 0.42\nsamples = 10\nvalue = [7, 3]\nclass = 1", fillcolor="#f0b78e"] ;
69 -> 70 ;
71 [label="interests_score <= -0.348\ngini = 0.5\nsamples = 6\nvalue = [3, 3]\nclass = 1", fillcolor="#ffffff"] ;
70 -> 71 ;
72 [label="gini = 0.0\nsamples = 2\nvalue = [0, 2]\nclass = 0", fillcolor="#399de5"] ;
71 -> 72 ;
73 [label="income <= -1.288\ngini = 0.375\nsamples = 4\nvalue = [3, 1]\nclass = 1", fillcolor="#eeab7b"] ;
71 -> 73 ;
74 [label="gini = 0.0\nsamples = 1\nvalue = [0, 1]\nclass = 0", fillcolor="#399de5"] ;
73 -> 74 ;
75 [label="gini = 0.0\nsamples = 3\nvalue = [3, 0]\nclass = 1", fillcolor="#e58139"] ;
73 -> 75 ;
76 [label="gini = 0.0\nsamples = 4\nvalue = [4, 0]\nclass = 1", fillcolor="#e58139"] ;
70 -> 76 ;
77 [label="gini = 0.0\nsamples = 3\nvalue = [0, 3]\nclass = 0", fillcolor="#399de5"] ;
69 -> 77 ;
78 [label="income <= -1.658\ngini = 0.499\nsamples = 395\nvalue = [188, 207]\nclass = 0", fillcolor="#edf6fd"] ;
26 -> 78 ;
79 [label="job_type <= 0.5\ngini = 0.415\nsamples = 34\nvalue = [10, 24]\nclass = 0", fillcolor="#8bc6f0"] ;
78 -> 79 ;
80 [label="confidence_score <= 0.119\ngini = 0.473\nsamples = 13\nvalue = [8, 5]\nclass = 1", fillcolor="#f5d0b5"] ;
79 -> 80 ;
81 [label="gini = 0.0\nsamples = 5\nvalue = [5, 0]\nclass = 1", fillcolor="#e58139"] ;
80 -> 81 ;
82 [label="age <= 0.297\ngini = 0.469\nsamples = 8\nvalue = [3, 5]\nclass = 0", fillcolor="#b0d8f5"] ;
80 -> 82 ;
83 [label="gini = 0.0\nsamples = 3\nvalue = [0, 3]\nclass = 0", fillcolor="#399de5"] ;
82 -> 83 ;
84 [label="age <= 1.278\ngini = 0.48\nsamples = 5\nvalue = [3, 2]\nclass = 1", fillcolor="#f6d5bd"] ;
82 -> 84 ;
85 [label="gini = 0.0\nsamples = 2\nvalue = [2, 0]\nclass = 1", fillcolor="#e58139"] ;
84 -> 85 ;
86 [label="age <= 1.429\ngini = 0.444\nsamples = 3\nvalue = [1, 2]\nclass = 0", fillcolor="#9ccef2"] ;
84 -> 86 ;
87 [label="gini = 0.0\nsamples = 2\nvalue = [0, 2]\nclass = 0", fillcolor="#399de5"] ;
86 -> 87 ;
88 [label="gini = 0.0\nsamples = 1\nvalue = [1, 0]\nclass = 1", fillcolor="#e58139"] ;
86 -> 88 ;
89 [label="income <= -1.723\ngini = 0.172\nsamples = 21\nvalue = [2, 19]\nclass = 0", fillcolor="#4ea7e8"] ;
79 -> 89 ;
90 [label="gini = 0.0\nsamples = 1\nvalue = [1, 0]\nclass = 1", fillcolor="#e58139"] ;
89 -> 90 ;
91 [label="confidence_score <= -1.346\ngini = 0.095\nsamples = 20\nvalue = [1, 19]\nclass = 0", fillcolor="#43a2e6"] ;
89 -> 91 ;
92 [label="appearance_score <= -1.345\ngini = 0.444\nsamples = 3\nvalue = [1, 2]\nclass = 0", fillcolor="#9ccef2"] ;
91 -> 92 ;
93 [label="gini = 0.0\nsamples = 2\nvalue = [0, 2]\nclass = 0", fillcolor="#399de5"] ;
92 -> 93 ;
94 [label="gini = 0.0\nsamples = 1\nvalue = [1, 0]\nclass = 1", fillcolor="#e58139"] ;
92 -> 94 ;
95 [label="gini = 0.0\nsamples = 17\nvalue = [0, 17]\nclass = 0", fillcolor="#399de5"] ;
91 -> 95 ;
96 [label="interests_score <= -1.59\ngini = 0.5\nsamples = 361\nvalue = [178, 183]\nclass = 0", fillcolor="#fafcfe"] ;
78 -> 96 ;
97 [label="age <= 0.901\ngini = 0.337\nsamples = 14\nvalue = [11, 3]\nclass = 1", fillcolor="#eca36f"] ;
96 -> 97 ;
98 [label="gini = 0.0\nsamples = 11\nvalue = [11, 0]\nclass = 1", fillcolor="#e58139"] ;
97 -> 98 ;
99 [label="gini = 0.0\nsamples = 3\nvalue = [0, 3]\nclass = 0", fillcolor="#399de5"] ;
97 -> 99 ;
100 [label="confidence_score <= -1.422\ngini = 0.499\nsamples = 347\nvalue = [167, 180]\nclass = 0", fillcolor="#f1f8fd"] ;
96 -> 100 ;
101 [label="income <= -1.494\ngini = 0.412\nsamples = 31\nvalue = [9, 22]\nclass = 0", fillcolor="#8ac5f0"] ;
100 -> 101 ;
102 [label="confidence_score <= -1.7\ngini = 0.375\nsamples = 4\nvalue = [3, 1]\nclass = 1", fillcolor="#eeab7b"] ;
101 -> 102 ;
103 [label="gini = 0.0\nsamples = 1\nvalue = [0, 1]\nclass = 0", fillcolor="#399de5"] ;
102 -> 103 ;
104 [label="gini = 0.0\nsamples = 3\nvalue = [3, 0]\nclass = 1", fillcolor="#e58139"] ;
102 -> 104 ;
105 [label="income <= -1.326\ngini = 0.346\nsamples = 27\nvalue = [6, 21]\nclass = 0", fillcolor="#72b9ec"] ;
101 -> 105 ;
106 [label="gini = 0.0\nsamples = 8\nvalue = [0, 8]\nclass = 0", fillcolor="#399de5"] ;
105 -> 106 ;
107 [label="income <= -1.162\ngini = 0.432\nsamples = 19\nvalue = [6, 13]\nclass = 0", fillcolor="#94caf1"] ;
105 -> 107 ;
108 [label="gini = 0.0\nsamples = 4\nvalue = [4, 0]\nclass = 1", fillcolor="#e58139"] ;
107 -> 108 ;
109 [label="educational_status <= 0.5\ngini = 0.231\nsamples = 15\nvalue = [2, 13]\nclass = 0", fillcolor="#57ace9"] ;
107 -> 109 ;
110 [label="confidence_score <= -1.573\ngini = 0.5\nsamples = 4\nvalue = [2, 2]\nclass = 1", fillcolor="#ffffff"] ;
109 -> 110 ;
111 [label="gini = 0.0\nsamples = 2\nvalue = [2, 0]\nclass = 1", fillcolor="#e58139"] ;
110 -> 111 ;
112 [label="gini = 0.0\nsamples = 2\nvalue = [0, 2]\nclass = 0", fillcolor="#399de5"] ;
110 -> 112 ;
113 [label="gini = 0.0\nsamples = 11\nvalue = [0, 11]\nclass = 0", fillcolor="#399de5"] ;
109 -> 113 ;
114 [label="interests_score <= 0.871\ngini = 0.5\nsamples = 316\nvalue = [158, 158]\nclass = 1", fillcolor="#ffffff"] ;
100 -> 114 ;
115 [label="interests_score <= 0.117\ngini = 0.497\nsamples = 234\nvalue = [108, 126]\nclass = 0", fillcolor="#e3f1fb"] ;
114 -> 115 ;
116 [label="income <= -0.976\ngini = 0.5\nsamples = 172\nvalue = [86, 86]\nclass = 1", fillcolor="#ffffff"] ;
115 -> 116 ;
117 [label="interests_score <= -0.021\ngini = 0.495\nsamples = 137\nvalue = [62, 75]\nclass = 0", fillcolor="#ddeefa"] ;
116 -> 117 ;
118 [label="interests_score <= -0.141\ngini = 0.486\nsamples = 125\nvalue = [52, 73]\nclass = 0", fillcolor="#c6e3f8"] ;
117 -> 118 ;
119 [label="confidence_score <= 0.621\ngini = 0.492\nsamples = 119\nvalue = [52, 67]\nclass = 0", fillcolor="#d3e9f9"] ;
118 -> 119 ;
120 [label="interests_score <= -0.609\ngini = 0.5\nsamples = 92\nvalue = [45, 47]\nclass = 0", fillcolor="#f7fbfe"] ;
119 -> 120 ;
121 [label="confidence_score <= 0.449\ngini = 0.487\nsamples = 67\nvalue = [28, 39]\nclass = 0", fillcolor="#c7e3f8"] ;
120 -> 121 ;
122 [label="appearance_score <= -1.658\ngini = 0.467\nsamples = 62\nvalue = [23, 39]\nclass = 0", fillcolor="#aed7f4"] ;
121 -> 122 ;
123 [label="confidence_score <= 0.192\ngini = 0.278\nsamples = 6\nvalue = [5, 1]\nclass = 1", fillcolor="#ea9a61"] ;
122 -> 123 ;
124 [label="gini = 0.0\nsamples = 5\nvalue = [5, 0]\nclass = 1", fillcolor="#e58139"] ;
123 -> 124 ;
125 [label="gini = 0.0\nsamples = 1\nvalue = [0, 1]\nclass = 0", fillcolor="#399de5"] ;
123 -> 125 ;
126 [label="confidence_score <= -1.387\ngini = 0.436\nsamples = 56\nvalue = [18, 38]\nclass = 0", fillcolor="#97cbf1"] ;
122 -> 126 ;
127 [label="gini = 0.0\nsamples = 2\nvalue = [2, 0]\nclass = 1", fillcolor="#e58139"] ;
126 -> 127 ;
128 [label="appearance_score <= -1.239\ngini = 0.417\nsamples = 54\nvalue = [16, 38]\nclass = 0", fillcolor="#8cc6f0"] ;
126 -> 128 ;
129 [label="educational_status <= 2.5\ngini = 0.393\nsamples = 52\nvalue = [14, 38]\nclass = 0", fillcolor="#82c1ef"] ;
128 -> 129 ;
130 [label="age <= 1.58\ngini = 0.32\nsamples = 40\nvalue = [8, 32]\nclass = 0", fillcolor="#6ab6ec"] ;
129 -> 130 ;
131 [label="age <= 0.372\ngini = 0.266\nsamples = 38\nvalue = [6, 32]\nclass = 0", fillcolor="#5eafea"] ;
130 -> 131 ;
132 [label="interests_score <= -1.351\ngini = 0.375\nsamples = 20\nvalue = [5, 15]\nclass = 0", fillcolor="#7bbeee"] ;
131 -> 132 ;
133 [label="gini = 0.0\nsamples = 6\nvalue = [0, 6]\nclass = 0", fillcolor="#399de5"] ;
132 -> 133 ;
134 [label="age <= -0.081\ngini = 0.459\nsamples = 14\nvalue = [5, 9]\nclass = 0", fillcolor="#a7d3f3"] ;
132 -> 134 ;
135 [label="age <= -0.836\ngini = 0.219\nsamples = 8\nvalue = [1, 7]\nclass = 0", fillcolor="#55abe9"] ;
134 -> 135 ;
136 [label="gini = 0.0\nsamples = 1\nvalue = [1, 0]\nclass = 1", fillcolor="#e58139"] ;
135 -> 136 ;
137 [label="gini = 0.0\nsamples = 7\nvalue = [0, 7]\nclass = 0", fillcolor="#399de5"] ;
135 -> 137 ;
138 [label="interests_score <= -0.853\ngini = 0.444\nsamples = 6\nvalue = [4, 2]\nclass = 1", fillcolor="#f2c09c"] ;
134 -> 138 ;
139 [label="gini = 0.0\nsamples = 3\nvalue = [3, 0]\nclass = 1", fillcolor="#e58139"] ;
138 -> 139 ;
140 [label="age <= 0.07\ngini = 0.444\nsamples = 3\nvalue = [1, 2]\nclass = 0", fillcolor="#9ccef2"] ;
138 -> 140 ;
141 [label="gini = 0.0\nsamples = 1\nvalue = [1, 0]\nclass = 1", fillcolor="#e58139"] ;
140 -> 141 ;
142 [label="gini = 0.0\nsamples = 2\nvalue = [0, 2]\nclass = 0", fillcolor="#399de5"] ;
140 -> 142 ;
143 [label="appearance_score <= -1.598\ngini = 0.105\nsamples = 18\nvalue = [1, 17]\nclass = 0", fillcolor="#45a3e7"] ;
131 -> 143 ;
144 [label="gini = 0.0\nsamples = 1\nvalue = [1, 0]\nclass = 1", fillcolor="#e58139"] ;
143 -> 144 ;
145 [label="gini = 0.0\nsamples = 17\nvalue = [0, 17]\nclass = 0", fillcolor="#399de5"] ;
143 -> 145 ;
146 [label="gini = 0.0\nsamples = 2\nvalue = [2, 0]\nclass = 1", fillcolor="#e58139"] ;
130 -> 146 ;
147 [label="appearance_score <= -1.298\ngini = 0.5\nsamples = 12\nvalue = [6, 6]\nclass = 1", fillcolor="#ffffff"] ;
129 -> 147 ;
148 [label="age <= 0.297\ngini = 0.375\nsamples = 8\nvalue = [6, 2]\nclass = 1", fillcolor="#eeab7b"] ;
147 -> 148 ;
149 [label="gini = 0.0\nsamples = 5\nvalue = [5, 0]\nclass = 1", fillcolor="#e58139"] ;
148 -> 149 ;
150 [label="age <= 0.75\ngini = 0.444\nsamples = 3\nvalue = [1, 2]\nclass = 0", fillcolor="#9ccef2"] ;
148 -> 150 ;
151 [label="gini = 0.0\nsamples = 2\nvalue = [0, 2]\nclass = 0", fillcolor="#399de5"] ;
150 -> 151 ;
152 [label="gini = 0.0\nsamples = 1\nvalue = [1, 0]\nclass = 1", fillcolor="#e58139"] ;
150 -> 152 ;
153 [label="gini = 0.0\nsamples = 4\nvalue = [0, 4]\nclass = 0", fillcolor="#399de5"] ;
147 -> 153 ;
154 [label="gini = 0.0\nsamples = 2\nvalue = [2, 0]\nclass = 1", fillcolor="#e58139"] ;
128 -> 154 ;
155 [label="gini = 0.0\nsamples = 5\nvalue = [5, 0]\nclass = 1", fillcolor="#e58139"] ;
121 -> 155 ;
156 [label="confidence_score <= -0.371\ngini = 0.435\nsamples = 25\nvalue = [17, 8]\nclass = 1", fillcolor="#f1bc96"] ;
120 -> 156 ;
157 [label="interests_score <= -0.501\ngini = 0.165\nsamples = 11\nvalue = [10, 1]\nclass = 1", fillcolor="#e88e4d"] ;
156 -> 157 ;
158 [label="appearance_score <= -1.529\ngini = 0.5\nsamples = 2\nvalue = [1, 1]\nclass = 1", fillcolor="#ffffff"] ;
157 -> 158 ;
159 [label="gini = 0.0\nsamples = 1\nvalue = [1, 0]\nclass = 1", fillcolor="#e58139"] ;
158 -> 159 ;
160 [label="gini = 0.0\nsamples = 1\nvalue = [0, 1]\nclass = 0", fillcolor="#399de5"] ;
158 -> 160 ;
161 [label="gini = 0.0\nsamples = 9\nvalue = [9, 0]\nclass = 1", fillcolor="#e58139"] ;
157 -> 161 ;
162 [label="interests_score <= -0.457\ngini = 0.5\nsamples = 14\nvalue = [7, 7]\nclass = 1", fillcolor="#ffffff"] ;
156 -> 162 ;
163 [label="gini = 0.0\nsamples = 4\nvalue = [4, 0]\nclass = 1", fillcolor="#e58139"] ;
162 -> 163 ;
164 [label="age <= 1.203\ngini = 0.42\nsamples = 10\nvalue = [3, 7]\nclass = 0", fillcolor="#8ec7f0"] ;
162 -> 164 ;
165 [label="gender <= 0.5\ngini = 0.219\nsamples = 8\nvalue = [1, 7]\nclass = 0", fillcolor="#55abe9"] ;
164 -> 165 ;
166 [label="confidence_score <= 0.54\ngini = 0.5\nsamples = 2\nvalue = [1, 1]\nclass = 1", fillcolor="#ffffff"] ;
165 -> 166 ;
167 [label="gini = 0.0\nsamples = 1\nvalue = [1, 0]\nclass = 1", fillcolor="#e58139"] ;
166 -> 167 ;
168 [label="gini = 0.0\nsamples = 1\nvalue = [0, 1]\nclass = 0", fillcolor="#399de5"] ;
166 -> 168 ;
169 [label="gini = 0.0\nsamples = 6\nvalue = [0, 6]\nclass = 0", fillcolor="#399de5"] ;
165 -> 169 ;
170 [label="gini = 0.0\nsamples = 2\nvalue = [2, 0]\nclass = 1", fillcolor="#e58139"] ;
164 -> 170 ;
171 [label="interests_score <= -0.427\ngini = 0.384\nsamples = 27\nvalue = [7, 20]\nclass = 0", fillcolor="#7ebfee"] ;
119 -> 171 ;
172 [label="job_type <= 0.5\ngini = 0.298\nsamples = 22\nvalue = [4, 18]\nclass = 0", fillcolor="#65b3eb"] ;
171 -> 172 ;
173 [label="confidence_score <= 0.852\ngini = 0.48\nsamples = 10\nvalue = [4, 6]\nclass = 0", fillcolor="#bddef6"] ;
172 -> 173 ;
174 [label="gini = 0.0\nsamples = 2\nvalue = [2, 0]\nclass = 1", fillcolor="#e58139"] ;
173 -> 174 ;
175 [label="confidence_score <= 1.167\ngini = 0.375\nsamples = 8\nvalue = [2, 6]\nclass = 0", fillcolor="#7bbeee"] ;
173 -> 175 ;
176 [label="interests_score <= -1.433\ngini = 0.245\nsamples = 7\nvalue = [1, 6]\nclass = 0", fillcolor="#5aade9"] ;
175 -> 176 ;
177 [label="educational_status <= 1.0\ngini = 0.5\nsamples = 2\nvalue = [1, 1]\nclass = 1", fillcolor="#ffffff"] ;
176 -> 177 ;
178 [label="gini = 0.0\nsamples = 1\nvalue = [0, 1]\nclass = 0", fillcolor="#399de5"] ;
177 -> 178 ;
179 [label="gini = 0.0\nsamples = 1\nvalue = [1, 0]\nclass = 1", fillcolor="#e58139"] ;
177 -> 179 ;
180 [label="gini = 0.0\nsamples = 5\nvalue = [0, 5]\nclass = 0", fillcolor="#399de5"] ;
176 -> 180 ;
181 [label="gini = 0.0\nsamples = 1\nvalue = [1, 0]\nclass = 1", fillcolor="#e58139"] ;
175 -> 181 ;
182 [label="gini = 0.0\nsamples = 12\nvalue = [0, 12]\nclass = 0", fillcolor="#399de5"] ;
172 -> 182 ;
183 [label="age <= 0.448\ngini = 0.48\nsamples = 5\nvalue = [3, 2]\nclass = 1", fillcolor="#f6d5bd"] ;
171 -> 183 ;
184 [label="gini = 0.0\nsamples = 3\nvalue = [3, 0]\nclass = 1", fillcolor="#e58139"] ;
183 -> 184 ;
185 [label="gini = 0.0\nsamples = 2\nvalue = [0, 2]\nclass = 0", fillcolor="#399de5"] ;
183 -> 185 ;
186 [label="gini = 0.0\nsamples = 6\nvalue = [0, 6]\nclass = 0", fillcolor="#399de5"] ;
118 -> 186 ;
187 [label="educational_status <= 1.5\ngini = 0.278\nsamples = 12\nvalue = [10, 2]\nclass = 1", fillcolor="#ea9a61"] ;
117 -> 187 ;
188 [label="gini = 0.0\nsamples = 6\nvalue = [6, 0]\nclass = 1", fillcolor="#e58139"] ;
187 -> 188 ;
189 [label="gender <= 0.5\ngini = 0.444\nsamples = 6\nvalue = [4, 2]\nclass = 1", fillcolor="#f2c09c"] ;
187 -> 189 ;
190 [label="appearance_score <= -1.344\ngini = 0.444\nsamples = 3\nvalue = [1, 2]\nclass = 0", fillcolor="#9ccef2"] ;
189 -> 190 ;
191 [label="gini = 0.0\nsamples = 2\nvalue = [0, 2]\nclass = 0", fillcolor="#399de5"] ;
190 -> 191 ;
192 [label="gini = 0.0\nsamples = 1\nvalue = [1, 0]\nclass = 1", fillcolor="#e58139"] ;
190 -> 192 ;
193 [label="gini = 0.0\nsamples = 3\nvalue = [3, 0]\nclass = 1", fillcolor="#e58139"] ;
189 -> 193 ;
194 [label="interests_score <= -1.404\ngini = 0.431\nsamples = 35\nvalue = [24, 11]\nclass = 1", fillcolor="#f1bb94"] ;
116 -> 194 ;
195 [label="gini = 0.0\nsamples = 2\nvalue = [0, 2]\nclass = 0", fillcolor="#399de5"] ;
194 -> 195 ;
196 [label="interests_score <= 0.055\ngini = 0.397\nsamples = 33\nvalue = [24, 9]\nclass = 1", fillcolor="#efb083"] ;
194 -> 196 ;
197 [label="appearance_score <= -1.401\ngini = 0.375\nsamples = 32\nvalue = [24, 8]\nclass = 1", fillcolor="#eeab7b"] ;
196 -> 197 ;
198 [label="confidence_score <= 0.847\ngini = 0.255\nsamples = 20\nvalue = [17, 3]\nclass = 1", fillcolor="#ea975c"] ;
197 -> 198 ;
199 [label="income <= -0.963\ngini = 0.105\nsamples = 18\nvalue = [17, 1]\nclass = 1", fillcolor="#e78845"] ;
198 -> 199 ;
200 [label="educational_status <= 0.5\ngini = 0.444\nsamples = 3\nvalue = [2, 1]\nclass = 1", fillcolor="#f2c09c"] ;
199 -> 200 ;
201 [label="gini = 0.0\nsamples = 2\nvalue = [2, 0]\nclass = 1", fillcolor="#e58139"] ;
200 -> 201 ;
202 [label="gini = 0.0\nsamples = 1\nvalue = [0, 1]\nclass = 0", fillcolor="#399de5"] ;
200 -> 202 ;
203 [label="gini = 0.0\nsamples = 15\nvalue = [15, 0]\nclass = 1", fillcolor="#e58139"] ;
199 -> 203 ;
204 [label="gini = 0.0\nsamples = 2\nvalue = [0, 2]\nclass = 0", fillcolor="#399de5"] ;
198 -> 204 ;
205 [label="job_type <= 0.5\ngini = 0.486\nsamples = 12\nvalue = [7, 5]\nclass = 1", fillcolor="#f8dbc6"] ;
197 -> 205 ;
206 [label="interests_score <= -0.428\ngini = 0.42\nsamples = 10\nvalue = [7, 3]\nclass = 1", fillcolor="#f0b78e"] ;
205 -> 206 ;
207 [label="gini = 0.0\nsamples = 6\nvalue = [6, 0]\nclass = 1", fillcolor="#e58139"] ;
206 -> 207 ;
208 [label="income <= -0.959\ngini = 0.375\nsamples = 4\nvalue = [1, 3]\nclass = 0", fillcolor="#7bbeee"] ;
206 -> 208 ;
209 [label="gini = 0.0\nsamples = 1\nvalue = [1, 0]\nclass = 1", fillcolor="#e58139"] ;
208 -> 209 ;
210 [label="gini = 0.0\nsamples = 3\nvalue = [0, 3]\nclass = 0", fillcolor="#399de5"] ;
208 -> 210 ;
211 [label="gini = 0.0\nsamples = 2\nvalue = [0, 2]\nclass = 0", fillcolor="#399de5"] ;
205 -> 211 ;
212 [label="gini = 0.0\nsamples = 1\nvalue = [0, 1]\nclass = 0", fillcolor="#399de5"] ;
196 -> 212 ;
213 [label="income <= -1.235\ngini = 0.458\nsamples = 62\nvalue = [22, 40]\nclass = 0", fillcolor="#a6d3f3"] ;
115 -> 213 ;
214 [label="income <= -1.265\ngini = 0.498\nsamples = 30\nvalue = [16, 14]\nclass = 1", fillcolor="#fcefe6"] ;
213 -> 214 ;
215 [label="interests_score <= 0.356\ngini = 0.497\nsamples = 26\nvalue = [12, 14]\nclass = 0", fillcolor="#e3f1fb"] ;
214 -> 215 ;
216 [label="gini = 0.0\nsamples = 6\nvalue = [0, 6]\nclass = 0", fillcolor="#399de5"] ;
215 -> 216 ;
217 [label="age <= -0.458\ngini = 0.48\nsamples = 20\nvalue = [12, 8]\nclass = 1", fillcolor="#f6d5bd"] ;
215 -> 217 ;
218 [label="appearance_score <= -1.224\ngini = 0.32\nsamples = 5\nvalue = [1, 4]\nclass = 0", fillcolor="#6ab6ec"] ;
217 -> 218 ;
219 [label="gini = 0.0\nsamples = 4\nvalue = [0, 4]\nclass = 0", fillcolor="#399de5"] ;
218 -> 219 ;
220 [label="gini = 0.0\nsamples = 1\nvalue = [1, 0]\nclass = 1", fillcolor="#e58139"] ;
218 -> 220 ;
221 [label="appearance_score <= -1.255\ngini = 0.391\nsamples = 15\nvalue = [11, 4]\nclass = 1", fillcolor="#eeaf81"] ;
217 -> 221 ;
222 [label="confidence_score <= -1.281\ngini = 0.337\nsamples = 14\nvalue = [11, 3]\nclass = 1", fillcolor="#eca36f"] ;
221 -> 222 ;
223 [label="gini = 0.0\nsamples = 1\nvalue = [0, 1]\nclass = 0", fillcolor="#399de5"] ;
222 -> 223 ;
224 [label="interests_score <= 0.685\ngini = 0.26\nsamples = 13\nvalue = [11, 2]\nclass = 1", fillcolor="#ea985d"] ;
222 -> 224 ;
225 [label="gini = 0.0\nsamples = 7\nvalue = [7, 0]\nclass = 1", fillcolor="#e58139"] ;
224 -> 225 ;
226 [label="age <= 0.523\ngini = 0.444\nsamples = 6\nvalue = [4, 2]\nclass = 1", fillcolor="#f2c09c"] ;
224 -> 226 ;
227 [label="gender <= 0.5\ngini = 0.444\nsamples = 3\nvalue = [1, 2]\nclass = 0", fillcolor="#9ccef2"] ;
226 -> 227 ;
228 [label="gini = 0.0\nsamples = 2\nvalue = [0, 2]\nclass = 0", fillcolor="#399de5"] ;
227 -> 228 ;
229 [label="gini = 0.0\nsamples = 1\nvalue = [1, 0]\nclass = 1", fillcolor="#e58139"] ;
227 -> 229 ;
230 [label="gini = 0.0\nsamples = 3\nvalue = [3, 0]\nclass = 1", fillcolor="#e58139"] ;
226 -> 230 ;
231 [label="gini = 0.0\nsamples = 1\nvalue = [0, 1]\nclass = 0", fillcolor="#399de5"] ;
221 -> 231 ;
232 [label="gini = 0.0\nsamples = 4\nvalue = [4, 0]\nclass = 1", fillcolor="#e58139"] ;
214 -> 232 ;
233 [label="educational_status <= 1.5\ngini = 0.305\nsamples = 32\nvalue = [6, 26]\nclass = 0", fillcolor="#67b4eb"] ;
213 -> 233 ;
234 [label="gini = 0.0\nsamples = 14\nvalue = [0, 14]\nclass = 0", fillcolor="#399de5"] ;
233 -> 234 ;
235 [label="interests_score <= 0.692\ngini = 0.444\nsamples = 18\nvalue = [6, 12]\nclass = 0", fillcolor="#9ccef2"] ;
233 -> 235 ;
236 [label="gender <= 0.5\ngini = 0.49\nsamples = 14\nvalue = [6, 8]\nclass = 0", fillcolor="#cee6f8"] ;
235 -> 236 ;
237 [label="gini = 0.0\nsamples = 4\nvalue = [4, 0]\nclass = 1", fillcolor="#e58139"] ;
236 -> 237 ;
238 [label="interests_score <= 0.565\ngini = 0.32\nsamples = 10\nvalue = [2, 8]\nclass = 0", fillcolor="#6ab6ec"] ;
236 -> 238 ;
239 [label="gini = 0.0\nsamples = 7\nvalue = [0, 7]\nclass = 0", fillcolor="#399de5"] ;
238 -> 239 ;
240 [label="appearance_score <= -1.316\ngini = 0.444\nsamples = 3\nvalue = [2, 1]\nclass = 1", fillcolor="#f2c09c"] ;
238 -> 240 ;
241 [label="gini = 0.0\nsamples = 2\nvalue = [2, 0]\nclass = 1", fillcolor="#e58139"] ;
240 -> 241 ;
242 [label="gini = 0.0\nsamples = 1\nvalue = [0, 1]\nclass = 0", fillcolor="#399de5"] ;
240 -> 242 ;
243 [label="gini = 0.0\nsamples = 4\nvalue = [0, 4]\nclass = 0", fillcolor="#399de5"] ;
235 -> 243 ;
244 [label="interests_score <= 1.121\ngini = 0.476\nsamples = 82\nvalue = [50, 32]\nclass = 1", fillcolor="#f6d2b8"] ;
114 -> 244 ;
245 [label="income <= -1.576\ngini = 0.26\nsamples = 26\nvalue = [22, 4]\nclass = 1", fillcolor="#ea985d"] ;
244 -> 245 ;
246 [label="gini = 0.0\nsamples = 1\nvalue = [0, 1]\nclass = 0", fillcolor="#399de5"] ;
245 -> 246 ;
247 [label="confidence_score <= -0.055\ngini = 0.211\nsamples = 25\nvalue = [22, 3]\nclass = 1", fillcolor="#e99254"] ;
245 -> 247 ;
248 [label="gini = 0.0\nsamples = 14\nvalue = [14, 0]\nclass = 1", fillcolor="#e58139"] ;
247 -> 248 ;
249 [label="income <= -1.238\ngini = 0.397\nsamples = 11\nvalue = [8, 3]\nclass = 1", fillcolor="#efb083"] ;
247 -> 249 ;
250 [label="gini = 0.0\nsamples = 6\nvalue = [6, 0]\nclass = 1", fillcolor="#e58139"] ;
249 -> 250 ;
251 [label="interests_score <= 1.085\ngini = 0.48\nsamples = 5\nvalue = [2, 3]\nclass = 0", fillcolor="#bddef6"] ;
249 -> 251 ;
252 [label="gini = 0.0\nsamples = 3\nvalue = [0, 3]\nclass = 0", fillcolor="#399de5"] ;
251 -> 252 ;
253 [label="gini = 0.0\nsamples = 2\nvalue = [2, 0]\nclass = 1", fillcolor="#e58139"] ;
251 -> 253 ;
254 [label="appearance_score <= -1.308\ngini = 0.5\nsamples = 56\nvalue = [28, 28]\nclass = 1", fillcolor="#ffffff"] ;
244 -> 254 ;
255 [label="confidence_score <= -0.883\ngini = 0.488\nsamples = 45\nvalue = [26, 19]\nclass = 1", fillcolor="#f8ddca"] ;
254 -> 255 ;
256 [label="gini = 0.0\nsamples = 8\nvalue = [8, 0]\nclass = 1", fillcolor="#e58139"] ;
255 -> 256 ;
257 [label="age <= 0.523\ngini = 0.5\nsamples = 37\nvalue = [18, 19]\nclass = 0", fillcolor="#f5fafe"] ;
255 -> 257 ;
258 [label="interests_score <= 1.267\ngini = 0.408\nsamples = 21\nvalue = [6, 15]\nclass = 0", fillcolor="#88c4ef"] ;
257 -> 258 ;
259 [label="gini = 0.0\nsamples = 7\nvalue = [0, 7]\nclass = 0", fillcolor="#399de5"] ;
258 -> 259 ;
260 [label="confidence_score <= -0.1\ngini = 0.49\nsamples = 14\nvalue = [6, 8]\nclass = 0", fillcolor="#cee6f8"] ;
258 -> 260 ;
261 [label="appearance_score <= -1.594\ngini = 0.408\nsamples = 7\nvalue = [5, 2]\nclass = 1", fillcolor="#efb388"] ;
260 -> 261 ;
262 [label="gini = 0.0\nsamples = 2\nvalue = [0, 2]\nclass = 0", fillcolor="#399de5"] ;
261 -> 262 ;
263 [label="gini = 0.0\nsamples = 5\nvalue = [5, 0]\nclass = 1", fillcolor="#e58139"] ;
261 -> 263 ;
264 [label="appearance_score <= -1.328\ngini = 0.245\nsamples = 7\nvalue = [1, 6]\nclass = 0", fillcolor="#5aade9"] ;
260 -> 264 ;
265 [label="gini = 0.0\nsamples = 6\nvalue = [0, 6]\nclass = 0", fillcolor="#399de5"] ;
264 -> 265 ;
266 [label="gini = 0.0\nsamples = 1\nvalue = [1, 0]\nclass = 1", fillcolor="#e58139"] ;
264 -> 266 ;
267 [label="confidence_score <= -0.225\ngini = 0.375\nsamples = 16\nvalue = [12, 4]\nclass = 1", fillcolor="#eeab7b"] ;
257 -> 267 ;
268 [label="gini = 0.0\nsamples = 2\nvalue = [0, 2]\nclass = 0", fillcolor="#399de5"] ;
267 -> 268 ;
269 [label="income <= -1.508\ngini = 0.245\nsamples = 14\nvalue = [12, 2]\nclass = 1", fillcolor="#e9965a"] ;
267 -> 269 ;
270 [label="gini = 0.0\nsamples = 1\nvalue = [0, 1]\nclass = 0", fillcolor="#399de5"] ;
269 -> 270 ;
271 [label="interests_score <= 1.218\ngini = 0.142\nsamples = 13\nvalue = [12, 1]\nclass = 1", fillcolor="#e78c49"] ;
269 -> 271 ;
272 [label="interests_score <= 1.217\ngini = 0.444\nsamples = 3\nvalue = [2, 1]\nclass = 1", fillcolor="#f2c09c"] ;
271 -> 272 ;
273 [label="gini = 0.0\nsamples = 2\nvalue = [2, 0]\nclass = 1", fillcolor="#e58139"] ;
272 -> 273 ;
274 [label="gini = 0.0\nsamples = 1\nvalue = [0, 1]\nclass = 0", fillcolor="#399de5"] ;
272 -> 274 ;
275 [label="gini = 0.0\nsamples = 10\nvalue = [10, 0]\nclass = 1", fillcolor="#e58139"] ;
271 -> 275 ;
276 [label="appearance_score <= -1.23\ngini = 0.298\nsamples = 11\nvalue = [2, 9]\nclass = 0", fillcolor="#65b3eb"] ;
254 -> 276 ;
277 [label="gini = 0.0\nsamples = 8\nvalue = [0, 8]\nclass = 0", fillcolor="#399de5"] ;
276 -> 277 ;
278 [label="appearance_score <= -1.216\ngini = 0.444\nsamples = 3\nvalue = [2, 1]\nclass = 1", fillcolor="#f2c09c"] ;
276 -> 278 ;
279 [label="gini = 0.0\nsamples = 2\nvalue = [2, 0]\nclass = 1", fillcolor="#e58139"] ;
278 -> 279 ;
280 [label="gini = 0.0\nsamples = 1\nvalue = [0, 1]\nclass = 0", fillcolor="#399de5"] ;
278 -> 280 ;
281 [label="income <= -0.904\ngini = 0.478\nsamples = 71\nvalue = [43, 28]\nclass = 1", fillcolor="#f6d3ba"] ;
25 -> 281 ;
282 [label="appearance_score <= -1.225\ngini = 0.441\nsamples = 61\nvalue = [41, 20]\nclass = 1", fillcolor="#f2be9a"] ;
281 -> 282 ;
283 [label="confidence_score <= 1.42\ngini = 0.414\nsamples = 58\nvalue = [41, 17]\nclass = 1", fillcolor="#f0b58b"] ;
282 -> 283 ;
284 [label="confidence_score <= 1.316\ngini = 0.251\nsamples = 34\nvalue = [29, 5]\nclass = 1", fillcolor="#e9975b"] ;
283 -> 284 ;
285 [label="confidence_score <= 1.256\ngini = 0.415\nsamples = 17\nvalue = [12, 5]\nclass = 1", fillcolor="#f0b58b"] ;
284 -> 285 ;
286 [label="income <= -1.262\ngini = 0.198\nsamples = 9\nvalue = [8, 1]\nclass = 1", fillcolor="#e89152"] ;
285 -> 286 ;
287 [label="gini = 0.0\nsamples = 6\nvalue = [6, 0]\nclass = 1", fillcolor="#e58139"] ;
286 -> 287 ;
288 [label="income <= -1.17\ngini = 0.444\nsamples = 3\nvalue = [2, 1]\nclass = 1", fillcolor="#f2c09c"] ;
286 -> 288 ;
289 [label="gini = 0.0\nsamples = 1\nvalue = [0, 1]\nclass = 0", fillcolor="#399de5"] ;
288 -> 289 ;
290 [label="gini = 0.0\nsamples = 2\nvalue = [2, 0]\nclass = 1", fillcolor="#e58139"] ;
288 -> 290 ;
291 [label="appearance_score <= -1.491\ngini = 0.5\nsamples = 8\nvalue = [4, 4]\nclass = 1", fillcolor="#ffffff"] ;
285 -> 291 ;
292 [label="gini = 0.0\nsamples = 2\nvalue = [0, 2]\nclass = 0", fillcolor="#399de5"] ;
291 -> 292 ;
293 [label="appearance_score <= -1.295\ngini = 0.444\nsamples = 6\nvalue = [4, 2]\nclass = 1", fillcolor="#f2c09c"] ;
291 -> 293 ;
294 [label="gini = 0.0\nsamples = 3\nvalue = [3, 0]\nclass = 1", fillcolor="#e58139"] ;
293 -> 294 ;
295 [label="gender <= 0.5\ngini = 0.444\nsamples = 3\nvalue = [1, 2]\nclass = 0", fillcolor="#9ccef2"] ;
293 -> 295 ;
296 [label="gini = 0.0\nsamples = 1\nvalue = [1, 0]\nclass = 1", fillcolor="#e58139"] ;
295 -> 296 ;
297 [label="gini = 0.0\nsamples = 2\nvalue = [0, 2]\nclass = 0", fillcolor="#399de5"] ;
295 -> 297 ;
298 [label="gini = 0.0\nsamples = 17\nvalue = [17, 0]\nclass = 1", fillcolor="#e58139"] ;
284 -> 298 ;
299 [label="confidence_score <= 1.507\ngini = 0.5\nsamples = 24\nvalue = [12, 12]\nclass = 1", fillcolor="#ffffff"] ;
283 -> 299 ;
300 [label="appearance_score <= -1.648\ngini = 0.48\nsamples = 20\nvalue = [8, 12]\nclass = 0", fillcolor="#bddef6"] ;
299 -> 300 ;
301 [label="gini = 0.0\nsamples = 2\nvalue = [2, 0]\nclass = 1", fillcolor="#e58139"] ;
300 -> 301 ;
302 [label="appearance_score <= -1.508\ngini = 0.444\nsamples = 18\nvalue = [6, 12]\nclass = 0", fillcolor="#9ccef2"] ;
300 -> 302 ;
303 [label="gini = 0.0\nsamples = 5\nvalue = [0, 5]\nclass = 0", fillcolor="#399de5"] ;
302 -> 303 ;
304 [label="confidence_score <= 1.493\ngini = 0.497\nsamples = 13\nvalue = [6, 7]\nclass = 0", fillcolor="#e3f1fb"] ;
302 -> 304 ;
305 [label="appearance_score <= -1.295\ngini = 0.444\nsamples = 9\nvalue = [6, 3]\nclass = 1", fillcolor="#f2c09c"] ;
304 -> 305 ;
306 [label="gini = 0.0\nsamples = 5\nvalue = [5, 0]\nclass = 1", fillcolor="#e58139"] ;
305 -> 306 ;
307 [label="interests_score <= -1.199\ngini = 0.375\nsamples = 4\nvalue = [1, 3]\nclass = 0", fillcolor="#7bbeee"] ;
305 -> 307 ;
308 [label="gini = 0.0\nsamples = 1\nvalue = [1, 0]\nclass = 1", fillcolor="#e58139"] ;
307 -> 308 ;
309 [label="gini = 0.0\nsamples = 3\nvalue = [0, 3]\nclass = 0", fillcolor="#399de5"] ;
307 -> 309 ;
310 [label="gini = 0.0\nsamples = 4\nvalue = [0, 4]\nclass = 0", fillcolor="#399de5"] ;
304 -> 310 ;
311 [label="gini = 0.0\nsamples = 4\nvalue = [4, 0]\nclass = 1", fillcolor="#e58139"] ;
299 -> 311 ;
312 [label="gini = 0.0\nsamples = 3\nvalue = [0, 3]\nclass = 0", fillcolor="#399de5"] ;
282 -> 312 ;
313 [label="interests_score <= 1.52\ngini = 0.32\nsamples = 10\nvalue = [2, 8]\nclass = 0", fillcolor="#6ab6ec"] ;
281 -> 313 ;
314 [label="appearance_score <= -1.692\ngini = 0.198\nsamples = 9\nvalue = [1, 8]\nclass = 0", fillcolor="#52a9e8"] ;
313 -> 314 ;
315 [label="interests_score <= -0.92\ngini = 0.5\nsamples = 2\nvalue = [1, 1]\nclass = 1", fillcolor="#ffffff"] ;
314 -> 315 ;
316 [label="gini = 0.0\nsamples = 1\nvalue = [1, 0]\nclass = 1", fillcolor="#e58139"] ;
315 -> 316 ;
317 [label="gini = 0.0\nsamples = 1\nvalue = [0, 1]\nclass = 0", fillcolor="#399de5"] ;
315 -> 317 ;
318 [label="gini = 0.0\nsamples = 7\nvalue = [0, 7]\nclass = 0", fillcolor="#399de5"] ;
314 -> 318 ;
319 [label="gini = 0.0\nsamples = 1\nvalue = [1, 0]\nclass = 1", fillcolor="#e58139"] ;
313 -> 319 ;
320 [label="interests_score <= -1.133\ngini = 0.496\nsamples = 645\nvalue = [351, 294]\nclass = 1", fillcolor="#fbebdf"] ;
24 -> 320 ;
321 [label="confidence_score <= -1.505\ngini = 0.494\nsamples = 117\nvalue = [52, 65]\nclass = 0", fillcolor="#d7ebfa"] ;
320 -> 321 ;
322 [label="gini = 0.0\nsamples = 8\nvalue = [8, 0]\nclass = 1", fillcolor="#e58139"] ;
321 -> 322 ;
323 [label="income <= -1.687\ngini = 0.481\nsamples = 109\nvalue = [44, 65]\nclass = 0", fillcolor="#bfdff7"] ;
321 -> 323 ;
324 [label="gini = 0.0\nsamples = 6\nvalue = [6, 0]\nclass = 1", fillcolor="#e58139"] ;
323 -> 324 ;
325 [label="age <= -1.289\ngini = 0.466\nsamples = 103\nvalue = [38, 65]\nclass = 0", fillcolor="#add6f4"] ;
323 -> 325 ;
326 [label="interests_score <= -1.396\ngini = 0.397\nsamples = 11\nvalue = [8, 3]\nclass = 1", fillcolor="#efb083"] ;
325 -> 326 ;
327 [label="interests_score <= -1.481\ngini = 0.5\nsamples = 6\nvalue = [3, 3]\nclass = 1", fillcolor="#ffffff"] ;
326 -> 327 ;
328 [label="appearance_score <= -0.83\ngini = 0.375\nsamples = 4\nvalue = [3, 1]\nclass = 1", fillcolor="#eeab7b"] ;
327 -> 328 ;
329 [label="gini = 0.0\nsamples = 1\nvalue = [0, 1]\nclass = 0", fillcolor="#399de5"] ;
328 -> 329 ;
330 [label="gini = 0.0\nsamples = 3\nvalue = [3, 0]\nclass = 1", fillcolor="#e58139"] ;
328 -> 330 ;
331 [label="gini = 0.0\nsamples = 2\nvalue = [0, 2]\nclass = 0", fillcolor="#399de5"] ;
327 -> 331 ;
332 [label="gini = 0.0\nsamples = 5\nvalue = [5, 0]\nclass = 1", fillcolor="#e58139"] ;
326 -> 332 ;
333 [label="appearance_score <= -0.946\ngini = 0.44\nsamples = 92\nvalue = [30, 62]\nclass = 0", fillcolor="#99ccf2"] ;
325 -> 333 ;
334 [label="income <= -1.599\ngini = 0.491\nsamples = 44\nvalue = [19, 25]\nclass = 0", fillcolor="#cfe7f9"] ;
333 -> 334 ;
335 [label="appearance_score <= -1.108\ngini = 0.219\nsamples = 8\nvalue = [1, 7]\nclass = 0", fillcolor="#55abe9"] ;
334 -> 335 ;
336 [label="gini = 0.0\nsamples = 1\nvalue = [1, 0]\nclass = 1", fillcolor="#e58139"] ;
335 -> 336 ;
337 [label="gini = 0.0\nsamples = 7\nvalue = [0, 7]\nclass = 0", fillcolor="#399de5"] ;
335 -> 337 ;
338 [label="appearance_score <= -1.108\ngini = 0.5\nsamples = 36\nvalue = [18, 18]\nclass = 1", fillcolor="#ffffff"] ;
334 -> 338 ;
339 [label="appearance_score <= -1.185\ngini = 0.408\nsamples = 14\nvalue = [4, 10]\nclass = 0", fillcolor="#88c4ef"] ;
338 -> 339 ;
340 [label="appearance_score <= -1.203\ngini = 0.375\nsamples = 4\nvalue = [3, 1]\nclass = 1", fillcolor="#eeab7b"] ;
339 -> 340 ;
341 [label="gini = 0.0\nsamples = 1\nvalue = [0, 1]\nclass = 0", fillcolor="#399de5"] ;
340 -> 341 ;
342 [label="gini = 0.0\nsamples = 3\nvalue = [3, 0]\nclass = 1", fillcolor="#e58139"] ;
340 -> 342 ;
343 [label="age <= 1.429\ngini = 0.18\nsamples = 10\nvalue = [1, 9]\nclass = 0", fillcolor="#4fa8e8"] ;
339 -> 343 ;
344 [label="gini = 0.0\nsamples = 8\nvalue = [0, 8]\nclass = 0", fillcolor="#399de5"] ;
343 -> 344 ;
345 [label="interests_score <= -1.507\ngini = 0.5\nsamples = 2\nvalue = [1, 1]\nclass = 1", fillcolor="#ffffff"] ;
343 -> 345 ;
346 [label="gini = 0.0\nsamples = 1\nvalue = [0, 1]\nclass = 0", fillcolor="#399de5"] ;
345 -> 346 ;
347 [label="gini = 0.0\nsamples = 1\nvalue = [1, 0]\nclass = 1", fillcolor="#e58139"] ;
345 -> 347 ;
348 [label="interests_score <= -1.362\ngini = 0.463\nsamples = 22\nvalue = [14, 8]\nclass = 1", fillcolor="#f4c9aa"] ;
338 -> 348 ;
349 [label="appearance_score <= -1.06\ngini = 0.498\nsamples = 17\nvalue = [9, 8]\nclass = 1", fillcolor="#fcf1e9"] ;
348 -> 349 ;
350 [label="interests_score <= -1.574\ngini = 0.375\nsamples = 12\nvalue = [9, 3]\nclass = 1", fillcolor="#eeab7b"] ;
349 -> 350 ;
351 [label="age <= 0.221\ngini = 0.5\nsamples = 6\nvalue = [3, 3]\nclass = 1", fillcolor="#ffffff"] ;
350 -> 351 ;
352 [label="gini = 0.0\nsamples = 2\nvalue = [0, 2]\nclass = 0", fillcolor="#399de5"] ;
351 -> 352 ;
353 [label="appearance_score <= -1.081\ngini = 0.375\nsamples = 4\nvalue = [3, 1]\nclass = 1", fillcolor="#eeab7b"] ;
351 -> 353 ;
354 [label="gini = 0.0\nsamples = 3\nvalue = [3, 0]\nclass = 1", fillcolor="#e58139"] ;
353 -> 354 ;
355 [label="gini = 0.0\nsamples = 1\nvalue = [0, 1]\nclass = 0", fillcolor="#399de5"] ;
353 -> 355 ;
356 [label="gini = 0.0\nsamples = 6\nvalue = [6, 0]\nclass = 1", fillcolor="#e58139"] ;
350 -> 356 ;
357 [label="gini = 0.0\nsamples = 5\nvalue = [0, 5]\nclass = 0", fillcolor="#399de5"] ;
349 -> 357 ;
358 [label="gini = 0.0\nsamples = 5\nvalue = [5, 0]\nclass = 1", fillcolor="#e58139"] ;
348 -> 358 ;
359 [label="appearance_score <= -0.834\ngini = 0.353\nsamples = 48\nvalue = [11, 37]\nclass = 0", fillcolor="#74baed"] ;
333 -> 359 ;
360 [label="age <= -0.987\ngini = 0.1\nsamples = 19\nvalue = [1, 18]\nclass = 0", fillcolor="#44a2e6"] ;
359 -> 360 ;
361 [label="interests_score <= -1.27\ngini = 0.375\nsamples = 4\nvalue = [1, 3]\nclass = 0", fillcolor="#7bbeee"] ;
360 -> 361 ;
362 [label="gini = 0.0\nsamples = 3\nvalue = [0, 3]\nclass = 0", fillcolor="#399de5"] ;
361 -> 362 ;
363 [label="gini = 0.0\nsamples = 1\nvalue = [1, 0]\nclass = 1", fillcolor="#e58139"] ;
361 -> 363 ;
364 [label="gini = 0.0\nsamples = 15\nvalue = [0, 15]\nclass = 0", fillcolor="#399de5"] ;
360 -> 364 ;
365 [label="age <= 1.429\ngini = 0.452\nsamples = 29\nvalue = [10, 19]\nclass = 0", fillcolor="#a1d1f3"] ;
359 -> 365 ;
366 [label="confidence_score <= 1.003\ngini = 0.499\nsamples = 21\nvalue = [10, 11]\nclass = 0", fillcolor="#edf6fd"] ;
365 -> 366 ;
367 [label="age <= 0.674\ngini = 0.484\nsamples = 17\nvalue = [10, 7]\nclass = 1", fillcolor="#f7d9c4"] ;
366 -> 367 ;
368 [label="confidence_score <= -1.028\ngini = 0.486\nsamples = 12\nvalue = [5, 7]\nclass = 0", fillcolor="#c6e3f8"] ;
367 -> 368 ;
369 [label="gini = 0.0\nsamples = 3\nvalue = [0, 3]\nclass = 0", fillcolor="#399de5"] ;
368 -> 369 ;
370 [label="interests_score <= -1.519\ngini = 0.494\nsamples = 9\nvalue = [5, 4]\nclass = 1", fillcolor="#fae6d7"] ;
368 -> 370 ;
371 [label="gini = 0.0\nsamples = 3\nvalue = [3, 0]\nclass = 1", fillcolor="#e58139"] ;
370 -> 371 ;
372 [label="gender <= 0.5\ngini = 0.444\nsamples = 6\nvalue = [2, 4]\nclass = 0", fillcolor="#9ccef2"] ;
370 -> 372 ;
373 [label="appearance_score <= -0.708\ngini = 0.444\nsamples = 3\nvalue = [2, 1]\nclass = 1", fillcolor="#f2c09c"] ;
372 -> 373 ;
374 [label="gini = 0.0\nsamples = 2\nvalue = [2, 0]\nclass = 1", fillcolor="#e58139"] ;
373 -> 374 ;
375 [label="gini = 0.0\nsamples = 1\nvalue = [0, 1]\nclass = 0", fillcolor="#399de5"] ;
373 -> 375 ;
376 [label="gini = 0.0\nsamples = 3\nvalue = [0, 3]\nclass = 0", fillcolor="#399de5"] ;
372 -> 376 ;
377 [label="gini = 0.0\nsamples = 5\nvalue = [5, 0]\nclass = 1", fillcolor="#e58139"] ;
367 -> 377 ;
378 [label="gini = 0.0\nsamples = 4\nvalue = [0, 4]\nclass = 0", fillcolor="#399de5"] ;
366 -> 378 ;
379 [label="gini = 0.0\nsamples = 8\nvalue = [0, 8]\nclass = 0", fillcolor="#399de5"] ;
365 -> 379 ;
380 [label="interests_score <= -0.758\ngini = 0.491\nsamples = 528\nvalue = [299, 229]\nclass = 1", fillcolor="#f9e2d1"] ;
320 -> 380 ;
381 [label="confidence_score <= 1.412\ngini = 0.368\nsamples = 70\nvalue = [53, 17]\nclass = 1", fillcolor="#eda979"] ;
380 -> 381 ;
382 [label="confidence_score <= 0.203\ngini = 0.301\nsamples = 65\nvalue = [53, 12]\nclass = 1", fillcolor="#eb9e66"] ;
381 -> 382 ;
383 [label="age <= -0.081\ngini = 0.422\nsamples = 33\nvalue = [23, 10]\nclass = 1", fillcolor="#f0b88f"] ;
382 -> 383 ;
384 [label="appearance_score <= -0.856\ngini = 0.492\nsamples = 16\nvalue = [9, 7]\nclass = 1", fillcolor="#f9e3d3"] ;
383 -> 384 ;
385 [label="confidence_score <= -0.678\ngini = 0.444\nsamples = 9\nvalue = [3, 6]\nclass = 0", fillcolor="#9ccef2"] ;
384 -> 385 ;
386 [label="appearance_score <= -0.946\ngini = 0.48\nsamples = 5\nvalue = [3, 2]\nclass = 1", fillcolor="#f6d5bd"] ;
385 -> 386 ;
387 [label="gini = 0.0\nsamples = 3\nvalue = [3, 0]\nclass = 1", fillcolor="#e58139"] ;
386 -> 387 ;
388 [label="gini = 0.0\nsamples = 2\nvalue = [0, 2]\nclass = 0", fillcolor="#399de5"] ;
386 -> 388 ;
389 [label="gini = 0.0\nsamples = 4\nvalue = [0, 4]\nclass = 0", fillcolor="#399de5"] ;
385 -> 389 ;
390 [label="interests_score <= -1.079\ngini = 0.245\nsamples = 7\nvalue = [6, 1]\nclass = 1", fillcolor="#e9965a"] ;
384 -> 390 ;
391 [label="gini = 0.0\nsamples = 1\nvalue = [0, 1]\nclass = 0", fillcolor="#399de5"] ;
390 -> 391 ;
392 [label="gini = 0.0\nsamples = 6\nvalue = [6, 0]\nclass = 1", fillcolor="#e58139"] ;
390 -> 392 ;
393 [label="appearance_score <= -0.899\ngini = 0.291\nsamples = 17\nvalue = [14, 3]\nclass = 1", fillcolor="#eb9c63"] ;
383 -> 393 ;
394 [label="confidence_score <= -1.448\ngini = 0.142\nsamples = 13\nvalue = [12, 1]\nclass = 1", fillcolor="#e78c49"] ;
393 -> 394 ;
395 [label="confidence_score <= -1.581\ngini = 0.444\nsamples = 3\nvalue = [2, 1]\nclass = 1", fillcolor="#f2c09c"] ;
394 -> 395 ;
396 [label="gini = 0.0\nsamples = 2\nvalue = [2, 0]\nclass = 1", fillcolor="#e58139"] ;
395 -> 396 ;
397 [label="gini = 0.0\nsamples = 1\nvalue = [0, 1]\nclass = 0", fillcolor="#399de5"] ;
395 -> 397 ;
398 [label="gini = 0.0\nsamples = 10\nvalue = [10, 0]\nclass = 1", fillcolor="#e58139"] ;
394 -> 398 ;
399 [label="interests_score <= -0.994\ngini = 0.5\nsamples = 4\nvalue = [2, 2]\nclass = 1", fillcolor="#ffffff"] ;
393 -> 399 ;
400 [label="gini = 0.0\nsamples = 2\nvalue = [2, 0]\nclass = 1", fillcolor="#e58139"] ;
399 -> 400 ;
401 [label="gini = 0.0\nsamples = 2\nvalue = [0, 2]\nclass = 0", fillcolor="#399de5"] ;
399 -> 401 ;
402 [label="age <= -1.515\ngini = 0.117\nsamples = 32\nvalue = [30, 2]\nclass = 1", fillcolor="#e78946"] ;
382 -> 402 ;
403 [label="gini = 0.0\nsamples = 1\nvalue = [0, 1]\nclass = 0", fillcolor="#399de5"] ;
402 -> 403 ;
404 [label="interests_score <= -0.8\ngini = 0.062\nsamples = 31\nvalue = [30, 1]\nclass = 1", fillcolor="#e68540"] ;
402 -> 404 ;
405 [label="gini = 0.0\nsamples = 27\nvalue = [27, 0]\nclass = 1", fillcolor="#e58139"] ;
404 -> 405 ;
406 [label="confidence_score <= 1.208\ngini = 0.375\nsamples = 4\nvalue = [3, 1]\nclass = 1", fillcolor="#eeab7b"] ;
404 -> 406 ;
407 [label="gini = 0.0\nsamples = 3\nvalue = [3, 0]\nclass = 1", fillcolor="#e58139"] ;
406 -> 407 ;
408 [label="gini = 0.0\nsamples = 1\nvalue = [0, 1]\nclass = 0", fillcolor="#399de5"] ;
406 -> 408 ;
409 [label="gini = 0.0\nsamples = 5\nvalue = [0, 5]\nclass = 0", fillcolor="#399de5"] ;
381 -> 409 ;
410 [label="appearance_score <= -1.202\ngini = 0.497\nsamples = 458\nvalue = [246, 212]\nclass = 1", fillcolor="#fbeee4"] ;
380 -> 410 ;
411 [label="gini = 0.0\nsamples = 7\nvalue = [7, 0]\nclass = 1", fillcolor="#e58139"] ;
410 -> 411 ;
412 [label="confidence_score <= -0.704\ngini = 0.498\nsamples = 451\nvalue = [239, 212]\nclass = 1", fillcolor="#fcf1e9"] ;
410 -> 412 ;
413 [label="gender <= 0.5\ngini = 0.493\nsamples = 148\nvalue = [65, 83]\nclass = 0", fillcolor="#d4eaf9"] ;
412 -> 413 ;
414 [label="appearance_score <= -1.112\ngini = 0.438\nsamples = 68\nvalue = [22, 46]\nclass = 0", fillcolor="#98ccf1"] ;
413 -> 414 ;
415 [label="interests_score <= 0.784\ngini = 0.486\nsamples = 12\nvalue = [7, 5]\nclass = 1", fillcolor="#f8dbc6"] ;
414 -> 415 ;
416 [label="age <= 1.127\ngini = 0.219\nsamples = 8\nvalue = [7, 1]\nclass = 1", fillcolor="#e99355"] ;
415 -> 416 ;
417 [label="gini = 0.0\nsamples = 6\nvalue = [6, 0]\nclass = 1", fillcolor="#e58139"] ;
416 -> 417 ;
418 [label="educational_status <= 1.5\ngini = 0.5\nsamples = 2\nvalue = [1, 1]\nclass = 1", fillcolor="#ffffff"] ;
416 -> 418 ;
419 [label="gini = 0.0\nsamples = 1\nvalue = [0, 1]\nclass = 0", fillcolor="#399de5"] ;
418 -> 419 ;
420 [label="gini = 0.0\nsamples = 1\nvalue = [1, 0]\nclass = 1", fillcolor="#e58139"] ;
418 -> 420 ;
421 [label="gini = 0.0\nsamples = 4\nvalue = [0, 4]\nclass = 0", fillcolor="#399de5"] ;
415 -> 421 ;
422 [label="interests_score <= 1.656\ngini = 0.392\nsamples = 56\nvalue = [15, 41]\nclass = 0", fillcolor="#81c1ef"] ;
414 -> 422 ;
423 [label="income <= -1.572\ngini = 0.366\nsamples = 54\nvalue = [13, 41]\nclass = 0", fillcolor="#78bced"] ;
422 -> 423 ;
424 [label="interests_score <= 0.784\ngini = 0.494\nsamples = 9\nvalue = [5, 4]\nclass = 1", fillcolor="#fae6d7"] ;
423 -> 424 ;
425 [label="age <= -0.836\ngini = 0.444\nsamples = 6\nvalue = [2, 4]\nclass = 0", fillcolor="#9ccef2"] ;
424 -> 425 ;
426 [label="interests_score <= 0.77\ngini = 0.444\nsamples = 3\nvalue = [2, 1]\nclass = 1", fillcolor="#f2c09c"] ;
425 -> 426 ;
427 [label="gini = 0.0\nsamples = 2\nvalue = [2, 0]\nclass = 1", fillcolor="#e58139"] ;
426 -> 427 ;
428 [label="gini = 0.0\nsamples = 1\nvalue = [0, 1]\nclass = 0", fillcolor="#399de5"] ;
426 -> 428 ;
429 [label="gini = 0.0\nsamples = 3\nvalue = [0, 3]\nclass = 0", fillcolor="#399de5"] ;
425 -> 429 ;
430 [label="gini = 0.0\nsamples = 3\nvalue = [3, 0]\nclass = 1", fillcolor="#e58139"] ;
424 -> 430 ;
431 [label="interests_score <= 0.76\ngini = 0.292\nsamples = 45\nvalue = [8, 37]\nclass = 0", fillcolor="#64b2eb"] ;
423 -> 431 ;
432 [label="appearance_score <= -0.888\ngini = 0.391\nsamples = 30\nvalue = [8, 22]\nclass = 0", fillcolor="#81c1ee"] ;
431 -> 432 ;
433 [label="appearance_score <= -1.01\ngini = 0.5\nsamples = 12\nvalue = [6, 6]\nclass = 1", fillcolor="#ffffff"] ;
432 -> 433 ;
434 [label="gini = 0.0\nsamples = 5\nvalue = [0, 5]\nclass = 0", fillcolor="#399de5"] ;
433 -> 434 ;
435 [label="educational_status <= 2.5\ngini = 0.245\nsamples = 7\nvalue = [6, 1]\nclass = 1", fillcolor="#e9965a"] ;
433 -> 435 ;
436 [label="gini = 0.0\nsamples = 6\nvalue = [6, 0]\nclass = 1", fillcolor="#e58139"] ;
435 -> 436 ;
437 [label="gini = 0.0\nsamples = 1\nvalue = [0, 1]\nclass = 0", fillcolor="#399de5"] ;
435 -> 437 ;
438 [label="confidence_score <= -0.723\ngini = 0.198\nsamples = 18\nvalue = [2, 16]\nclass = 0", fillcolor="#52a9e8"] ;
432 -> 438 ;
439 [label="income <= -0.894\ngini = 0.111\nsamples = 17\nvalue = [1, 16]\nclass = 0", fillcolor="#45a3e7"] ;
438 -> 439 ;
440 [label="gini = 0.0\nsamples = 13\nvalue = [0, 13]\nclass = 0", fillcolor="#399de5"] ;
439 -> 440 ;
441 [label="appearance_score <= -0.818\ngini = 0.375\nsamples = 4\nvalue = [1, 3]\nclass = 0", fillcolor="#7bbeee"] ;
439 -> 441 ;
442 [label="gini = 0.0\nsamples = 1\nvalue = [1, 0]\nclass = 1", fillcolor="#e58139"] ;
441 -> 442 ;
443 [label="gini = 0.0\nsamples = 3\nvalue = [0, 3]\nclass = 0", fillcolor="#399de5"] ;
441 -> 443 ;
444 [label="gini = 0.0\nsamples = 1\nvalue = [1, 0]\nclass = 1", fillcolor="#e58139"] ;
438 -> 444 ;
445 [label="gini = 0.0\nsamples = 15\nvalue = [0, 15]\nclass = 0", fillcolor="#399de5"] ;
431 -> 445 ;
446 [label="gini = 0.0\nsamples = 2\nvalue = [2, 0]\nclass = 1", fillcolor="#e58139"] ;
422 -> 446 ;
447 [label="interests_score <= -0.031\ngini = 0.497\nsamples = 80\nvalue = [43, 37]\nclass = 1", fillcolor="#fbede3"] ;
413 -> 447 ;
448 [label="income <= -1.656\ngini = 0.457\nsamples = 34\nvalue = [12, 22]\nclass = 0", fillcolor="#a5d2f3"] ;
447 -> 448 ;
449 [label="gini = 0.0\nsamples = 3\nvalue = [3, 0]\nclass = 1", fillcolor="#e58139"] ;
448 -> 449 ;
450 [label="educational_status <= 0.5\ngini = 0.412\nsamples = 31\nvalue = [9, 22]\nclass = 0", fillcolor="#8ac5f0"] ;
448 -> 450 ;
451 [label="interests_score <= -0.556\ngini = 0.492\nsamples = 16\nvalue = [7, 9]\nclass = 0", fillcolor="#d3e9f9"] ;
450 -> 451 ;
452 [label="gini = 0.0\nsamples = 3\nvalue = [3, 0]\nclass = 1", fillcolor="#e58139"] ;
451 -> 452 ;
453 [label="age <= 0.599\ngini = 0.426\nsamples = 13\nvalue = [4, 9]\nclass = 0", fillcolor="#91c9f1"] ;
451 -> 453 ;
454 [label="confidence_score <= -1.522\ngini = 0.49\nsamples = 7\nvalue = [4, 3]\nclass = 1", fillcolor="#f8e0ce"] ;
453 -> 454 ;
455 [label="gini = 0.0\nsamples = 2\nvalue = [2, 0]\nclass = 1", fillcolor="#e58139"] ;
454 -> 455 ;
456 [label="job_type <= 0.5\ngini = 0.48\nsamples = 5\nvalue = [2, 3]\nclass = 0", fillcolor="#bddef6"] ;
454 -> 456 ;
457 [label="gini = 0.0\nsamples = 2\nvalue = [0, 2]\nclass = 0", fillcolor="#399de5"] ;
456 -> 457 ;
458 [label="interests_score <= -0.187\ngini = 0.444\nsamples = 3\nvalue = [2, 1]\nclass = 1", fillcolor="#f2c09c"] ;
456 -> 458 ;
459 [label="gini = 0.0\nsamples = 2\nvalue = [2, 0]\nclass = 1", fillcolor="#e58139"] ;
458 -> 459 ;
460 [label="gini = 0.0\nsamples = 1\nvalue = [0, 1]\nclass = 0", fillcolor="#399de5"] ;
458 -> 460 ;
461 [label="gini = 0.0\nsamples = 6\nvalue = [0, 6]\nclass = 0", fillcolor="#399de5"] ;
453 -> 461 ;
462 [label="income <= -0.964\ngini = 0.231\nsamples = 15\nvalue = [2, 13]\nclass = 0", fillcolor="#57ace9"] ;
450 -> 462 ;
463 [label="interests_score <= -0.292\ngini = 0.133\nsamples = 14\nvalue = [1, 13]\nclass = 0", fillcolor="#48a5e7"] ;
462 -> 463 ;
464 [label="gini = 0.0\nsamples = 12\nvalue = [0, 12]\nclass = 0", fillcolor="#399de5"] ;
463 -> 464 ;
465 [label="confidence_score <= -1.22\ngini = 0.5\nsamples = 2\nvalue = [1, 1]\nclass = 1", fillcolor="#ffffff"] ;
463 -> 465 ;
466 [label="gini = 0.0\nsamples = 1\nvalue = [0, 1]\nclass = 0", fillcolor="#399de5"] ;
465 -> 466 ;
467 [label="gini = 0.0\nsamples = 1\nvalue = [1, 0]\nclass = 1", fillcolor="#e58139"] ;
465 -> 467 ;
468 [label="gini = 0.0\nsamples = 1\nvalue = [1, 0]\nclass = 1", fillcolor="#e58139"] ;
462 -> 468 ;
469 [label="confidence_score <= -0.778\ngini = 0.44\nsamples = 46\nvalue = [31, 15]\nclass = 1", fillcolor="#f2be99"] ;
447 -> 469 ;
470 [label="confidence_score <= -1.611\ngini = 0.402\nsamples = 43\nvalue = [31, 12]\nclass = 1", fillcolor="#efb286"] ;
469 -> 470 ;
471 [label="educational_status <= 1.5\ngini = 0.469\nsamples = 8\nvalue = [3, 5]\nclass = 0", fillcolor="#b0d8f5"] ;
470 -> 471 ;
472 [label="confidence_score <= -1.645\ngini = 0.375\nsamples = 4\nvalue = [3, 1]\nclass = 1", fillcolor="#eeab7b"] ;
471 -> 472 ;
473 [label="gini = 0.0\nsamples = 2\nvalue = [2, 0]\nclass = 1", fillcolor="#e58139"] ;
472 -> 473 ;
474 [label="income <= -1.339\ngini = 0.5\nsamples = 2\nvalue = [1, 1]\nclass = 1", fillcolor="#ffffff"] ;
472 -> 474 ;
475 [label="gini = 0.0\nsamples = 1\nvalue = [0, 1]\nclass = 0", fillcolor="#399de5"] ;
474 -> 475 ;
476 [label="gini = 0.0\nsamples = 1\nvalue = [1, 0]\nclass = 1", fillcolor="#e58139"] ;
474 -> 476 ;
477 [label="gini = 0.0\nsamples = 4\nvalue = [0, 4]\nclass = 0", fillcolor="#399de5"] ;
471 -> 477 ;
478 [label="appearance_score <= -1.119\ngini = 0.32\nsamples = 35\nvalue = [28, 7]\nclass = 1", fillcolor="#eca06a"] ;
470 -> 478 ;
479 [label="appearance_score <= -1.173\ngini = 0.48\nsamples = 5\nvalue = [2, 3]\nclass = 0", fillcolor="#bddef6"] ;
478 -> 479 ;
480 [label="gini = 0.0\nsamples = 2\nvalue = [2, 0]\nclass = 1", fillcolor="#e58139"] ;
479 -> 480 ;
481 [label="gini = 0.0\nsamples = 3\nvalue = [0, 3]\nclass = 0", fillcolor="#399de5"] ;
479 -> 481 ;
482 [label="interests_score <= 1.621\ngini = 0.231\nsamples = 30\nvalue = [26, 4]\nclass = 1", fillcolor="#e99457"] ;
478 -> 482 ;
483 [label="age <= -1.138\ngini = 0.185\nsamples = 29\nvalue = [26, 3]\nclass = 1", fillcolor="#e89050"] ;
482 -> 483 ;
484 [label="appearance_score <= -0.788\ngini = 0.42\nsamples = 10\nvalue = [7, 3]\nclass = 1", fillcolor="#f0b78e"] ;
483 -> 484 ;
485 [label="interests_score <= 0.719\ngini = 0.5\nsamples = 6\nvalue = [3, 3]\nclass = 1", fillcolor="#ffffff"] ;
484 -> 485 ;
486 [label="gini = 0.0\nsamples = 2\nvalue = [0, 2]\nclass = 0", fillcolor="#399de5"] ;
485 -> 486 ;
487 [label="confidence_score <= -0.981\ngini = 0.375\nsamples = 4\nvalue = [3, 1]\nclass = 1", fillcolor="#eeab7b"] ;
485 -> 487 ;
488 [label="gini = 0.0\nsamples = 3\nvalue = [3, 0]\nclass = 1", fillcolor="#e58139"] ;
487 -> 488 ;
489 [label="gini = 0.0\nsamples = 1\nvalue = [0, 1]\nclass = 0", fillcolor="#399de5"] ;
487 -> 489 ;
490 [label="gini = 0.0\nsamples = 4\nvalue = [4, 0]\nclass = 1", fillcolor="#e58139"] ;
484 -> 490 ;
491 [label="gini = 0.0\nsamples = 19\nvalue = [19, 0]\nclass = 1", fillcolor="#e58139"] ;
483 -> 491 ;
492 [label="gini = 0.0\nsamples = 1\nvalue = [0, 1]\nclass = 0", fillcolor="#399de5"] ;
482 -> 492 ;
493 [label="gini = 0.0\nsamples = 3\nvalue = [0, 3]\nclass = 0", fillcolor="#399de5"] ;
469 -> 493 ;
494 [label="income <= -1.559\ngini = 0.489\nsamples = 303\nvalue = [174, 129]\nclass = 1", fillcolor="#f8decc"] ;
412 -> 494 ;
495 [label="confidence_score <= 0.742\ngini = 0.466\nsamples = 54\nvalue = [20, 34]\nclass = 0", fillcolor="#add7f4"] ;
494 -> 495 ;
496 [label="confidence_score <= -0.106\ngini = 0.5\nsamples = 35\nvalue = [17, 18]\nclass = 0", fillcolor="#f4fafe"] ;
495 -> 496 ;
497 [label="income <= -1.597\ngini = 0.355\nsamples = 13\nvalue = [3, 10]\nclass = 0", fillcolor="#74baed"] ;
496 -> 497 ;
498 [label="confidence_score <= -0.551\ngini = 0.165\nsamples = 11\nvalue = [1, 10]\nclass = 0", fillcolor="#4da7e8"] ;
497 -> 498 ;
499 [label="gini = 0.0\nsamples = 1\nvalue = [1, 0]\nclass = 1", fillcolor="#e58139"] ;
498 -> 499 ;
500 [label="gini = 0.0\nsamples = 10\nvalue = [0, 10]\nclass = 0", fillcolor="#399de5"] ;
498 -> 500 ;
501 [label="gini = 0.0\nsamples = 2\nvalue = [2, 0]\nclass = 1", fillcolor="#e58139"] ;
497 -> 501 ;
502 [label="appearance_score <= -0.865\ngini = 0.463\nsamples = 22\nvalue = [14, 8]\nclass = 1", fillcolor="#f4c9aa"] ;
496 -> 502 ;
503 [label="gini = 0.0\nsamples = 10\nvalue = [10, 0]\nclass = 1", fillcolor="#e58139"] ;
502 -> 503 ;
504 [label="confidence_score <= -0.033\ngini = 0.444\nsamples = 12\nvalue = [4, 8]\nclass = 0", fillcolor="#9ccef2"] ;
502 -> 504 ;
505 [label="gini = 0.0\nsamples = 2\nvalue = [2, 0]\nclass = 1", fillcolor="#e58139"] ;
504 -> 505 ;
506 [label="age <= -1.213\ngini = 0.32\nsamples = 10\nvalue = [2, 8]\nclass = 0", fillcolor="#6ab6ec"] ;
504 -> 506 ;
507 [label="gini = 0.0\nsamples = 1\nvalue = [1, 0]\nclass = 1", fillcolor="#e58139"] ;
506 -> 507 ;
508 [label="interests_score <= 1.127\ngini = 0.198\nsamples = 9\nvalue = [1, 8]\nclass = 0", fillcolor="#52a9e8"] ;
506 -> 508 ;
509 [label="gini = 0.0\nsamples = 7\nvalue = [0, 7]\nclass = 0", fillcolor="#399de5"] ;
508 -> 509 ;
510 [label="appearance_score <= -0.682\ngini = 0.5\nsamples = 2\nvalue = [1, 1]\nclass = 1", fillcolor="#ffffff"] ;
508 -> 510 ;
511 [label="gini = 0.0\nsamples = 1\nvalue = [0, 1]\nclass = 0", fillcolor="#399de5"] ;
510 -> 511 ;
512 [label="gini = 0.0\nsamples = 1\nvalue = [1, 0]\nclass = 1", fillcolor="#e58139"] ;
510 -> 512 ;
513 [label="income <= -1.717\ngini = 0.266\nsamples = 19\nvalue = [3, 16]\nclass = 0", fillcolor="#5eafea"] ;
495 -> 513 ;
514 [label="gini = 0.0\nsamples = 1\nvalue = [1, 0]\nclass = 1", fillcolor="#e58139"] ;
513 -> 514 ;
515 [label="interests_score <= -0.123\ngini = 0.198\nsamples = 18\nvalue = [2, 16]\nclass = 0", fillcolor="#52a9e8"] ;
513 -> 515 ;
516 [label="confidence_score <= 1.171\ngini = 0.48\nsamples = 5\nvalue = [2, 3]\nclass = 0", fillcolor="#bddef6"] ;
515 -> 516 ;
517 [label="gini = 0.0\nsamples = 3\nvalue = [0, 3]\nclass = 0", fillcolor="#399de5"] ;
516 -> 517 ;
518 [label="gini = 0.0\nsamples = 2\nvalue = [2, 0]\nclass = 1", fillcolor="#e58139"] ;
516 -> 518 ;
519 [label="gini = 0.0\nsamples = 13\nvalue = [0, 13]\nclass = 0", fillcolor="#399de5"] ;
515 -> 519 ;
520 [label="age <= -0.836\ngini = 0.472\nsamples = 249\nvalue = [154, 95]\nclass = 1", fillcolor="#f5cfb3"] ;
494 -> 520 ;
521 [label="interests_score <= -0.326\ngini = 0.499\nsamples = 71\nvalue = [34, 37]\nclass = 0", fillcolor="#eff7fd"] ;
520 -> 521 ;
522 [label="appearance_score <= -0.696\ngini = 0.18\nsamples = 10\nvalue = [1, 9]\nclass = 0", fillcolor="#4fa8e8"] ;
521 -> 522 ;
523 [label="gini = 0.0\nsamples = 9\nvalue = [0, 9]\nclass = 0", fillcolor="#399de5"] ;
522 -> 523 ;
524 [label="gini = 0.0\nsamples = 1\nvalue = [1, 0]\nclass = 1", fillcolor="#e58139"] ;
522 -> 524 ;
525 [label="income <= -1.356\ngini = 0.497\nsamples = 61\nvalue = [33, 28]\nclass = 1", fillcolor="#fbece1"] ;
521 -> 525 ;
526 [label="educational_status <= 2.5\ngini = 0.397\nsamples = 22\nvalue = [16, 6]\nclass = 1", fillcolor="#efb083"] ;
525 -> 526 ;
527 [label="appearance_score <= -0.697\ngini = 0.198\nsamples = 18\nvalue = [16, 2]\nclass = 1", fillcolor="#e89152"] ;
526 -> 527 ;
528 [label="gini = 0.0\nsamples = 15\nvalue = [15, 0]\nclass = 1", fillcolor="#e58139"] ;
527 -> 528 ;
529 [label="appearance_score <= -0.666\ngini = 0.444\nsamples = 3\nvalue = [1, 2]\nclass = 0", fillcolor="#9ccef2"] ;
527 -> 529 ;
530 [label="gini = 0.0\nsamples = 2\nvalue = [0, 2]\nclass = 0", fillcolor="#399de5"] ;
529 -> 530 ;
531 [label="gini = 0.0\nsamples = 1\nvalue = [1, 0]\nclass = 1", fillcolor="#e58139"] ;
529 -> 531 ;
532 [label="gini = 0.0\nsamples = 4\nvalue = [0, 4]\nclass = 0", fillcolor="#399de5"] ;
526 -> 532 ;
533 [label="appearance_score <= -1.094\ngini = 0.492\nsamples = 39\nvalue = [17, 22]\nclass = 0", fillcolor="#d2e9f9"] ;
525 -> 533 ;
534 [label="gini = 0.0\nsamples = 6\nvalue = [0, 6]\nclass = 0", fillcolor="#399de5"] ;
533 -> 534 ;
535 [label="confidence_score <= 1.133\ngini = 0.5\nsamples = 33\nvalue = [17, 16]\nclass = 1", fillcolor="#fdf8f3"] ;
533 -> 535 ;
536 [label="interests_score <= 1.516\ngini = 0.493\nsamples = 25\nvalue = [11, 14]\nclass = 0", fillcolor="#d5eaf9"] ;
535 -> 536 ;
537 [label="appearance_score <= -1.061\ngini = 0.455\nsamples = 20\nvalue = [7, 13]\nclass = 0", fillcolor="#a4d2f3"] ;
536 -> 537 ;
538 [label="gini = 0.0\nsamples = 2\nvalue = [2, 0]\nclass = 1", fillcolor="#e58139"] ;
537 -> 538 ;
539 [label="income <= -0.916\ngini = 0.401\nsamples = 18\nvalue = [5, 13]\nclass = 0", fillcolor="#85c3ef"] ;
537 -> 539 ;
540 [label="income <= -1.176\ngini = 0.245\nsamples = 14\nvalue = [2, 12]\nclass = 0", fillcolor="#5aade9"] ;
539 -> 540 ;
541 [label="interests_score <= 0.684\ngini = 0.5\nsamples = 4\nvalue = [2, 2]\nclass = 1", fillcolor="#ffffff"] ;
540 -> 541 ;
542 [label="gini = 0.0\nsamples = 2\nvalue = [0, 2]\nclass = 0", fillcolor="#399de5"] ;
541 -> 542 ;
543 [label="gini = 0.0\nsamples = 2\nvalue = [2, 0]\nclass = 1", fillcolor="#e58139"] ;
541 -> 543 ;
544 [label="gini = 0.0\nsamples = 10\nvalue = [0, 10]\nclass = 0", fillcolor="#399de5"] ;
540 -> 544 ;
545 [label="income <= -0.848\ngini = 0.375\nsamples = 4\nvalue = [3, 1]\nclass = 1", fillcolor="#eeab7b"] ;
539 -> 545 ;
546 [label="gini = 0.0\nsamples = 3\nvalue = [3, 0]\nclass = 1", fillcolor="#e58139"] ;
545 -> 546 ;
547 [label="gini = 0.0\nsamples = 1\nvalue = [0, 1]\nclass = 0", fillcolor="#399de5"] ;
545 -> 547 ;
548 [label="income <= -1.248\ngini = 0.32\nsamples = 5\nvalue = [4, 1]\nclass = 1", fillcolor="#eca06a"] ;
536 -> 548 ;
549 [label="gini = 0.0\nsamples = 1\nvalue = [0, 1]\nclass = 0", fillcolor="#399de5"] ;
548 -> 549 ;
550 [label="gini = 0.0\nsamples = 4\nvalue = [4, 0]\nclass = 1", fillcolor="#e58139"] ;
548 -> 550 ;
551 [label="interests_score <= 1.474\ngini = 0.375\nsamples = 8\nvalue = [6, 2]\nclass = 1", fillcolor="#eeab7b"] ;
535 -> 551 ;
552 [label="gini = 0.0\nsamples = 6\nvalue = [6, 0]\nclass = 1", fillcolor="#e58139"] ;
551 -> 552 ;
553 [label="gini = 0.0\nsamples = 2\nvalue = [0, 2]\nclass = 0", fillcolor="#399de5"] ;
551 -> 553 ;
554 [label="appearance_score <= -1.143\ngini = 0.439\nsamples = 178\nvalue = [120, 58]\nclass = 1", fillcolor="#f2be99"] ;
520 -> 554 ;
555 [label="confidence_score <= 1.032\ngini = 0.188\nsamples = 19\nvalue = [17, 2]\nclass = 1", fillcolor="#e89050"] ;
554 -> 555 ;
556 [label="gini = 0.0\nsamples = 13\nvalue = [13, 0]\nclass = 1", fillcolor="#e58139"] ;
555 -> 556 ;
557 [label="interests_score <= 0.59\ngini = 0.444\nsamples = 6\nvalue = [4, 2]\nclass = 1", fillcolor="#f2c09c"] ;
555 -> 557 ;
558 [label="gini = 0.0\nsamples = 3\nvalue = [3, 0]\nclass = 1", fillcolor="#e58139"] ;
557 -> 558 ;
559 [label="appearance_score <= -1.172\ngini = 0.444\nsamples = 3\nvalue = [1, 2]\nclass = 0", fillcolor="#9ccef2"] ;
557 -> 559 ;
560 [label="gini = 0.0\nsamples = 1\nvalue = [1, 0]\nclass = 1", fillcolor="#e58139"] ;
559 -> 560 ;
561 [label="gini = 0.0\nsamples = 2\nvalue = [0, 2]\nclass = 0", fillcolor="#399de5"] ;
559 -> 561 ;
562 [label="income <= -1.04\ngini = 0.456\nsamples = 159\nvalue = [103, 56]\nclass = 1", fillcolor="#f3c6a5"] ;
554 -> 562 ;
563 [label="age <= -0.534\ngini = 0.417\nsamples = 108\nvalue = [76, 32]\nclass = 1", fillcolor="#f0b68c"] ;
562 -> 563 ;
564 [label="gini = 0.0\nsamples = 8\nvalue = [8, 0]\nclass = 1", fillcolor="#e58139"] ;
563 -> 564 ;
565 [label="income <= -1.531\ngini = 0.435\nsamples = 100\nvalue = [68, 32]\nclass = 1", fillcolor="#f1bc96"] ;
563 -> 565 ;
566 [label="gini = 0.0\nsamples = 7\nvalue = [7, 0]\nclass = 1", fillcolor="#e58139"] ;
565 -> 566 ;
567 [label="income <= -1.46\ngini = 0.451\nsamples = 93\nvalue = [61, 32]\nclass = 1", fillcolor="#f3c3a1"] ;
565 -> 567 ;
568 [label="income <= -1.491\ngini = 0.48\nsamples = 10\nvalue = [4, 6]\nclass = 0", fillcolor="#bddef6"] ;
567 -> 568 ;
569 [label="age <= 0.448\ngini = 0.444\nsamples = 6\nvalue = [4, 2]\nclass = 1", fillcolor="#f2c09c"] ;
568 -> 569 ;
570 [label="gini = 0.0\nsamples = 3\nvalue = [3, 0]\nclass = 1", fillcolor="#e58139"] ;
569 -> 570 ;
571 [label="educational_status <= 0.5\ngini = 0.444\nsamples = 3\nvalue = [1, 2]\nclass = 0", fillcolor="#9ccef2"] ;
569 -> 571 ;
572 [label="gini = 0.0\nsamples = 2\nvalue = [0, 2]\nclass = 0", fillcolor="#399de5"] ;
571 -> 572 ;
573 [label="gini = 0.0\nsamples = 1\nvalue = [1, 0]\nclass = 1", fillcolor="#e58139"] ;
571 -> 573 ;
574 [label="gini = 0.0\nsamples = 4\nvalue = [0, 4]\nclass = 0", fillcolor="#399de5"] ;
568 -> 574 ;
575 [label="income <= -1.399\ngini = 0.43\nsamples = 83\nvalue = [57, 26]\nclass = 1", fillcolor="#f1ba93"] ;
567 -> 575 ;
576 [label="confidence_score <= 1.333\ngini = 0.142\nsamples = 13\nvalue = [12, 1]\nclass = 1", fillcolor="#e78c49"] ;
575 -> 576 ;
577 [label="gini = 0.0\nsamples = 11\nvalue = [11, 0]\nclass = 1", fillcolor="#e58139"] ;
576 -> 577 ;
578 [label="gender <= 0.5\ngini = 0.5\nsamples = 2\nvalue = [1, 1]\nclass = 1", fillcolor="#ffffff"] ;
576 -> 578 ;
579 [label="gini = 0.0\nsamples = 1\nvalue = [0, 1]\nclass = 0", fillcolor="#399de5"] ;
578 -> 579 ;
580 [label="gini = 0.0\nsamples = 1\nvalue = [1, 0]\nclass = 1", fillcolor="#e58139"] ;
578 -> 580 ;
581 [label="appearance_score <= -0.734\ngini = 0.459\nsamples = 70\nvalue = [45, 25]\nclass = 1", fillcolor="#f3c7a7"] ;
575 -> 581 ;
582 [label="income <= -1.117\ngini = 0.488\nsamples = 52\nvalue = [30, 22]\nclass = 1", fillcolor="#f8ddca"] ;
581 -> 582 ;
583 [label="confidence_score <= 1.184\ngini = 0.5\nsamples = 38\nvalue = [19, 19]\nclass = 1", fillcolor="#ffffff"] ;
582 -> 583 ;
584 [label="confidence_score <= -0.358\ngini = 0.485\nsamples = 29\nvalue = [12, 17]\nclass = 0", fillcolor="#c5e2f7"] ;
583 -> 584 ;
585 [label="gender <= 0.5\ngini = 0.375\nsamples = 8\nvalue = [6, 2]\nclass = 1", fillcolor="#eeab7b"] ;
584 -> 585 ;
586 [label="gini = 0.0\nsamples = 5\nvalue = [5, 0]\nclass = 1", fillcolor="#e58139"] ;
585 -> 586 ;
587 [label="age <= 0.523\ngini = 0.444\nsamples = 3\nvalue = [1, 2]\nclass = 0", fillcolor="#9ccef2"] ;
585 -> 587 ;
588 [label="gini = 0.0\nsamples = 2\nvalue = [0, 2]\nclass = 0", fillcolor="#399de5"] ;
587 -> 588 ;
589 [label="gini = 0.0\nsamples = 1\nvalue = [1, 0]\nclass = 1", fillcolor="#e58139"] ;
587 -> 589 ;
590 [label="interests_score <= -0.538\ngini = 0.408\nsamples = 21\nvalue = [6, 15]\nclass = 0", fillcolor="#88c4ef"] ;
584 -> 590 ;
591 [label="gini = 0.0\nsamples = 2\nvalue = [2, 0]\nclass = 1", fillcolor="#e58139"] ;
590 -> 591 ;
592 [label="appearance_score <= -1.126\ngini = 0.332\nsamples = 19\nvalue = [4, 15]\nclass = 0", fillcolor="#6eb7ec"] ;
590 -> 592 ;
593 [label="gini = 0.0\nsamples = 1\nvalue = [1, 0]\nclass = 1", fillcolor="#e58139"] ;
592 -> 593 ;
594 [label="confidence_score <= 0.507\ngini = 0.278\nsamples = 18\nvalue = [3, 15]\nclass = 0", fillcolor="#61b1ea"] ;
592 -> 594 ;
595 [label="gini = 0.0\nsamples = 8\nvalue = [0, 8]\nclass = 0", fillcolor="#399de5"] ;
594 -> 595 ;
596 [label="educational_status <= 1.5\ngini = 0.42\nsamples = 10\nvalue = [3, 7]\nclass = 0", fillcolor="#8ec7f0"] ;
594 -> 596 ;
597 [label="gini = 0.0\nsamples = 4\nvalue = [0, 4]\nclass = 0", fillcolor="#399de5"] ;
596 -> 597 ;
598 [label="appearance_score <= -0.986\ngini = 0.5\nsamples = 6\nvalue = [3, 3]\nclass = 1", fillcolor="#ffffff"] ;
596 -> 598 ;
599 [label="gini = 0.0\nsamples = 3\nvalue = [0, 3]\nclass = 0", fillcolor="#399de5"] ;
598 -> 599 ;
600 [label="gini = 0.0\nsamples = 3\nvalue = [3, 0]\nclass = 1", fillcolor="#e58139"] ;
598 -> 600 ;
601 [label="age <= -0.232\ngini = 0.346\nsamples = 9\nvalue = [7, 2]\nclass = 1", fillcolor="#eca572"] ;
583 -> 601 ;
602 [label="gender <= 0.5\ngini = 0.444\nsamples = 3\nvalue = [1, 2]\nclass = 0", fillcolor="#9ccef2"] ;
601 -> 602 ;
603 [label="gini = 0.0\nsamples = 2\nvalue = [0, 2]\nclass = 0", fillcolor="#399de5"] ;
602 -> 603 ;
604 [label="gini = 0.0\nsamples = 1\nvalue = [1, 0]\nclass = 1", fillcolor="#e58139"] ;
602 -> 604 ;
605 [label="gini = 0.0\nsamples = 6\nvalue = [6, 0]\nclass = 1", fillcolor="#e58139"] ;
601 -> 605 ;
606 [label="interests_score <= 0.086\ngini = 0.337\nsamples = 14\nvalue = [11, 3]\nclass = 1", fillcolor="#eca36f"] ;
582 -> 606 ;
607 [label="interests_score <= -0.399\ngini = 0.48\nsamples = 5\nvalue = [2, 3]\nclass = 0", fillcolor="#bddef6"] ;
606 -> 607 ;
608 [label="appearance_score <= -0.748\ngini = 0.444\nsamples = 3\nvalue = [2, 1]\nclass = 1", fillcolor="#f2c09c"] ;
607 -> 608 ;
609 [label="gini = 0.0\nsamples = 2\nvalue = [2, 0]\nclass = 1", fillcolor="#e58139"] ;
608 -> 609 ;
610 [label="gini = 0.0\nsamples = 1\nvalue = [0, 1]\nclass = 0", fillcolor="#399de5"] ;
608 -> 610 ;
611 [label="gini = 0.0\nsamples = 2\nvalue = [0, 2]\nclass = 0", fillcolor="#399de5"] ;
607 -> 611 ;
612 [label="gini = 0.0\nsamples = 9\nvalue = [9, 0]\nclass = 1", fillcolor="#e58139"] ;
606 -> 612 ;
613 [label="income <= -1.297\ngini = 0.278\nsamples = 18\nvalue = [15, 3]\nclass = 1", fillcolor="#ea9a61"] ;
581 -> 613 ;
614 [label="income <= -1.344\ngini = 0.444\nsamples = 3\nvalue = [1, 2]\nclass = 0", fillcolor="#9ccef2"] ;
613 -> 614 ;
615 [label="gini = 0.0\nsamples = 1\nvalue = [1, 0]\nclass = 1", fillcolor="#e58139"] ;
614 -> 615 ;
616 [label="gini = 0.0\nsamples = 2\nvalue = [0, 2]\nclass = 0", fillcolor="#399de5"] ;
614 -> 616 ;
617 [label="confidence_score <= 1.184\ngini = 0.124\nsamples = 15\nvalue = [14, 1]\nclass = 1", fillcolor="#e78a47"] ;
613 -> 617 ;
618 [label="gini = 0.0\nsamples = 13\nvalue = [13, 0]\nclass = 1", fillcolor="#e58139"] ;
617 -> 618 ;
619 [label="gender <= 0.5\ngini = 0.5\nsamples = 2\nvalue = [1, 1]\nclass = 1", fillcolor="#ffffff"] ;
617 -> 619 ;
620 [label="gini = 0.0\nsamples = 1\nvalue = [1, 0]\nclass = 1", fillcolor="#e58139"] ;
619 -> 620 ;
621 [label="gini = 0.0\nsamples = 1\nvalue = [0, 1]\nclass = 0", fillcolor="#399de5"] ;
619 -> 621 ;
622 [label="income <= -1.009\ngini = 0.498\nsamples = 51\nvalue = [27, 24]\nclass = 1", fillcolor="#fcf1e9"] ;
562 -> 622 ;
623 [label="interests_score <= 1.192\ngini = 0.245\nsamples = 7\nvalue = [1, 6]\nclass = 0", fillcolor="#5aade9"] ;
622 -> 623 ;
624 [label="gini = 0.0\nsamples = 6\nvalue = [0, 6]\nclass = 0", fillcolor="#399de5"] ;
623 -> 624 ;
625 [label="gini = 0.0\nsamples = 1\nvalue = [1, 0]\nclass = 1", fillcolor="#e58139"] ;
623 -> 625 ;
626 [label="educational_status <= 2.5\ngini = 0.483\nsamples = 44\nvalue = [26, 18]\nclass = 1", fillcolor="#f7d8c2"] ;
622 -> 626 ;
627 [label="appearance_score <= -0.76\ngini = 0.499\nsamples = 31\nvalue = [15, 16]\nclass = 0", fillcolor="#f3f9fd"] ;
626 -> 627 ;
628 [label="educational_status <= 1.5\ngini = 0.444\nsamples = 21\nvalue = [7, 14]\nclass = 0", fillcolor="#9ccef2"] ;
627 -> 628 ;
629 [label="age <= 1.203\ngini = 0.497\nsamples = 13\nvalue = [7, 6]\nclass = 1", fillcolor="#fbede3"] ;
628 -> 629 ;
630 [label="age <= -0.005\ngini = 0.42\nsamples = 10\nvalue = [7, 3]\nclass = 1", fillcolor="#f0b78e"] ;
629 -> 630 ;
631 [label="age <= -0.383\ngini = 0.375\nsamples = 4\nvalue = [1, 3]\nclass = 0", fillcolor="#7bbeee"] ;
630 -> 631 ;
632 [label="gini = 0.0\nsamples = 2\nvalue = [0, 2]\nclass = 0", fillcolor="#399de5"] ;
631 -> 632 ;
633 [label="educational_status <= 0.5\ngini = 0.5\nsamples = 2\nvalue = [1, 1]\nclass = 1", fillcolor="#ffffff"] ;
631 -> 633 ;
634 [label="gini = 0.0\nsamples = 1\nvalue = [0, 1]\nclass = 0", fillcolor="#399de5"] ;
633 -> 634 ;
635 [label="gini = 0.0\nsamples = 1\nvalue = [1, 0]\nclass = 1", fillcolor="#e58139"] ;
633 -> 635 ;
636 [label="gini = 0.0\nsamples = 6\nvalue = [6, 0]\nclass = 1", fillcolor="#e58139"] ;
630 -> 636 ;
637 [label="gini = 0.0\nsamples = 3\nvalue = [0, 3]\nclass = 0", fillcolor="#399de5"] ;
629 -> 637 ;
638 [label="gini = 0.0\nsamples = 8\nvalue = [0, 8]\nclass = 0", fillcolor="#399de5"] ;
628 -> 638 ;
639 [label="income <= -0.869\ngini = 0.32\nsamples = 10\nvalue = [8, 2]\nclass = 1", fillcolor="#eca06a"] ;
627 -> 639 ;
640 [label="gini = 0.0\nsamples = 7\nvalue = [7, 0]\nclass = 1", fillcolor="#e58139"] ;
639 -> 640 ;
641 [label="job_type <= 0.5\ngini = 0.444\nsamples = 3\nvalue = [1, 2]\nclass = 0", fillcolor="#9ccef2"] ;
639 -> 641 ;
642 [label="gini = 0.0\nsamples = 1\nvalue = [1, 0]\nclass = 1", fillcolor="#e58139"] ;
641 -> 642 ;
643 [label="gini = 0.0\nsamples = 2\nvalue = [0, 2]\nclass = 0", fillcolor="#399de5"] ;
641 -> 643 ;
644 [label="appearance_score <= -1.14\ngini = 0.26\nsamples = 13\nvalue = [11, 2]\nclass = 1", fillcolor="#ea985d"] ;
626 -> 644 ;
645 [label="gini = 0.0\nsamples = 1\nvalue = [0, 1]\nclass = 0", fillcolor="#399de5"] ;
644 -> 645 ;
646 [label="appearance_score <= -0.756\ngini = 0.153\nsamples = 12\nvalue = [11, 1]\nclass = 1", fillcolor="#e78c4b"] ;
644 -> 646 ;
647 [label="gini = 0.0\nsamples = 11\nvalue = [11, 0]\nclass = 1", fillcolor="#e58139"] ;
646 -> 647 ;
648 [label="gini = 0.0\nsamples = 1\nvalue = [0, 1]\nclass = 0", fillcolor="#399de5"] ;
646 -> 648 ;
649 [label="appearance_score <= -0.614\ngini = 0.497\nsamples = 2838\nvalue = [1316, 1522]\nclass = 0", fillcolor="#e4f2fb"] ;
23 -> 649 ;
650 [label="age <= 1.58\ngini = 0.375\nsamples = 36\nvalue = [9, 27]\nclass = 0", fillcolor="#7bbeee"] ;
649 -> 650 ;
651 [label="income <= -0.865\ngini = 0.327\nsamples = 34\nvalue = [7, 27]\nclass = 0", fillcolor="#6cb6ec"] ;
650 -> 651 ;
652 [label="confidence_score <= -0.9\ngini = 0.271\nsamples = 31\nvalue = [5, 26]\nclass = 0", fillcolor="#5fb0ea"] ;
651 -> 652 ;
653 [label="educational_status <= 1.0\ngini = 0.494\nsamples = 9\nvalue = [4, 5]\nclass = 0", fillcolor="#d7ebfa"] ;
652 -> 653 ;
654 [label="gini = 0.0\nsamples = 4\nvalue = [0, 4]\nclass = 0", fillcolor="#399de5"] ;
653 -> 654 ;
655 [label="appearance_score <= -0.617\ngini = 0.32\nsamples = 5\nvalue = [4, 1]\nclass = 1", fillcolor="#eca06a"] ;
653 -> 655 ;
656 [label="gini = 0.0\nsamples = 4\nvalue = [4, 0]\nclass = 1", fillcolor="#e58139"] ;
655 -> 656 ;
657 [label="gini = 0.0\nsamples = 1\nvalue = [0, 1]\nclass = 0", fillcolor="#399de5"] ;
655 -> 657 ;
658 [label="income <= -1.619\ngini = 0.087\nsamples = 22\nvalue = [1, 21]\nclass = 0", fillcolor="#42a2e6"] ;
652 -> 658 ;
659 [label="interests_score <= 0.108\ngini = 0.5\nsamples = 2\nvalue = [1, 1]\nclass = 1", fillcolor="#ffffff"] ;
658 -> 659 ;
660 [label="gini = 0.0\nsamples = 1\nvalue = [1, 0]\nclass = 1", fillcolor="#e58139"] ;
659 -> 660 ;
661 [label="gini = 0.0\nsamples = 1\nvalue = [0, 1]\nclass = 0", fillcolor="#399de5"] ;
659 -> 661 ;
662 [label="gini = 0.0\nsamples = 20\nvalue = [0, 20]\nclass = 0", fillcolor="#399de5"] ;
658 -> 662 ;
663 [label="age <= 1.278\ngini = 0.444\nsamples = 3\nvalue = [2, 1]\nclass = 1", fillcolor="#f2c09c"] ;
651 -> 663 ;
664 [label="gini = 0.0\nsamples = 2\nvalue = [2, 0]\nclass = 1", fillcolor="#e58139"] ;
663 -> 664 ;
665 [label="gini = 0.0\nsamples = 1\nvalue = [0, 1]\nclass = 0", fillcolor="#399de5"] ;
663 -> 665 ;
666 [label="gini = 0.0\nsamples = 2\nvalue = [2, 0]\nclass = 1", fillcolor="#e58139"] ;
650 -> 666 ;
667 [label="appearance_score <= -0.608\ngini = 0.498\nsamples = 2802\nvalue = [1307, 1495]\nclass = 0", fillcolor="#e6f3fc"] ;
649 -> 667 ;
668 [label="interests_score <= 1.504\ngini = 0.198\nsamples = 9\nvalue = [8, 1]\nclass = 1", fillcolor="#e89152"] ;
667 -> 668 ;
669 [label="gini = 0.0\nsamples = 8\nvalue = [8, 0]\nclass = 1", fillcolor="#e58139"] ;
668 -> 669 ;
670 [label="gini = 0.0\nsamples = 1\nvalue = [0, 1]\nclass = 0", fillcolor="#399de5"] ;
668 -> 670 ;
671 [label="appearance_score <= -0.603\ngini = 0.498\nsamples = 2793\nvalue = [1299, 1494]\nclass = 0", fillcolor="#e5f2fc"] ;
667 -> 671 ;
672 [label="gini = 0.0\nsamples = 11\nvalue = [0, 11]\nclass = 0", fillcolor="#399de5"] ;
671 -> 672 ;
673 [label="confidence_score <= 1.476\ngini = 0.498\nsamples = 2782\nvalue = [1299, 1483]\nclass = 0", fillcolor="#e6f3fc"] ;
671 -> 673 ;
674 [label="confidence_score <= 1.456\ngini = 0.498\nsamples = 2734\nvalue = [1285, 1449]\nclass = 0", fillcolor="#e9f4fc"] ;
673 -> 674 ;
675 [label="appearance_score <= -0.601\ngini = 0.498\nsamples = 2719\nvalue = [1273, 1446]\nclass = 0", fillcolor="#e7f3fc"] ;
674 -> 675 ;
676 [label="gini = 0.0\nsamples = 5\nvalue = [5, 0]\nclass = 1", fillcolor="#e58139"] ;
675 -> 676 ;
677 [label="educational_status <= 1.5\ngini = 0.498\nsamples = 2714\nvalue = [1268, 1446]\nclass = 0", fillcolor="#e7f3fc"] ;
675 -> 677 ;
678 [label="confidence_score <= 1.395\ngini = 0.5\nsamples = 1373\nvalue = [671, 702]\nclass = 0", fillcolor="#f6fbfe"] ;
677 -> 678 ;
679 [label="age <= -1.652\ngini = 0.5\nsamples = 1339\nvalue = [662, 677]\nclass = 0", fillcolor="#fbfdfe"] ;
678 -> 679 ;
680 [label="interests_score <= 1.399\ngini = 0.454\nsamples = 69\nvalue = [45, 24]\nclass = 1", fillcolor="#f3c4a3"] ;
679 -> 680 ;
681 [label="appearance_score <= 0.294\ngini = 0.425\nsamples = 62\nvalue = [43, 19]\nclass = 1", fillcolor="#f0b990"] ;
680 -> 681 ;
682 [label="income <= -0.833\ngini = 0.198\nsamples = 18\nvalue = [16, 2]\nclass = 1", fillcolor="#e89152"] ;
681 -> 682 ;
683 [label="income <= -1.612\ngini = 0.111\nsamples = 17\nvalue = [16, 1]\nclass = 1", fillcolor="#e78945"] ;
682 -> 683 ;
684 [label="income <= -1.638\ngini = 0.444\nsamples = 3\nvalue = [2, 1]\nclass = 1", fillcolor="#f2c09c"] ;
683 -> 684 ;
685 [label="gini = 0.0\nsamples = 2\nvalue = [2, 0]\nclass = 1", fillcolor="#e58139"] ;
684 -> 685 ;
686 [label="gini = 0.0\nsamples = 1\nvalue = [0, 1]\nclass = 0", fillcolor="#399de5"] ;
684 -> 686 ;
687 [label="gini = 0.0\nsamples = 14\nvalue = [14, 0]\nclass = 1", fillcolor="#e58139"] ;
683 -> 687 ;
688 [label="gini = 0.0\nsamples = 1\nvalue = [0, 1]\nclass = 0", fillcolor="#399de5"] ;
682 -> 688 ;
689 [label="confidence_score <= -1.116\ngini = 0.474\nsamples = 44\nvalue = [27, 17]\nclass = 1", fillcolor="#f5d0b6"] ;
681 -> 689 ;
690 [label="appearance_score <= 0.374\ngini = 0.245\nsamples = 14\nvalue = [12, 2]\nclass = 1", fillcolor="#e9965a"] ;
689 -> 690 ;
691 [label="gini = 0.0\nsamples = 1\nvalue = [0, 1]\nclass = 0", fillcolor="#399de5"] ;
690 -> 691 ;
692 [label="appearance_score <= 0.753\ngini = 0.142\nsamples = 13\nvalue = [12, 1]\nclass = 1", fillcolor="#e78c49"] ;
690 -> 692 ;
693 [label="income <= -1.138\ngini = 0.444\nsamples = 3\nvalue = [2, 1]\nclass = 1", fillcolor="#f2c09c"] ;
692 -> 693 ;
694 [label="gini = 0.0\nsamples = 1\nvalue = [0, 1]\nclass = 0", fillcolor="#399de5"] ;
693 -> 694 ;
695 [label="gini = 0.0\nsamples = 2\nvalue = [2, 0]\nclass = 1", fillcolor="#e58139"] ;
693 -> 695 ;
696 [label="gini = 0.0\nsamples = 10\nvalue = [10, 0]\nclass = 1", fillcolor="#e58139"] ;
692 -> 696 ;
697 [label="confidence_score <= -0.444\ngini = 0.5\nsamples = 30\nvalue = [15, 15]\nclass = 1", fillcolor="#ffffff"] ;
689 -> 697 ;
698 [label="interests_score <= 0.482\ngini = 0.245\nsamples = 7\nvalue = [1, 6]\nclass = 0", fillcolor="#5aade9"] ;
697 -> 698 ;
699 [label="gini = 0.0\nsamples = 6\nvalue = [0, 6]\nclass = 0", fillcolor="#399de5"] ;
698 -> 699 ;
700 [label="gini = 0.0\nsamples = 1\nvalue = [1, 0]\nclass = 1", fillcolor="#e58139"] ;
698 -> 700 ;
701 [label="job_type <= 0.5\ngini = 0.476\nsamples = 23\nvalue = [14, 9]\nclass = 1", fillcolor="#f6d2b8"] ;
697 -> 701 ;
702 [label="confidence_score <= 0.395\ngini = 0.498\nsamples = 15\nvalue = [7, 8]\nclass = 0", fillcolor="#e6f3fc"] ;
701 -> 702 ;
703 [label="appearance_score <= 1.438\ngini = 0.278\nsamples = 6\nvalue = [1, 5]\nclass = 0", fillcolor="#61b1ea"] ;
702 -> 703 ;
704 [label="gini = 0.0\nsamples = 5\nvalue = [0, 5]\nclass = 0", fillcolor="#399de5"] ;
703 -> 704 ;
705 [label="gini = 0.0\nsamples = 1\nvalue = [1, 0]\nclass = 1", fillcolor="#e58139"] ;
703 -> 705 ;
706 [label="educational_status <= 0.5\ngini = 0.444\nsamples = 9\nvalue = [6, 3]\nclass = 1", fillcolor="#f2c09c"] ;
702 -> 706 ;
707 [label="gini = 0.0\nsamples = 4\nvalue = [4, 0]\nclass = 1", fillcolor="#e58139"] ;
706 -> 707 ;
708 [label="confidence_score <= 0.897\ngini = 0.48\nsamples = 5\nvalue = [2, 3]\nclass = 0", fillcolor="#bddef6"] ;
706 -> 708 ;
709 [label="interests_score <= -1.388\ngini = 0.444\nsamples = 3\nvalue = [2, 1]\nclass = 1", fillcolor="#f2c09c"] ;
708 -> 709 ;
710 [label="gini = 0.0\nsamples = 1\nvalue = [0, 1]\nclass = 0", fillcolor="#399de5"] ;
709 -> 710 ;
711 [label="gini = 0.0\nsamples = 2\nvalue = [2, 0]\nclass = 1", fillcolor="#e58139"] ;
709 -> 711 ;
712 [label="gini = 0.0\nsamples = 2\nvalue = [0, 2]\nclass = 0", fillcolor="#399de5"] ;
708 -> 712 ;
713 [label="confidence_score <= 0.427\ngini = 0.219\nsamples = 8\nvalue = [7, 1]\nclass = 1", fillcolor="#e99355"] ;
701 -> 713 ;
714 [label="gini = 0.0\nsamples = 5\nvalue = [5, 0]\nclass = 1", fillcolor="#e58139"] ;
713 -> 714 ;
715 [label="appearance_score <= 1.303\ngini = 0.444\nsamples = 3\nvalue = [2, 1]\nclass = 1", fillcolor="#f2c09c"] ;
713 -> 715 ;
716 [label="gini = 0.0\nsamples = 2\nvalue = [2, 0]\nclass = 1", fillcolor="#e58139"] ;
715 -> 716 ;
717 [label="gini = 0.0\nsamples = 1\nvalue = [0, 1]\nclass = 0", fillcolor="#399de5"] ;
715 -> 717 ;
718 [label="confidence_score <= 1.255\ngini = 0.408\nsamples = 7\nvalue = [2, 5]\nclass = 0", fillcolor="#88c4ef"] ;
680 -> 718 ;
719 [label="gini = 0.0\nsamples = 5\nvalue = [0, 5]\nclass = 0", fillcolor="#399de5"] ;
718 -> 719 ;
720 [label="gini = 0.0\nsamples = 2\nvalue = [2, 0]\nclass = 1", fillcolor="#e58139"] ;
718 -> 720 ;
721 [label="appearance_score <= 1.706\ngini = 0.5\nsamples = 1270\nvalue = [617, 653]\nclass = 0", fillcolor="#f4fafe"] ;
679 -> 721 ;
722 [label="appearance_score <= -0.588\ngini = 0.499\nsamples = 1264\nvalue = [611, 653]\nclass = 0", fillcolor="#f2f9fd"] ;
721 -> 722 ;
723 [label="interests_score <= -0.109\ngini = 0.198\nsamples = 9\nvalue = [1, 8]\nclass = 0", fillcolor="#52a9e8"] ;
722 -> 723 ;
724 [label="appearance_score <= -0.59\ngini = 0.5\nsamples = 2\nvalue = [1, 1]\nclass = 1", fillcolor="#ffffff"] ;
723 -> 724 ;
725 [label="gini = 0.0\nsamples = 1\nvalue = [1, 0]\nclass = 1", fillcolor="#e58139"] ;
724 -> 725 ;
726 [label="gini = 0.0\nsamples = 1\nvalue = [0, 1]\nclass = 0", fillcolor="#399de5"] ;
724 -> 726 ;
727 [label="gini = 0.0\nsamples = 7\nvalue = [0, 7]\nclass = 0", fillcolor="#399de5"] ;
723 -> 727 ;
728 [label="income <= -1.483\ngini = 0.5\nsamples = 1255\nvalue = [610, 645]\nclass = 0", fillcolor="#f4fafe"] ;
722 -> 728 ;
729 [label="age <= 1.127\ngini = 0.497\nsamples = 330\nvalue = [177, 153]\nclass = 1", fillcolor="#fbeee4"] ;
728 -> 729 ;
730 [label="income <= -1.496\ngini = 0.5\nsamples = 264\nvalue = [131, 133]\nclass = 0", fillcolor="#fcfeff"] ;
729 -> 730 ;
731 [label="confidence_score <= -1.516\ngini = 0.499\nsamples = 249\nvalue = [119, 130]\nclass = 0", fillcolor="#eef7fd"] ;
730 -> 731 ;
732 [label="confidence_score <= -1.673\ngini = 0.36\nsamples = 17\nvalue = [4, 13]\nclass = 0", fillcolor="#76bbed"] ;
731 -> 732 ;
733 [label="interests_score <= -0.805\ngini = 0.444\nsamples = 6\nvalue = [4, 2]\nclass = 1", fillcolor="#f2c09c"] ;
732 -> 733 ;
734 [label="gini = 0.0\nsamples = 2\nvalue = [0, 2]\nclass = 0", fillcolor="#399de5"] ;
733 -> 734 ;
735 [label="gini = 0.0\nsamples = 4\nvalue = [4, 0]\nclass = 1", fillcolor="#e58139"] ;
733 -> 735 ;
736 [label="gini = 0.0\nsamples = 11\nvalue = [0, 11]\nclass = 0", fillcolor="#399de5"] ;
732 -> 736 ;
737 [label="interests_score <= -1.539\ngini = 0.5\nsamples = 232\nvalue = [115, 117]\nclass = 0", fillcolor="#fcfdff"] ;
731 -> 737 ;
738 [label="income <= -1.552\ngini = 0.165\nsamples = 11\nvalue = [10, 1]\nclass = 1", fillcolor="#e88e4d"] ;
737 -> 738 ;
739 [label="gini = 0.0\nsamples = 8\nvalue = [8, 0]\nclass = 1", fillcolor="#e58139"] ;
738 -> 739 ;
740 [label="appearance_score <= 1.196\ngini = 0.444\nsamples = 3\nvalue = [2, 1]\nclass = 1", fillcolor="#f2c09c"] ;
738 -> 740 ;
741 [label="gini = 0.0\nsamples = 1\nvalue = [0, 1]\nclass = 0", fillcolor="#399de5"] ;
740 -> 741 ;
742 [label="gini = 0.0\nsamples = 2\nvalue = [2, 0]\nclass = 1", fillcolor="#e58139"] ;
740 -> 742 ;
743 [label="appearance_score <= 1.494\ngini = 0.499\nsamples = 221\nvalue = [105, 116]\nclass = 0", fillcolor="#ecf6fd"] ;
737 -> 743 ;
744 [label="confidence_score <= -1.234\ngini = 0.5\nsamples = 203\nvalue = [101, 102]\nclass = 0", fillcolor="#fdfeff"] ;
743 -> 744 ;
745 [label="age <= -1.44\ngini = 0.36\nsamples = 17\nvalue = [13, 4]\nclass = 1", fillcolor="#eda876"] ;
744 -> 745 ;
746 [label="confidence_score <= -1.291\ngini = 0.444\nsamples = 3\nvalue = [1, 2]\nclass = 0", fillcolor="#9ccef2"] ;
745 -> 746 ;
747 [label="gini = 0.0\nsamples = 2\nvalue = [0, 2]\nclass = 0", fillcolor="#399de5"] ;
746 -> 747 ;
748 [label="gini = 0.0\nsamples = 1\nvalue = [1, 0]\nclass = 1", fillcolor="#e58139"] ;
746 -> 748 ;
749 [label="interests_score <= 1.45\ngini = 0.245\nsamples = 14\nvalue = [12, 2]\nclass = 1", fillcolor="#e9965a"] ;
745 -> 749 ;
750 [label="age <= 0.674\ngini = 0.142\nsamples = 13\nvalue = [12, 1]\nclass = 1", fillcolor="#e78c49"] ;
749 -> 750 ;
751 [label="gini = 0.0\nsamples = 10\nvalue = [10, 0]\nclass = 1", fillcolor="#e58139"] ;
750 -> 751 ;
752 [label="appearance_score <= 0.354\ngini = 0.444\nsamples = 3\nvalue = [2, 1]\nclass = 1", fillcolor="#f2c09c"] ;
750 -> 752 ;
753 [label="gini = 0.0\nsamples = 1\nvalue = [0, 1]\nclass = 0", fillcolor="#399de5"] ;
752 -> 753 ;
754 [label="gini = 0.0\nsamples = 2\nvalue = [2, 0]\nclass = 1", fillcolor="#e58139"] ;
752 -> 754 ;
755 [label="gini = 0.0\nsamples = 1\nvalue = [0, 1]\nclass = 0", fillcolor="#399de5"] ;
749 -> 755 ;
756 [label="interests_score <= -1.373\ngini = 0.499\nsamples = 186\nvalue = [88, 98]\nclass = 0", fillcolor="#ebf5fc"] ;
744 -> 756 ;
757 [label="confidence_score <= -1.11\ngini = 0.219\nsamples = 8\nvalue = [1, 7]\nclass = 0", fillcolor="#55abe9"] ;
756 -> 757 ;
758 [label="gini = 0.0\nsamples = 1\nvalue = [1, 0]\nclass = 1", fillcolor="#e58139"] ;
757 -> 758 ;
759 [label="gini = 0.0\nsamples = 7\nvalue = [0, 7]\nclass = 0", fillcolor="#399de5"] ;
757 -> 759 ;
760 [label="confidence_score <= 0.011\ngini = 0.5\nsamples = 178\nvalue = [87, 91]\nclass = 0", fillcolor="#f6fbfe"] ;
756 -> 760 ;
761 [label="interests_score <= -0.951\ngini = 0.48\nsamples = 85\nvalue = [34, 51]\nclass = 0", fillcolor="#bddef6"] ;
760 -> 761 ;
762 [label="gender <= 0.5\ngini = 0.426\nsamples = 13\nvalue = [9, 4]\nclass = 1", fillcolor="#f1b991"] ;
761 -> 762 ;
763 [label="appearance_score <= 0.028\ngini = 0.298\nsamples = 11\nvalue = [9, 2]\nclass = 1", fillcolor="#eb9d65"] ;
762 -> 763 ;
764 [label="confidence_score <= -0.668\ngini = 0.5\nsamples = 2\nvalue = [1, 1]\nclass = 1", fillcolor="#ffffff"] ;
763 -> 764 ;
765 [label="gini = 0.0\nsamples = 1\nvalue = [0, 1]\nclass = 0", fillcolor="#399de5"] ;
764 -> 765 ;
766 [label="gini = 0.0\nsamples = 1\nvalue = [1, 0]\nclass = 1", fillcolor="#e58139"] ;
764 -> 766 ;
767 [label="age <= 0.825\ngini = 0.198\nsamples = 9\nvalue = [8, 1]\nclass = 1", fillcolor="#e89152"] ;
763 -> 767 ;
768 [label="gini = 0.0\nsamples = 7\nvalue = [7, 0]\nclass = 1", fillcolor="#e58139"] ;
767 -> 768 ;
769 [label="educational_status <= 0.5\ngini = 0.5\nsamples = 2\nvalue = [1, 1]\nclass = 1", fillcolor="#ffffff"] ;
767 -> 769 ;
770 [label="gini = 0.0\nsamples = 1\nvalue = [0, 1]\nclass = 0", fillcolor="#399de5"] ;
769 -> 770 ;
771 [label="gini = 0.0\nsamples = 1\nvalue = [1, 0]\nclass = 1", fillcolor="#e58139"] ;
769 -> 771 ;
772 [label="gini = 0.0\nsamples = 2\nvalue = [0, 2]\nclass = 0", fillcolor="#399de5"] ;
762 -> 772 ;
773 [label="appearance_score <= -0.01\ngini = 0.453\nsamples = 72\nvalue = [25, 47]\nclass = 0", fillcolor="#a2d1f3"] ;
761 -> 773 ;
774 [label="income <= -1.641\ngini = 0.48\nsamples = 15\nvalue = [9, 6]\nclass = 1", fillcolor="#f6d5bd"] ;
773 -> 774 ;
775 [label="gini = 0.0\nsamples = 6\nvalue = [6, 0]\nclass = 1", fillcolor="#e58139"] ;
774 -> 775 ;
776 [label="income <= -1.509\ngini = 0.444\nsamples = 9\nvalue = [3, 6]\nclass = 0", fillcolor="#9ccef2"] ;
774 -> 776 ;
777 [label="confidence_score <= -1.041\ngini = 0.245\nsamples = 7\nvalue = [1, 6]\nclass = 0", fillcolor="#5aade9"] ;
776 -> 777 ;
778 [label="confidence_score <= -1.118\ngini = 0.5\nsamples = 2\nvalue = [1, 1]\nclass = 1", fillcolor="#ffffff"] ;
777 -> 778 ;
779 [label="gini = 0.0\nsamples = 1\nvalue = [0, 1]\nclass = 0", fillcolor="#399de5"] ;
778 -> 779 ;
780 [label="gini = 0.0\nsamples = 1\nvalue = [1, 0]\nclass = 1", fillcolor="#e58139"] ;
778 -> 780 ;
781 [label="gini = 0.0\nsamples = 5\nvalue = [0, 5]\nclass = 0", fillcolor="#399de5"] ;
777 -> 781 ;
782 [label="gini = 0.0\nsamples = 2\nvalue = [2, 0]\nclass = 1", fillcolor="#e58139"] ;
776 -> 782 ;
783 [label="appearance_score <= 1.465\ngini = 0.404\nsamples = 57\nvalue = [16, 41]\nclass = 0", fillcolor="#86c3ef"] ;
773 -> 783 ;
784 [label="interests_score <= 1.12\ngini = 0.38\nsamples = 55\nvalue = [14, 41]\nclass = 0", fillcolor="#7dbeee"] ;
783 -> 784 ;
785 [label="income <= -1.553\ngini = 0.303\nsamples = 43\nvalue = [8, 35]\nclass = 0", fillcolor="#66b3eb"] ;
784 -> 785 ;
786 [label="income <= -1.561\ngini = 0.393\nsamples = 26\nvalue = [7, 19]\nclass = 0", fillcolor="#82c1ef"] ;
785 -> 786 ;
787 [label="appearance_score <= 1.113\ngini = 0.33\nsamples = 24\nvalue = [5, 19]\nclass = 0", fillcolor="#6db7ec"] ;
786 -> 787 ;
788 [label="appearance_score <= 0.832\ngini = 0.444\nsamples = 15\nvalue = [5, 10]\nclass = 0", fillcolor="#9ccef2"] ;
787 -> 788 ;
789 [label="income <= -1.568\ngini = 0.278\nsamples = 12\nvalue = [2, 10]\nclass = 0", fillcolor="#61b1ea"] ;
788 -> 789 ;
790 [label="income <= -1.613\ngini = 0.165\nsamples = 11\nvalue = [1, 10]\nclass = 0", fillcolor="#4da7e8"] ;
789 -> 790 ;
791 [label="gini = 0.0\nsamples = 8\nvalue = [0, 8]\nclass = 0", fillcolor="#399de5"] ;
790 -> 791 ;
792 [label="income <= -1.598\ngini = 0.444\nsamples = 3\nvalue = [1, 2]\nclass = 0", fillcolor="#9ccef2"] ;
790 -> 792 ;
793 [label="gini = 0.0\nsamples = 1\nvalue = [1, 0]\nclass = 1", fillcolor="#e58139"] ;
792 -> 793 ;
794 [label="gini = 0.0\nsamples = 2\nvalue = [0, 2]\nclass = 0", fillcolor="#399de5"] ;
792 -> 794 ;
795 [label="gini = 0.0\nsamples = 1\nvalue = [1, 0]\nclass = 1", fillcolor="#e58139"] ;
789 -> 795 ;
796 [label="gini = 0.0\nsamples = 3\nvalue = [3, 0]\nclass = 1", fillcolor="#e58139"] ;
788 -> 796 ;
797 [label="gini = 0.0\nsamples = 9\nvalue = [0, 9]\nclass = 0", fillcolor="#399de5"] ;
787 -> 797 ;
798 [label="gini = 0.0\nsamples = 2\nvalue = [2, 0]\nclass = 1", fillcolor="#e58139"] ;
786 -> 798 ;
799 [label="appearance_score <= 0.099\ngini = 0.111\nsamples = 17\nvalue = [1, 16]\nclass = 0", fillcolor="#45a3e7"] ;
785 -> 799 ;
800 [label="confidence_score <= -0.618\ngini = 0.5\nsamples = 2\nvalue = [1, 1]\nclass = 1", fillcolor="#ffffff"] ;
799 -> 800 ;
801 [label="gini = 0.0\nsamples = 1\nvalue = [1, 0]\nclass = 1", fillcolor="#e58139"] ;
800 -> 801 ;
802 [label="gini = 0.0\nsamples = 1\nvalue = [0, 1]\nclass = 0", fillcolor="#399de5"] ;
800 -> 802 ;
803 [label="gini = 0.0\nsamples = 15\nvalue = [0, 15]\nclass = 0", fillcolor="#399de5"] ;
799 -> 803 ;
804 [label="appearance_score <= 0.755\ngini = 0.5\nsamples = 12\nvalue = [6, 6]\nclass = 1", fillcolor="#ffffff"] ;
784 -> 804 ;
805 [label="income <= -1.639\ngini = 0.375\nsamples = 8\nvalue = [2, 6]\nclass = 0", fillcolor="#7bbeee"] ;
804 -> 805 ;
806 [label="gini = 0.0\nsamples = 4\nvalue = [0, 4]\nclass = 0", fillcolor="#399de5"] ;
805 -> 806 ;
807 [label="income <= -1.533\ngini = 0.5\nsamples = 4\nvalue = [2, 2]\nclass = 1", fillcolor="#ffffff"] ;
805 -> 807 ;
808 [label="gini = 0.0\nsamples = 2\nvalue = [2, 0]\nclass = 1", fillcolor="#e58139"] ;
807 -> 808 ;
809 [label="gini = 0.0\nsamples = 2\nvalue = [0, 2]\nclass = 0", fillcolor="#399de5"] ;
807 -> 809 ;
810 [label="gini = 0.0\nsamples = 4\nvalue = [4, 0]\nclass = 1", fillcolor="#e58139"] ;
804 -> 810 ;
811 [label="gini = 0.0\nsamples = 2\nvalue = [2, 0]\nclass = 1", fillcolor="#e58139"] ;
783 -> 811 ;
812 [label="confidence_score <= 0.262\ngini = 0.49\nsamples = 93\nvalue = [53, 40]\nclass = 1", fillcolor="#f9e0ce"] ;
760 -> 812 ;
813 [label="gini = 0.0\nsamples = 9\nvalue = [9, 0]\nclass = 1", fillcolor="#e58139"] ;
812 -> 813 ;
814 [label="appearance_score <= 1.038\ngini = 0.499\nsamples = 84\nvalue = [44, 40]\nclass = 1", fillcolor="#fdf4ed"] ;
812 -> 814 ;
815 [label="appearance_score <= 0.203\ngini = 0.486\nsamples = 65\nvalue = [38, 27]\nclass = 1", fillcolor="#f7dbc6"] ;
814 -> 815 ;
816 [label="income <= -1.657\ngini = 0.496\nsamples = 33\nvalue = [15, 18]\nclass = 0", fillcolor="#deeffb"] ;
815 -> 816 ;
817 [label="income <= -1.706\ngini = 0.32\nsamples = 10\nvalue = [2, 8]\nclass = 0", fillcolor="#6ab6ec"] ;
816 -> 817 ;
818 [label="gini = 0.0\nsamples = 1\nvalue = [1, 0]\nclass = 1", fillcolor="#e58139"] ;
817 -> 818 ;
819 [label="appearance_score <= 0.109\ngini = 0.198\nsamples = 9\nvalue = [1, 8]\nclass = 0", fillcolor="#52a9e8"] ;
817 -> 819 ;
820 [label="gini = 0.0\nsamples = 8\nvalue = [0, 8]\nclass = 0", fillcolor="#399de5"] ;
819 -> 820 ;
821 [label="gini = 0.0\nsamples = 1\nvalue = [1, 0]\nclass = 1", fillcolor="#e58139"] ;
819 -> 821 ;
822 [label="income <= -1.551\ngini = 0.491\nsamples = 23\nvalue = [13, 10]\nclass = 1", fillcolor="#f9e2d1"] ;
816 -> 822 ;
823 [label="appearance_score <= -0.377\ngini = 0.375\nsamples = 12\nvalue = [9, 3]\nclass = 1", fillcolor="#eeab7b"] ;
822 -> 823 ;
824 [label="gini = 0.0\nsamples = 5\nvalue = [5, 0]\nclass = 1", fillcolor="#e58139"] ;
823 -> 824 ;
825 [label="appearance_score <= -0.241\ngini = 0.49\nsamples = 7\nvalue = [4, 3]\nclass = 1", fillcolor="#f8e0ce"] ;
823 -> 825 ;
826 [label="gini = 0.0\nsamples = 3\nvalue = [0, 3]\nclass = 0", fillcolor="#399de5"] ;
825 -> 826 ;
827 [label="gini = 0.0\nsamples = 4\nvalue = [4, 0]\nclass = 1", fillcolor="#e58139"] ;
825 -> 827 ;
828 [label="confidence_score <= 0.456\ngini = 0.463\nsamples = 11\nvalue = [4, 7]\nclass = 0", fillcolor="#aad5f4"] ;
822 -> 828 ;
829 [label="gini = 0.0\nsamples = 2\nvalue = [2, 0]\nclass = 1", fillcolor="#e58139"] ;
828 -> 829 ;
830 [label="interests_score <= 0.174\ngini = 0.346\nsamples = 9\nvalue = [2, 7]\nclass = 0", fillcolor="#72b9ec"] ;
828 -> 830 ;
831 [label="gini = 0.0\nsamples = 5\nvalue = [0, 5]\nclass = 0", fillcolor="#399de5"] ;
830 -> 831 ;
832 [label="age <= -0.534\ngini = 0.5\nsamples = 4\nvalue = [2, 2]\nclass = 1", fillcolor="#ffffff"] ;
830 -> 832 ;
833 [label="gini = 0.0\nsamples = 2\nvalue = [0, 2]\nclass = 0", fillcolor="#399de5"] ;
832 -> 833 ;
834 [label="gini = 0.0\nsamples = 2\nvalue = [2, 0]\nclass = 1", fillcolor="#e58139"] ;
832 -> 834 ;
835 [label="confidence_score <= 0.83\ngini = 0.404\nsamples = 32\nvalue = [23, 9]\nclass = 1", fillcolor="#efb286"] ;
815 -> 835 ;
836 [label="confidence_score <= 0.355\ngini = 0.198\nsamples = 18\nvalue = [16, 2]\nclass = 1", fillcolor="#e89152"] ;
835 -> 836 ;
837 [label="gini = 0.0\nsamples = 1\nvalue = [0, 1]\nclass = 0", fillcolor="#399de5"] ;
836 -> 837 ;
838 [label="age <= 0.825\ngini = 0.111\nsamples = 17\nvalue = [16, 1]\nclass = 1", fillcolor="#e78945"] ;
836 -> 838 ;
839 [label="gini = 0.0\nsamples = 15\nvalue = [15, 0]\nclass = 1", fillcolor="#e58139"] ;
838 -> 839 ;
840 [label="interests_score <= 0.17\ngini = 0.5\nsamples = 2\nvalue = [1, 1]\nclass = 1", fillcolor="#ffffff"] ;
838 -> 840 ;
841 [label="gini = 0.0\nsamples = 1\nvalue = [1, 0]\nclass = 1", fillcolor="#e58139"] ;
840 -> 841 ;
842 [label="gini = 0.0\nsamples = 1\nvalue = [0, 1]\nclass = 0", fillcolor="#399de5"] ;
840 -> 842 ;
843 [label="confidence_score <= 1.078\ngini = 0.5\nsamples = 14\nvalue = [7, 7]\nclass = 1", fillcolor="#ffffff"] ;
835 -> 843 ;
844 [label="appearance_score <= 0.328\ngini = 0.375\nsamples = 8\nvalue = [2, 6]\nclass = 0", fillcolor="#7bbeee"] ;
843 -> 844 ;
845 [label="gini = 0.0\nsamples = 1\nvalue = [1, 0]\nclass = 1", fillcolor="#e58139"] ;
844 -> 845 ;
846 [label="income <= -1.67\ngini = 0.245\nsamples = 7\nvalue = [1, 6]\nclass = 0", fillcolor="#5aade9"] ;
844 -> 846 ;
847 [label="interests_score <= 0.702\ngini = 0.5\nsamples = 2\nvalue = [1, 1]\nclass = 1", fillcolor="#ffffff"] ;
846 -> 847 ;
848 [label="gini = 0.0\nsamples = 1\nvalue = [1, 0]\nclass = 1", fillcolor="#e58139"] ;
847 -> 848 ;
849 [label="gini = 0.0\nsamples = 1\nvalue = [0, 1]\nclass = 0", fillcolor="#399de5"] ;
847 -> 849 ;
850 [label="gini = 0.0\nsamples = 5\nvalue = [0, 5]\nclass = 0", fillcolor="#399de5"] ;
846 -> 850 ;
851 [label="interests_score <= 1.365\ngini = 0.278\nsamples = 6\nvalue = [5, 1]\nclass = 1", fillcolor="#ea9a61"] ;
843 -> 851 ;
852 [label="gini = 0.0\nsamples = 5\nvalue = [5, 0]\nclass = 1", fillcolor="#e58139"] ;
851 -> 852 ;
853 [label="gini = 0.0\nsamples = 1\nvalue = [0, 1]\nclass = 0", fillcolor="#399de5"] ;
851 -> 853 ;
854 [label="appearance_score <= 1.173\ngini = 0.432\nsamples = 19\nvalue = [6, 13]\nclass = 0", fillcolor="#94caf1"] ;
814 -> 854 ;
855 [label="gini = 0.0\nsamples = 9\nvalue = [0, 9]\nclass = 0", fillcolor="#399de5"] ;
854 -> 855 ;
856 [label="job_type <= 0.5\ngini = 0.48\nsamples = 10\nvalue = [6, 4]\nclass = 1", fillcolor="#f6d5bd"] ;
854 -> 856 ;
857 [label="appearance_score <= 1.249\ngini = 0.444\nsamples = 6\nvalue = [2, 4]\nclass = 0", fillcolor="#9ccef2"] ;
856 -> 857 ;
858 [label="gini = 0.0\nsamples = 2\nvalue = [2, 0]\nclass = 1", fillcolor="#e58139"] ;
857 -> 858 ;
859 [label="gini = 0.0\nsamples = 4\nvalue = [0, 4]\nclass = 0", fillcolor="#399de5"] ;
857 -> 859 ;
860 [label="gini = 0.0\nsamples = 4\nvalue = [4, 0]\nclass = 1", fillcolor="#e58139"] ;
856 -> 860 ;
861 [label="appearance_score <= 1.603\ngini = 0.346\nsamples = 18\nvalue = [4, 14]\nclass = 0", fillcolor="#72b9ec"] ;
743 -> 861 ;
862 [label="gini = 0.0\nsamples = 8\nvalue = [0, 8]\nclass = 0", fillcolor="#399de5"] ;
861 -> 862 ;
863 [label="interests_score <= 0.678\ngini = 0.48\nsamples = 10\nvalue = [4, 6]\nclass = 0", fillcolor="#bddef6"] ;
861 -> 863 ;
864 [label="age <= 0.146\ngini = 0.444\nsamples = 6\nvalue = [4, 2]\nclass = 1", fillcolor="#f2c09c"] ;
863 -> 864 ;
865 [label="confidence_score <= 0.983\ngini = 0.444\nsamples = 3\nvalue = [1, 2]\nclass = 0", fillcolor="#9ccef2"] ;
864 -> 865 ;
866 [label="gini = 0.0\nsamples = 2\nvalue = [0, 2]\nclass = 0", fillcolor="#399de5"] ;
865 -> 866 ;
867 [label="gini = 0.0\nsamples = 1\nvalue = [1, 0]\nclass = 1", fillcolor="#e58139"] ;
865 -> 867 ;
868 [label="gini = 0.0\nsamples = 3\nvalue = [3, 0]\nclass = 1", fillcolor="#e58139"] ;
864 -> 868 ;
869 [label="gini = 0.0\nsamples = 4\nvalue = [0, 4]\nclass = 0", fillcolor="#399de5"] ;
863 -> 869 ;
870 [label="job_type <= 0.5\ngini = 0.32\nsamples = 15\nvalue = [12, 3]\nclass = 1", fillcolor="#eca06a"] ;
730 -> 870 ;
871 [label="gini = 0.0\nsamples = 3\nvalue = [0, 3]\nclass = 0", fillcolor="#399de5"] ;
870 -> 871 ;
872 [label="gini = 0.0\nsamples = 12\nvalue = [12, 0]\nclass = 1", fillcolor="#e58139"] ;
870 -> 872 ;
